DATE: 2018-03-30 CONTRIBUTOR: Xiaowang Zhou xzhou@sandia.gov and Lucas Hale lucas.hale@nist.gov CITATION: X. W. Zhou, R. A. Johnson, H. N. G. Wadley, Phys. Rev. B, 69, 144113(2004)
Generated from Zhou04_create_v2.f
Homogenized by Wurong Jian (wurong@ucsb.edu) on 2020-07-22 17:44 ### Concentr.: 2.5e-01 Mo 2.5e-01 Ta 2.5e-01 Nb 2.5e-01 Cr 
5 Mo Ta Nb Cr X
2000 0.2771569812852027E+00 2000 0.3199268520872213E-02 0.6395337773223553E+01
42 95.940 3.8581 fcc
0.000000000000e+00
-1.136631827235e-01
-2.249372966097e-01
-3.338491118518e-01
-4.404243986429e-01
-5.446889271762e-01
-6.466684676450e-01
-7.463887902423e-01
-8.438756651613e-01
-9.391548625953e-01
-1.032252152737e+00
-1.123193305781e+00
-1.212004091919e+00
-1.298710281344e+00
-1.383337644250e+00
-1.465911950830e+00
-1.546458971278e+00
-1.625004475785e+00
-1.701574234546e+00
-1.776194017754e+00
-1.848889595602e+00
-1.919686738283e+00
-1.988611215990e+00
-2.055688798916e+00
-2.120945257255e+00
-2.184406361199e+00
-2.246097880943e+00
-2.306045586679e+00
-2.364275248599e+00
-2.420812636899e+00
-2.475683521770e+00
-2.528913673405e+00
-2.580528861999e+00
-2.630554857744e+00
-2.679017430833e+00
-2.725942351459e+00
-2.771355389816e+00
-2.815282316097e+00
-2.857748900495e+00
-2.898780913204e+00
-2.938404124415e+00
-2.976644304323e+00
-3.013527223121e+00
-3.049078651002e+00
-3.083324358159e+00
-3.116290114785e+00
-3.148001691073e+00
-3.178484857217e+00
-3.207765383410e+00
-3.235869039845e+00
-3.262821596715e+00
-3.288648824213e+00
-3.313376492533e+00
-3.337030371867e+00
-3.359636232409e+00
-3.381219844352e+00
-3.401806977889e+00
-3.421423403214e+00
-3.440094890519e+00
-3.457847209998e+00
-3.474706131844e+00
-3.490697426249e+00
-3.505846863408e+00
-3.520180213514e+00
-3.533723246759e+00
-3.546501733336e+00
-3.558541443440e+00
-3.569868147263e+00
-3.580507614998e+00
-3.590485616838e+00
-3.599827922977e+00
-3.608560303608e+00
-3.616708528924e+00
-3.624298369118e+00
-3.631355594383e+00
-3.637905974913e+00
-3.643975280901e+00
-3.649589282539e+00
-3.654773750022e+00
-3.659554453541e+00
-3.663957163291e+00
-3.668007649465e+00
-3.671731682255e+00
-3.675155031855e+00
-3.678303468458e+00
-3.681202762258e+00
-3.683878683447e+00
-3.686357002219e+00
-3.688663488766e+00
-3.690823913282e+00
-3.692864045961e+00
-3.694804651040e+00
-3.696647961360e+00
-3.698389640991e+00
-3.700025769718e+00
-3.701552427328e+00
-3.702965693603e+00
-3.704261648330e+00
-3.705436371292e+00
-3.706485942275e+00
-3.707406441063e+00
-3.708193947441e+00
-3.708844541194e+00
-3.709354302107e+00
-3.709719309964e+00
-3.709935644551e+00
-3.709999385651e+00
-3.709906613051e+00
-3.709653406534e+00
-3.709235845885e+00
-3.708650010889e+00
-3.707891981332e+00
-3.706957836997e+00
-3.705843657669e+00
-3.704545523134e+00
-3.703059513176e+00
-3.701381707579e+00
-3.699508186129e+00
-3.697435028611e+00
-3.695158314808e+00
-3.692674124507e+00
-3.689978537491e+00
-3.687069051490e+00
-3.683974774895e+00
-3.680713153426e+00
-3.677286107193e+00
-3.673695519611e+00
-3.669943238381e+00
-3.666031076444e+00
-3.661960812888e+00
-3.657734193842e+00
-3.653352933329e+00
-3.648818714090e+00
-3.644133188389e+00
-3.639297978783e+00
-3.634314678871e+00
-3.629184854018e+00
-3.623910042059e+00
-3.618491753972e+00
-3.612931474539e+00
-3.607230662983e+00
-3.601390753581e+00
-3.595413156266e+00
-3.589299257200e+00
-3.583050419343e+00
-3.576667982993e+00
-3.570153266311e+00
-3.563507565842e+00
-3.556732157002e+00
-3.549828294569e+00
-3.542797213145e+00
-3.535640127613e+00
-3.528358233578e+00
-3.520952707797e+00
-3.513424708593e+00
-3.505775376262e+00
-3.498005833463e+00
-3.490117185605e+00
-3.482110521214e+00
-3.473986912296e+00
-3.465747414691e+00
-3.457393068410e+00
-3.448924897969e+00
-3.440343912715e+00
-3.431651107138e+00
-3.422847461179e+00
-3.413933940528e+00
-3.404911496913e+00
-3.395781068385e+00
-3.386543579591e+00
-3.377199942047e+00
-3.367751054393e+00
-3.358197802653e+00
-3.348541060480e+00
-3.338781689401e+00
-3.328920539049e+00
-3.318958447398e+00
-3.308896240982e+00
-3.298734735118e+00
-3.288474734118e+00
-3.278117031495e+00
-3.267662410169e+00
-3.257111642665e+00
-3.246465491305e+00
-3.235724708397e+00
-3.224890036420e+00
-3.213962208204e+00
-3.202941947105e+00
-3.191829967179e+00
-3.180626973344e+00
-3.169333661550e+00
-3.157950718935e+00
-3.146478823985e+00
-3.134918646681e+00
-3.123270848655e+00
-3.111536083329e+00
-3.099714996065e+00
-3.087808224298e+00
-3.075816397674e+00
-3.063740138188e+00
-3.051580060307e+00
-3.039336771104e+00
-3.027010870377e+00
-3.014602950777e+00
-3.002113597922e+00
-2.989543390517e+00
-2.976892900469e+00
-2.964162692995e+00
-2.951353326736e+00
-2.938465353862e+00
-2.925499320176e+00
-2.912455765221e+00
-2.899335222375e+00
-2.886138218953e+00
-2.872865276305e+00
-2.859516909906e+00
-2.846093629452e+00
-2.832595938951e+00
-2.819024336811e+00
-2.805379315925e+00
-2.791661363761e+00
-2.777870962443e+00
-2.764008588831e+00
-2.750074714606e+00
-2.736069806346e+00
-2.721994325605e+00
-2.707848728987e+00
-2.693633468219e+00
-2.679348990229e+00
-2.664995737213e+00
-2.650574146707e+00
-2.636084651657e+00
-2.621527680481e+00
-2.606903657142e+00
-2.592213001210e+00
-2.577456127925e+00
-2.562633448262e+00
-2.547745368987e+00
-2.532792292726e+00
-2.517774618015e+00
-2.502692739366e+00
-2.487547047317e+00
-2.472337928492e+00
-2.457065765658e+00
-2.441730937772e+00
-2.426333820041e+00
-2.410874783970e+00
-2.395354197415e+00
-2.379772424633e+00
-2.364129826328e+00
-2.348426759706e+00
-2.332663578517e+00
-2.316840633103e+00
-2.300958270447e+00
-2.285016834213e+00
-2.269016664796e+00
-2.252958099359e+00
-2.236841471884e+00
-2.220667113207e+00
-2.204435351063e+00
-2.188146510125e+00
-2.171800912047e+00
-2.155398875498e+00
-2.138940716208e+00
-2.122426747000e+00
-2.105857277828e+00
-2.089232615818e+00
-2.072553065300e+00
-2.055818927844e+00
-2.039030502300e+00
-2.022188084823e+00
-2.005291968917e+00
-1.988342445462e+00
-1.971339802747e+00
-1.954284326506e+00
-1.937176299948e+00
-1.920016003785e+00
-1.902803716267e+00
-1.885539713213e+00
-1.868224268034e+00
-1.850857651770e+00
-1.833440133116e+00
-1.815971978448e+00
-1.798453451855e+00
-1.780884815165e+00
-1.763266327968e+00
-1.745598247652e+00
-1.727880829418e+00
-1.710114326317e+00
-1.692298989265e+00
-1.674435067077e+00
-1.656522806486e+00
-1.638562452169e+00
-1.620554246772e+00
-1.602498430933e+00
-1.584395243303e+00
-1.566244920574e+00
-1.548047697495e+00
-1.529803806901e+00
-1.511513479729e+00
-1.493176945045e+00
-1.474794430059e+00
-1.456366160153e+00
-1.437892358896e+00
-1.419373248066e+00
-1.400809047673e+00
-1.382199975975e+00
-1.363546249497e+00
-1.344848083055e+00
-1.326105689770e+00
-1.307319281090e+00
-1.288489066805e+00
-1.269615255070e+00
-1.250698052418e+00
-1.231737663779e+00
-1.212734292501e+00
-1.193688140362e+00
-1.174599407589e+00
-1.155468292877e+00
-1.136294993400e+00
-1.117079704833e+00
-1.097822621364e+00
-1.078523935713e+00
-1.059183839145e+00
-1.039802521484e+00
-1.020380171133e+00
-1.000916975086e+00
-9.814131189413e-01
-9.618687869195e-01
-9.422841618748e-01
-9.226594253109e-01
-9.029947573943e-01
-8.832903369683e-01
-8.635463415665e-01
-8.437629474260e-01
-8.239403295011e-01
-8.040786614760e-01
-7.841781157779e-01
-7.642388635895e-01
-7.442610748618e-01
-7.242449183264e-01
-7.041905615075e-01
-6.840981707344e-01
-6.639679111531e-01
-6.437999467384e-01
-6.235944403050e-01
-6.033515535194e-01
-5.830714469111e-01
-5.627542798838e-01
-5.424002107264e-01
-5.220093966238e-01
-5.015819936678e-01
-4.811181568680e-01
-4.606180401615e-01
-4.400817964242e-01
-4.195095774803e-01
-3.989015341129e-01
-3.782578160736e-01
-3.575785720927e-01
-3.368639498888e-01
-3.161140961783e-01
-2.953291566850e-01
-2.745092761495e-01
-2.536545983387e-01
-2.327652660545e-01
-2.118414211430e-01
-1.908832045038e-01
-1.698907560982e-01
-1.488642149587e-01
-1.278037191968e-01
-1.067094060121e-01
-8.558141170056e-02
-6.441987166275e-02
-4.322492041211e-02
-2.199669158308e-02
-7.353179391328e-04
2.055906861930e-02
4.188633704701e-02
6.324635714621e-02
8.463899955894e-02
1.060641357595e-01
1.275216380468e-01
1.490113795372e-01
1.705332341572e-01
1.920870766360e-01
2.136727824983e-01
2.352902280578e-01
2.569392904096e-01
2.786198474234e-01
3.003317777371e-01
3.220749607496e-01
3.438492766143e-01
3.656546062325e-01
3.874908312468e-01
4.093578340350e-01
4.312554977031e-01
4.531837060795e-01
4.751423437088e-01
4.971312958452e-01
5.191504484467e-01
5.411996881691e-01
5.632789023599e-01
5.853879790525e-01
6.075268069603e-01
6.296952754711e-01
6.518932746410e-01
6.741206951892e-01
6.963774284922e-01
7.186633665783e-01
7.409784021221e-01
7.633224284393e-01
7.856953394809e-01
8.080970298285e-01
8.305273946887e-01
8.529863298878e-01
8.754737318672e-01
8.979894976777e-01
9.205335249751e-01
9.431057120147e-01
9.657059576467e-01
9.883341613114e-01
1.010990223034e+00
1.033674043420e+00
1.056385523652e+00
1.079124565482e+00
1.101891071228e+00
1.124684943772e+00
1.147506086551e+00
1.170354403558e+00
1.193229799332e+00
1.216132178956e+00
1.239061448054e+00
1.262017512784e+00
1.285000279839e+00
1.308009656433e+00
1.331045550309e+00
1.354107869725e+00
1.377196523454e+00
1.400311420781e+00
1.423452471498e+00
1.446619585897e+00
1.469812674772e+00
1.493031649411e+00
1.516276421591e+00
1.539546903580e+00
1.562843008127e+00
1.586164648461e+00
1.609511738288e+00
1.632884191786e+00
1.656281923603e+00
1.679704848850e+00
1.703152883103e+00
1.726625942393e+00
1.750123943208e+00
1.773646802487e+00
1.797194437616e+00
1.820766766427e+00
1.844363707192e+00
1.867985178622e+00
1.891631099862e+00
1.915301390488e+00
1.938995970506e+00
1.962714760345e+00
1.986457680857e+00
2.010224653313e+00
2.034015599399e+00
2.057830441213e+00
2.081669101265e+00
2.105531502469e+00
2.129417568143e+00
2.153327222008e+00
2.177260388179e+00
2.201216991170e+00
2.225196955883e+00
2.249200207612e+00
2.273226672036e+00
2.297276275217e+00
2.321348943600e+00
2.345444604005e+00
2.369563183630e+00
2.393704610045e+00
2.417868811189e+00
2.442055715368e+00
2.466265251255e+00
2.490497347883e+00
2.514751934646e+00
2.539028941293e+00
2.563328297931e+00
2.587649935015e+00
2.611993783353e+00
2.636359774097e+00
2.660747838747e+00
2.685157909142e+00
2.709589917463e+00
2.734043796229e+00
2.758519478291e+00
2.783016896837e+00
2.807535985382e+00
2.832076677771e+00
2.856638908175e+00
2.881222611089e+00
2.905827721329e+00
2.930454174030e+00
2.955101904645e+00
2.979770848941e+00
3.004460943000e+00
3.029172123211e+00
3.053904326275e+00
3.078657489199e+00
3.103431549293e+00
3.128226444171e+00
3.153042111746e+00
3.177878490230e+00
3.202735518132e+00
3.227613134254e+00
3.252511277692e+00
3.277429887832e+00
3.302368904347e+00
3.327328267199e+00
3.352307916633e+00
3.377307793178e+00
3.402327837642e+00
3.427367991115e+00
3.452428194963e+00
3.477508390827e+00
3.502608520621e+00
3.527728526533e+00
3.552868351021e+00
3.578027936808e+00
3.603207226887e+00
3.628406164515e+00
3.653624693213e+00
3.678862756761e+00
3.704120299200e+00
3.729397264831e+00
3.754693598208e+00
3.780009244143e+00
3.805344147699e+00
3.830698254192e+00
3.856071509186e+00
3.881463858496e+00
3.906875248181e+00
3.932305624548e+00
3.957754934145e+00
3.983223123764e+00
4.008710140437e+00
4.034215931435e+00
4.059740444266e+00
4.085283626674e+00
4.110845426640e+00
4.136425792375e+00
4.162024672324e+00
4.187642015160e+00
4.213277769787e+00
4.238931885334e+00
4.264604311160e+00
4.290294996843e+00
4.316003892189e+00
4.341730947224e+00
4.367476112193e+00
4.393239337562e+00
4.419020574014e+00
4.444819772449e+00
4.470636883981e+00
4.496471859939e+00
4.522324651864e+00
4.548195211507e+00
4.574083490831e+00
4.599989442006e+00
4.625913017411e+00
4.651854169628e+00
4.677812851447e+00
4.703789015861e+00
4.729782616065e+00
4.755793605453e+00
4.781821937624e+00
4.807867566371e+00
4.833930445687e+00
4.860010529761e+00
4.886107772978e+00
4.912222129915e+00
4.938353555343e+00
4.964502004227e+00
4.990667431719e+00
5.016849793163e+00
5.043049044091e+00
5.069265140221e+00
5.095498037460e+00
5.121747691897e+00
5.148014059807e+00
5.174297097647e+00
5.200596762058e+00
5.226913009859e+00
5.253245798050e+00
5.279595083811e+00
5.305960824497e+00
5.332342977642e+00
5.358741500956e+00
5.385156352321e+00
5.411587489796e+00
5.438034871610e+00
5.464498456164e+00
5.490978202032e+00
5.517474067955e+00
5.543986012845e+00
5.570513995779e+00
5.597057976004e+00
5.623617912931e+00
5.650193766136e+00
5.676785495360e+00
5.703393060506e+00
5.730016421640e+00
5.756655538989e+00
5.783310372941e+00
5.809980884041e+00
5.836667032995e+00
5.863368780667e+00
5.890086088076e+00
5.916818916397e+00
5.943567226962e+00
5.970330981256e+00
5.997110140917e+00
6.023904667735e+00
6.050714523654e+00
6.077539670766e+00
6.104380071314e+00
6.131235687692e+00
6.158106482440e+00
6.184992418245e+00
6.211893457943e+00
6.238809564515e+00
6.265740701087e+00
6.292686830929e+00
6.319647917454e+00
6.346623924220e+00
6.373614814924e+00
6.400620553408e+00
6.427641103649e+00
6.454676429770e+00
6.481726496027e+00
6.508791266819e+00
6.535870706680e+00
6.562964780280e+00
6.590073452427e+00
6.617196688064e+00
6.644334452266e+00
6.671486710245e+00
6.698653427344e+00
6.725834569039e+00
6.753030100939e+00
6.780239988781e+00
6.807464198434e+00
6.834702695899e+00
6.861955447301e+00
6.889222418896e+00
6.916503577068e+00
6.943798888328e+00
6.971108319310e+00
6.998431836778e+00
7.025769407618e+00
7.053120998841e+00
7.080486577582e+00
7.107866111098e+00
7.135259566769e+00
7.162666912097e+00
7.190088114705e+00
7.217523142335e+00
7.244971962851e+00
7.272434544234e+00
7.299910854584e+00
7.327400862122e+00
7.354904535182e+00
7.382421842217e+00
7.409952751796e+00
7.437497232602e+00
7.465055253437e+00
7.492626783212e+00
7.520211790956e+00
7.547810245808e+00
7.575422117024e+00
7.603047373966e+00
7.630685986114e+00
7.658337923054e+00
7.686003154484e+00
7.713681650212e+00
7.741373380157e+00
7.769078314342e+00
7.796796422904e+00
7.824527676082e+00
7.852272044227e+00
7.880029497793e+00
7.907800007342e+00
7.935583543541e+00
7.963380077160e+00
7.991189579078e+00
8.019012020273e+00
8.046847371830e+00
8.074695604934e+00
8.102556690875e+00
8.130430601043e+00
8.158317306931e+00
8.186216780131e+00
8.214128992337e+00
8.242053915341e+00
8.269991521037e+00
8.297941781416e+00
8.325904668568e+00
8.353880154681e+00
8.381868212041e+00
8.409868813028e+00
8.437881930124e+00
8.465907535902e+00
8.493945603032e+00
8.521996104282e+00
8.550059012510e+00
8.578134300672e+00
8.606221941815e+00
8.634321909081e+00
8.662434175706e+00
8.690558715014e+00
8.718695500426e+00
8.746844505452e+00
8.775005703693e+00
8.803179068840e+00
8.831364574677e+00
8.859562195075e+00
8.887771903996e+00
8.915993675490e+00
8.944227483696e+00
8.972473302840e+00
9.000731107238e+00
9.029000871291e+00
9.057282569489e+00
9.085576176405e+00
9.113881666702e+00
9.142199015127e+00
9.170528196510e+00
9.198869185770e+00
9.227221957907e+00
9.255586488007e+00
9.283962751239e+00
9.312350722855e+00
9.340750378191e+00
9.369161692663e+00
9.397584641771e+00
9.426019201098e+00
9.454465346305e+00
9.482923053137e+00
9.511392297417e+00
9.539873055050e+00
9.568365302021e+00
9.596869014394e+00
9.625384168310e+00
9.653910739993e+00
9.682448705742e+00
9.710998041935e+00
9.739558725028e+00
9.768130731554e+00
9.796714038124e+00
9.825308621423e+00
9.853914458215e+00
9.882531525339e+00
9.911159799709e+00
9.939799258315e+00
9.968449878222e+00
9.997111636568e+00
1.002578451057e+01
1.005446847751e+01
1.008316351475e+01
1.011186959972e+01
1.014058670994e+01
1.016931482298e+01
1.019805391649e+01
1.022680396820e+01
1.025556495590e+01
1.028433685746e+01
1.031311965081e+01
1.034191331397e+01
1.037071782501e+01
1.039953316208e+01
1.042835930340e+01
1.045719622726e+01
1.048604391201e+01
1.051490233608e+01
1.054377147796e+01
1.057265131622e+01
1.060154182948e+01
1.063044299644e+01
1.065935479587e+01
1.068827720660e+01
1.071721020752e+01
1.074615377761e+01
1.077510789589e+01
1.080407254146e+01
1.083304769349e+01
1.086203333119e+01
1.089102943386e+01
1.092003598087e+01
1.094905295163e+01
1.097808032562e+01
1.100711808241e+01
1.103616620159e+01
1.106522466285e+01
1.109429344593e+01
1.112337253062e+01
1.115246189680e+01
1.118156152439e+01
1.121067139339e+01
1.123979148383e+01
1.126892177583e+01
1.129806224957e+01
1.132721288529e+01
1.135637366326e+01
1.138554456386e+01
1.141472556749e+01
1.144391665464e+01
1.147311780583e+01
1.150232900166e+01
1.153155022278e+01
1.156078144991e+01
1.159002266382e+01
1.161927384533e+01
1.164853497534e+01
1.167780603478e+01
1.170708700466e+01
1.173637786605e+01
1.176567860005e+01
1.179498918784e+01
1.182430961066e+01
1.185363984979e+01
1.188297988658e+01
1.191232970242e+01
1.194168927876e+01
1.197105859713e+01
1.200043763909e+01
1.202982638625e+01
1.205922482029e+01
1.208863292295e+01
1.211805067601e+01
1.214747806130e+01
1.217691506073e+01
1.220636165623e+01
1.223581782981e+01
1.226528356352e+01
1.229475883946e+01
1.232424363980e+01
1.235373794675e+01
1.238324174258e+01
1.241275500959e+01
1.244227773016e+01
1.247180988670e+01
1.250135146169e+01
1.253090243766e+01
1.256046279717e+01
1.259003252285e+01
1.261961159737e+01
1.264920000347e+01
1.267879772392e+01
1.270840474154e+01
1.273802103922e+01
1.276764659987e+01
1.279728140648e+01
1.282692544206e+01
1.285657868970e+01
1.288624113251e+01
1.291591275367e+01
1.294559353640e+01
1.297528346396e+01
1.300498251967e+01
1.303469068690e+01
1.306440794906e+01
1.309413428961e+01
1.312386969206e+01
1.315361413995e+01
1.318336761690e+01
1.321313010655e+01
1.324290159259e+01
1.327268205876e+01
1.330247148886e+01
1.333226986672e+01
1.336207717621e+01
1.339189340126e+01
1.342171852584e+01
1.345155253397e+01
1.348139540971e+01
1.351124713716e+01
1.354110770048e+01
1.357097708385e+01
1.360085527153e+01
1.363074224779e+01
1.366063799697e+01
1.369054250343e+01
1.372045575159e+01
1.375037772591e+01
1.378030841090e+01
1.381024779109e+01
1.384019585109e+01
1.387015257552e+01
1.390011794906e+01
1.393009195642e+01
1.396007458237e+01
1.399006581170e+01
1.402006562927e+01
1.405007401996e+01
1.408009096869e+01
1.411011646045e+01
1.414015048023e+01
1.417019301309e+01
1.420024404413e+01
1.423030355848e+01
1.426037154132e+01
1.429044797786e+01
1.432053285336e+01
1.435062615312e+01
1.438072786247e+01
1.441083796679e+01
1.444095645150e+01
1.447108330206e+01
1.450121850397e+01
1.453136204275e+01
1.456151390400e+01
1.459167407331e+01
1.462184253635e+01
1.465201927880e+01
1.468220428641e+01
1.471239754494e+01
1.474259904019e+01
1.477280875802e+01
1.480302668431e+01
1.483325280498e+01
1.486348710600e+01
1.489372957335e+01
1.492398019309e+01
1.495423895128e+01
1.498450583404e+01
1.501478082750e+01
1.504506391787e+01
1.507535509135e+01
1.510565433421e+01
1.513596163274e+01
1.516627697328e+01
1.519660034220e+01
1.522693172589e+01
1.525727111080e+01
1.528761848340e+01
1.531797383022e+01
1.534833713779e+01
1.537870839270e+01
1.540908758157e+01
1.543947469105e+01
1.546986970783e+01
1.550027261864e+01
1.553068341024e+01
1.556110206942e+01
1.559152858301e+01
1.562196293787e+01
1.565240512091e+01
1.568285511905e+01
1.571331291926e+01
1.574377850854e+01
1.577425187392e+01
1.580473300248e+01
1.583522188131e+01
1.586571849756e+01
1.589622283838e+01
1.592673489098e+01
1.595725464260e+01
1.598778208051e+01
1.601831719200e+01
1.604885996441e+01
1.607941038511e+01
1.610996844149e+01
1.614053412100e+01
1.617110741108e+01
1.620168829925e+01
1.623227677302e+01
1.626287281996e+01
1.629347642766e+01
1.632408758375e+01
1.635470627588e+01
1.638533249174e+01
1.641596621905e+01
1.644660744556e+01
1.647725615904e+01
1.650791234732e+01
1.653857599824e+01
1.656924709967e+01
1.659992563952e+01
1.663061160572e+01
1.666130498624e+01
1.669200576908e+01
1.672271394227e+01
1.675342949386e+01
1.678415241194e+01
1.681488268463e+01
1.684562030008e+01
1.687636524646e+01
1.690711751199e+01
1.693787708490e+01
1.696864395345e+01
1.699941810595e+01
1.703019953072e+01
1.706098821611e+01
1.709178415051e+01
1.712258732233e+01
1.715339772002e+01
1.718421533203e+01
1.721504014688e+01
1.724587215309e+01
1.727671133922e+01
1.730755769385e+01
1.733841120560e+01
1.736927186310e+01
1.740013965503e+01
1.743101457008e+01
1.746189659699e+01
1.749278572450e+01
1.752368194139e+01
1.755458523648e+01
1.758549559860e+01
1.761641301661e+01
1.764733747941e+01
1.767826897591e+01
1.770920749506e+01
1.774015302584e+01
1.777110555723e+01
1.780206507828e+01
1.783303157803e+01
1.786400504557e+01
1.789498546999e+01
1.792597284044e+01
1.795696714608e+01
1.798796837608e+01
1.801897651967e+01
1.804999156608e+01
1.808101350458e+01
1.811204232445e+01
1.814307801502e+01
1.817412056563e+01
1.820516996564e+01
1.823622620446e+01
1.826728927150e+01
1.829835915620e+01
1.832943584804e+01
1.836051933651e+01
1.839160961113e+01
1.842270666146e+01
1.845381047705e+01
1.848492104752e+01
1.851603836248e+01
1.854716241157e+01
1.857829318447e+01
1.860943067087e+01
1.864057486050e+01
1.867172574309e+01
1.870288330842e+01
1.873404754628e+01
1.876521844650e+01
1.879639599890e+01
1.882758019336e+01
1.885877101977e+01
1.888996846804e+01
1.892117252810e+01
1.895238318993e+01
1.898360044351e+01
1.901482427884e+01
1.904605468596e+01
1.907729165493e+01
1.910853517582e+01
1.913978523874e+01
1.917104183381e+01
1.920230495118e+01
1.923357458103e+01
1.926485071355e+01
1.929613333896e+01
1.932742244750e+01
1.935871802943e+01
1.939002007505e+01
1.942132857465e+01
1.945264351858e+01
1.948396489719e+01
1.951529270085e+01
1.954662691997e+01
1.957796754496e+01
1.960931456628e+01
1.964066797437e+01
1.967202775975e+01
1.970339391290e+01
1.973476642438e+01
1.976614528472e+01
1.979753048451e+01
1.982892201435e+01
1.986031986484e+01
1.989172402664e+01
1.992313449041e+01
1.995455124683e+01
1.998597428660e+01
2.001740360046e+01
2.004883917914e+01
2.008028101342e+01
2.011172909409e+01
2.014318341196e+01
2.017464395786e+01
2.020611072265e+01
2.023758369719e+01
2.026906287239e+01
2.030054823915e+01
2.033203978842e+01
2.036353751115e+01
2.039504139832e+01
2.042655144093e+01
2.045806762999e+01
2.048958995654e+01
2.052111841164e+01
2.055265298637e+01
2.058419367183e+01
2.061574045914e+01
2.064729333943e+01
2.067885230387e+01
2.071041734363e+01
2.074198844992e+01
2.077356561395e+01
2.080514882696e+01
2.083673808021e+01
2.086833336497e+01
2.089993467255e+01
2.093154199426e+01
2.096315532143e+01
2.099477464542e+01
2.102639995760e+01
2.105803124938e+01
2.108966851215e+01
2.112131173736e+01
2.115296091645e+01
2.118461604090e+01
2.121627710219e+01
2.124794409183e+01
2.127961700136e+01
2.131129582230e+01
2.134298054623e+01
2.137467116474e+01
2.140636766941e+01
2.143807005188e+01
2.146977830377e+01
2.150149241676e+01
2.153321238251e+01
2.156493819271e+01
2.159666983908e+01
2.162840731335e+01
2.166015060726e+01
2.169189971259e+01
2.172365462111e+01
2.175541532463e+01
2.178718181497e+01
2.181895408397e+01
2.185073212348e+01
2.188251592537e+01
2.191430548155e+01
2.194610078390e+01
2.197790182437e+01
2.200970859490e+01
2.204152108745e+01
2.207333929399e+01
2.210516320653e+01
2.213699281707e+01
2.216882811766e+01
2.220066910033e+01
2.223251575715e+01
2.226436808021e+01
2.229622606161e+01
2.232808969345e+01
2.235995896788e+01
2.239183387705e+01
2.242371441312e+01
2.245560056828e+01
2.248749233472e+01
2.251938970468e+01
2.255129267037e+01
2.258320122406e+01
2.261511535801e+01
2.264703506450e+01
2.267896033584e+01
2.271089116434e+01
2.274282754234e+01
2.277476946218e+01
2.280671691624e+01
2.283866989689e+01
2.287062839653e+01
2.290259240758e+01
2.293456192248e+01
2.296653693365e+01
2.299851743358e+01
2.303050341474e+01
2.306249486962e+01
2.309449179073e+01
2.312649417060e+01
2.315850200178e+01
2.319051527681e+01
2.322253398829e+01
2.325455812878e+01
2.328658769090e+01
2.331862266728e+01
2.335066305054e+01
2.338270883333e+01
2.341476000833e+01
2.344681656822e+01
2.347887850569e+01
2.351094581345e+01
2.354301848424e+01
2.357509651080e+01
2.360717988589e+01
2.363926860227e+01
2.367136265274e+01
2.370346203011e+01
2.373556672718e+01
2.376767673680e+01
2.379979205181e+01
2.383191266508e+01
2.386403856948e+01
2.389616975791e+01
2.392830622327e+01
2.396044795849e+01
2.399259495650e+01
2.402474721026e+01
2.405690471272e+01
2.408906745688e+01
2.412123543573e+01
2.415340864226e+01
2.418558706952e+01
2.421777071054e+01
2.424995955836e+01
2.428215360607e+01
2.431435284672e+01
2.434655727344e+01
2.437876687931e+01
2.441098165747e+01
2.444320160105e+01
2.447542670320e+01
2.450765695709e+01
2.453989235591e+01
2.457213289283e+01
2.460437856107e+01
2.463662935385e+01
2.466888526441e+01
2.470114628599e+01
2.473341241186e+01
2.476568363528e+01
2.479795994956e+01
2.483024134799e+01
2.486252782389e+01
2.489481937059e+01
2.492711598144e+01
2.495941764979e+01
2.499172436901e+01
2.502403613248e+01
2.505635293361e+01
2.508867476580e+01
2.512100162248e+01
2.515333349709e+01
2.518567038307e+01
2.521801227388e+01
2.525035916301e+01
2.528271104395e+01
2.531506791019e+01
2.534742975525e+01
2.537979657267e+01
2.541216835597e+01
2.544454509873e+01
2.547692679449e+01
2.550931343685e+01
2.554170501940e+01
2.557410153574e+01
2.560650297949e+01
2.563890934428e+01
2.567132062375e+01
2.570373681157e+01
2.573615790140e+01
2.576858388692e+01
2.580101476183e+01
2.583345051983e+01
2.586589115464e+01
2.589833665999e+01
2.593078702963e+01
2.596324225731e+01
2.599570233680e+01
2.602816726188e+01
2.606063702634e+01
2.609311162400e+01
2.612559104866e+01
2.615807529415e+01
2.619056435433e+01
2.622305822303e+01
2.625555689413e+01
2.628806036150e+01
2.632056861904e+01
2.635308166064e+01
2.638559948022e+01
2.641812207170e+01
2.645064942902e+01
2.648318154613e+01
2.651571841700e+01
2.654826003558e+01
2.658080639588e+01
2.661335749188e+01
2.664591331759e+01
2.667847386703e+01
2.671103913423e+01
2.674360911323e+01
2.677618379809e+01
2.680876318288e+01
2.684134726166e+01
2.687393602854e+01
2.690652947760e+01
2.693912760296e+01
2.697173039875e+01
2.700433785909e+01
2.703694997813e+01
2.706956675003e+01
2.710218816896e+01
2.713481422909e+01
2.716744492462e+01
2.720008024974e+01
2.723272019867e+01
2.726536476563e+01
2.729801394486e+01
2.733066773059e+01
2.736332611710e+01
2.739598909865e+01
2.742865666950e+01
2.746132882396e+01
2.749400555633e+01
2.752668686091e+01
2.755937273202e+01
2.759206316401e+01
2.762475815121e+01
2.765745768798e+01
2.769016176867e+01
2.772287038768e+01
2.775558353938e+01
2.778830121817e+01
2.782102341847e+01
2.785375013467e+01
2.788648136123e+01
2.791921709256e+01
2.795195732314e+01
2.798470204740e+01
2.801745125984e+01
2.805020495491e+01
2.808296312713e+01
2.811572577098e+01
2.814849288099e+01
2.818126445167e+01
2.821404047756e+01
2.824682095319e+01
2.827960587313e+01
2.831239523194e+01
2.834518902418e+01
2.837798724445e+01
2.841078988733e+01
2.844359694743e+01
2.847640841937e+01
2.850922429777e+01
2.854204457726e+01
2.857486925248e+01
2.860769831810e+01
2.864053176877e+01
2.867336959917e+01
2.870621180398e+01
2.873905837790e+01
2.877190931562e+01
2.880476461187e+01
2.883762426136e+01
2.887048825883e+01
2.890335659902e+01
2.893622927668e+01
2.896910628658e+01
2.900198762348e+01
2.903487328217e+01
2.906776325744e+01
2.910065754409e+01
2.913355613692e+01
2.916645903076e+01
2.919936622044e+01
2.923227770080e+01
2.926519346668e+01
2.929811351294e+01
2.933103783445e+01
2.936396642608e+01
2.939689928272e+01
2.942983639927e+01
2.946277777062e+01
2.949572339170e+01
2.952867325742e+01
2.956162736273e+01
2.959458570255e+01
2.962754827184e+01
2.966051506556e+01
2.969348607868e+01
2.972646130618e+01
2.975944074304e+01
2.979242438426e+01
2.982541222484e+01
2.985840425981e+01
2.989140048418e+01
2.992440089299e+01
2.995740548127e+01
2.999041424408e+01
3.002342717648e+01
3.005644427354e+01
3.008946553033e+01
3.012249094193e+01
3.015552050346e+01
3.018855421000e+01
3.022159205666e+01
3.025463403859e+01
3.028768015089e+01
3.032073038871e+01
3.035378474720e+01
3.038684322152e+01
3.041990580682e+01
3.045297249829e+01
3.048604329110e+01
3.051911818045e+01
3.055219716154e+01
3.058528022957e+01
3.061836737975e+01
3.065145860733e+01
3.068455390752e+01
3.071765327557e+01
3.075075670673e+01
3.078386419627e+01
3.081697573944e+01
3.085009133152e+01
3.088321096780e+01
3.091633464358e+01
3.094946235414e+01
3.098259409480e+01
3.101572986088e+01
3.104886964771e+01
3.108201345061e+01
3.111516126494e+01
3.114831308603e+01
3.118146890925e+01
3.121462872997e+01
3.124779254357e+01
3.128096034541e+01
3.131413213090e+01
3.134730789544e+01
3.138048763443e+01
3.141367134329e+01
3.144685901744e+01
3.148005065232e+01
3.151324624336e+01
3.154644578601e+01
3.157964927573e+01
3.161285670798e+01
3.164606807823e+01
3.167928338196e+01
3.171250261466e+01
3.174572577182e+01
3.177895284896e+01
3.181218384157e+01
3.184541874517e+01
3.187865755530e+01
3.191190026749e+01
3.194514687727e+01
3.197839738021e+01
3.201165177185e+01
3.204491004777e+01
3.207817220353e+01
3.211143823471e+01
3.214470813691e+01
3.217798190571e+01
3.221125953673e+01
3.224454102558e+01
3.227782636786e+01
3.231111555922e+01
3.234440859527e+01
3.237770547168e+01
3.241100618407e+01
3.244431072811e+01
3.247761909946e+01
3.251093129380e+01
3.254424730680e+01
3.257756713414e+01
3.261089077153e+01
3.264421821466e+01
3.267754945924e+01
3.271088450099e+01
3.274422333562e+01
3.277756595888e+01
3.281091236649e+01
3.284426255420e+01
3.287761651776e+01
3.291097425293e+01
3.294433575549e+01
3.297770102119e+01
3.301107004583e+01
3.304444282519e+01
3.307781935507e+01
3.311119963126e+01
3.314458364959e+01
3.317797140585e+01
3.321136289589e+01
3.324475811552e+01
3.327815706060e+01
3.331155972695e+01
3.334496611043e+01
3.337837620691e+01
3.341179001225e+01
3.344520752232e+01
3.347862873300e+01
3.351205364017e+01
3.354548223974e+01
3.357891452760e+01
3.361235049966e+01
3.364579015183e+01
3.367923348004e+01
3.371268048021e+01
3.374613114828e+01
3.377958548019e+01
3.381304347189e+01
3.384650511933e+01
3.387997041848e+01
3.391343936530e+01
3.394691195577e+01
3.398038818588e+01
3.401386805161e+01
3.404735154895e+01
3.408083867391e+01
3.411432942251e+01
3.414782379075e+01
3.418132177465e+01
3.421482337025e+01
3.424832857359e+01
3.428183738070e+01
3.431534978763e+01
3.434886579043e+01
3.438238538518e+01
3.441590856794e+01
3.444943533478e+01
3.448296568178e+01
3.451649960504e+01
3.455003710064e+01
3.458357816469e+01
3.461712279330e+01
3.465067098257e+01
3.468422272863e+01
3.471777802761e+01
3.475133687563e+01
3.478489926885e+01
3.481846520339e+01
3.485203467542e+01
3.488560768109e+01
3.491918421657e+01
3.495276427803e+01
3.498634786164e+01
3.501993496359e+01
3.505352558007e+01
3.508711970728e+01
3.512071734141e+01
3.515431847867e+01
3.518792311529e+01
3.522153124747e+01
3.525514287145e+01
3.528875798347e+01
3.532237657974e+01
3.535599865654e+01
3.538962421010e+01
3.542325323668e+01
3.545688573255e+01
3.549052169398e+01
3.552416111723e+01
3.555780399860e+01
3.559145033438e+01
3.562510012085e+01
3.565875335431e+01
3.569241003108e+01
3.572607014745e+01
3.575973369976e+01
3.579340068433e+01
3.582707109747e+01
3.586074493554e+01
3.589442219487e+01
3.592810287181e+01
3.596178696270e+01
3.599547446392e+01
3.602916537183e+01
3.606285968279e+01
3.609655739319e+01
3.613025849940e+01
3.616396299782e+01
3.619767088483e+01
3.623138215685e+01
3.626509681027e+01
3.629881484150e+01
3.633253624697e+01
3.636626102309e+01
3.639998916630e+01
3.643372067302e+01
3.646745553971e+01
3.650119376280e+01
3.653493533874e+01
3.656868026400e+01
3.660242853503e+01
3.663618014831e+01
3.666993510031e+01
3.670369338750e+01
3.673745500638e+01
3.677121995343e+01
3.680498822515e+01
3.683875981804e+01
3.687253472861e+01
3.690631295337e+01
3.694009448884e+01
3.697387933155e+01
3.700766747802e+01
3.704145892480e+01
3.707525366841e+01
3.710905170540e+01
3.714285303233e+01
3.717665764576e+01
3.721046554224e+01
3.724427671835e+01
3.727809117065e+01
3.731190889573e+01
3.734572989017e+01
3.737955415055e+01
3.741338167348e+01
3.744721245555e+01
3.748104649337e+01
3.751488378355e+01
3.754872432270e+01
3.758256810744e+01
3.761641513441e+01
3.765026540024e+01
3.768411890155e+01
3.771797563500e+01
3.775183559722e+01
3.778569878489e+01
3.781956519464e+01
3.785343482315e+01
3.788730766708e+01
3.792118372310e+01
3.795506298791e+01
3.798894545817e+01
3.802283113058e+01
3.805672000183e+01
3.809061206863e+01
3.812450732767e+01
3.815840577567e+01
3.819230740934e+01
3.822621222540e+01
3.826012022057e+01
3.829403139159e+01
3.832794573519e+01
3.836186324812e+01
3.839578392710e+01
3.842970776891e+01
3.846363477028e+01
3.849756492798e+01
3.853149823878e+01
3.856543469945e+01
3.859937430676e+01
3.863331705749e+01
3.866726294842e+01
3.870121197636e+01
3.873516413808e+01
3.876911943039e+01
3.880307785010e+01
3.883703939402e+01
3.887100405895e+01
3.890497184172e+01
3.893894273916e+01
3.897291674809e+01
3.900689386534e+01
3.904087408776e+01
3.907485741219e+01
3.910884383548e+01
3.914283335447e+01
3.917682596604e+01
3.921082166703e+01
3.924482045432e+01
3.927882232479e+01
3.931282727530e+01
3.934683530274e+01
3.938084640400e+01
3.941486057597e+01
3.944887781554e+01
3.948289811962e+01
3.951692148510e+01
3.955094790891e+01
3.958497738795e+01
3.961900991915e+01
3.965304549942e+01
3.968708412571e+01
3.972112579493e+01
3.975517050404e+01
3.978921824996e+01
3.982326902966e+01
3.985732284007e+01
3.989137967817e+01
3.992543954090e+01
3.995950242523e+01
3.999356832815e+01
4.002763724661e+01
4.006170917760e+01
4.009578411810e+01
4.012986206510e+01
4.016394301560e+01
4.019802696659e+01
4.023211391507e+01
4.026620385805e+01
4.030029679254e+01
4.033439271556e+01
4.036849162413e+01
4.040259351526e+01
4.043669838599e+01
4.047080623336e+01
4.050491705439e+01
4.053903084614e+01
4.057314760564e+01
4.060726732995e+01
4.064139001613e+01
4.067551566123e+01
4.070964426232e+01
4.074377581646e+01
4.077791032073e+01
4.081204777221e+01
4.084618816797e+01
4.088033150511e+01
4.091447778071e+01
4.094862699186e+01
4.098277913567e+01
4.101693420924e+01
4.105109220968e+01
4.108525313409e+01
4.111941697959e+01
4.115358374331e+01
4.118775342236e+01
4.122192601388e+01
4.125610151500e+01
4.129027992285e+01
4.132446123458e+01
4.135864544733e+01
4.139283255825e+01
4.142702256450e+01
4.146121546322e+01
4.149541125160e+01
4.152960992678e+01
4.156381148595e+01
4.159801592627e+01
4.163222324492e+01
4.166643343910e+01
4.170064650598e+01
4.173486244275e+01
4.176908124661e+01
4.180330291477e+01
4.183752744442e+01
4.187175483276e+01
4.190598507703e+01
4.194021817441e+01
4.197445412215e+01
4.200869291746e+01
4.204293455757e+01
4.207717903970e+01
4.211142636111e+01
4.214567651902e+01
4.217992951068e+01
4.221418533334e+01
4.224844398425e+01
4.228270546066e+01
4.231696975984e+01
4.235123687905e+01
4.238550681555e+01
4.241977956663e+01
4.245405512955e+01
4.248833350159e+01
4.252261468004e+01
4.255689866218e+01
4.259118544531e+01
4.262547502672e+01
4.265976740371e+01
4.269406257358e+01
4.272836053365e+01
4.276266128121e+01
4.279696481359e+01
4.283127112810e+01
4.286558022207e+01
4.289989209283e+01
4.293420673769e+01
4.296852415400e+01
4.300284433910e+01
4.303716729032e+01
4.307149300501e+01
4.310582148052e+01
4.314015271421e+01
4.317448670342e+01
4.320882344553e+01
4.324316293788e+01
4.327750517787e+01
4.331185016284e+01
4.334619789018e+01
4.338054835728e+01
4.341490156150e+01
4.344925750025e+01
4.348361617090e+01
4.351797757086e+01
4.355234169751e+01
4.358670854827e+01
4.362107812054e+01
4.365545041172e+01
4.368982541923e+01
4.372420314049e+01
4.375858357292e+01
4.379296671393e+01
4.382735256096e+01
4.386174111143e+01
4.389613236279e+01
4.393052631247e+01
4.396492295791e+01
4.399932229655e+01
4.403372432585e+01
4.406812904327e+01
4.410253644624e+01
4.413694653224e+01
4.417135929873e+01
4.420577474317e+01
4.424019286303e+01
4.427461365580e+01
4.430903711894e+01
4.434346324994e+01
4.437789204628e+01
4.441232350546e+01
4.444675762495e+01
4.448119440227e+01
4.451563383489e+01
4.455007592034e+01
4.458452065611e+01
4.461896803972e+01
4.465341806867e+01
4.468787074048e+01
4.472232605268e+01
4.475678400278e+01
4.479124458831e+01
4.482570780681e+01
4.486017365580e+01
4.489464213282e+01
4.492911323541e+01
4.496358696112e+01
4.499806330750e+01
4.503254227208e+01
4.506702385244e+01
4.510150804612e+01
4.513599485069e+01
4.517048426370e+01
4.520497628274e+01
4.523947090536e+01
4.527396812915e+01
4.530846795167e+01
4.534297037052e+01
4.537747538328e+01
4.541198298752e+01
4.544649318086e+01
4.548100596087e+01
4.551552132516e+01
4.555003927132e+01
4.558455979697e+01
4.561908289971e+01
4.565360857714e+01
4.568813682690e+01
4.572266764658e+01
4.575720103382e+01
4.579173698623e+01
4.582627550145e+01
4.586081657710e+01
4.589536021082e+01
4.592990640024e+01
4.596445514302e+01
4.599900643678e+01
4.603356027917e+01
4.606811666785e+01
4.610267560047e+01
4.613723707469e+01
4.617180108816e+01
4.620636763855e+01
4.624093672352e+01
4.627550834075e+01
4.631008248790e+01
4.634465916265e+01
4.637923836268e+01
4.641382008567e+01
4.644840432931e+01
4.648299109129e+01
4.651758036928e+01
4.655217216100e+01
4.658676646414e+01
4.662136327640e+01
4.665596259547e+01
4.669056441908e+01
4.672516874493e+01
4.675977557073e+01
4.679438489419e+01
4.682899671305e+01
4.686361102502e+01
4.689822782782e+01
4.693284711919e+01
4.696746889685e+01
4.700209315855e+01
4.703671990201e+01
4.707134912498e+01
4.710598082521e+01
4.714061500044e+01
4.717525164842e+01
4.720989076690e+01
4.724453235364e+01
4.727917640640e+01
4.731382292294e+01
4.734847190103e+01
4.738312333843e+01
4.741777723292e+01
4.745243358226e+01
4.748709238425e+01
4.752175363664e+01
4.755641733724e+01
4.759108348382e+01
4.762575207418e+01
4.766042310610e+01
4.769509657738e+01
4.772977248582e+01
4.776445082922e+01
4.779913160539e+01
4.783381481212e+01
4.786850044724e+01
4.790318850854e+01
4.793787899385e+01
4.797257190099e+01
4.800726722777e+01
4.804196497203e+01
4.807666513158e+01
4.811136770426e+01
4.814607268790e+01
4.818078008034e+01
4.821548987941e+01
4.825020208296e+01
4.828491668882e+01
4.831963369486e+01
4.835435309891e+01
4.838907489883e+01
4.842379909248e+01
4.845852567771e+01
4.849325465239e+01
4.852798601438e+01
4.856271976155e+01
4.859745589176e+01
4.863219440289e+01
4.866693529281e+01
4.870167855941e+01
4.873642420057e+01
4.877117221416e+01
4.880592259807e+01
4.884067535020e+01
4.887543046843e+01
4.891018795067e+01
4.894494779480e+01
4.897970999873e+01
4.901447456037e+01
4.904924147761e+01
4.908401074837e+01
4.911878237056e+01
4.915355634209e+01
4.918833266088e+01
4.922311132485e+01
4.925789233192e+01
4.929267568002e+01
4.932746136708e+01
4.936224939101e+01
4.939703974977e+01
4.943183244128e+01
4.946662746348e+01
4.950142481432e+01
4.953622449174e+01
4.957102649368e+01
4.960583081809e+01
4.964063746293e+01
4.967544642615e+01
4.971025770571e+01
4.974507129957e+01
4.977988720569e+01
4.981470542203e+01
4.984952594657e+01
4.988434877728e+01
4.991917391212e+01
4.995400134907e+01
4.998883108612e+01
5.002366312124e+01
5.005849745242e+01
5.009333407764e+01
5.012817299489e+01
5.016301420217e+01
1.054348217446e+02
1.054348217446e+02
1.054348217446e+02
1.054348217446e+02
1.054348217446e+02
1.054348217446e+02
1.054348217446e+02
1.054348217446e+02
1.054348217446e+02
1.054348217446e+02
1.054348217446e+02
1.054348217446e+02
1.054348217446e+02
1.054348217446e+02
1.054348217446e+02
1.054348217446e+02
1.054348217446e+02
1.054348217446e+02
1.054348217446e+02
1.054348217446e+02
1.054348217446e+02
1.054348217446e+02
1.054348217446e+02
1.054348217446e+02
1.054348217446e+02
1.054348217446e+02
1.054348217446e+02
1.054348217446e+02
1.054348217446e+02
1.054348217446e+02
1.054348217446e+02
1.054348217446e+02
1.054348217446e+02
1.054348217446e+02
1.054348217446e+02
1.054348217446e+02
1.054348217446e+02
1.054348217446e+02
1.054348217446e+02
1.054348217446e+02
1.054348217446e+02
1.054348217446e+02
1.054348217446e+02
1.054348217446e+02
1.054348217446e+02
1.054348217446e+02
1.054348217446e+02
1.054348217446e+02
1.054348217446e+02
1.054348217446e+02
1.054348217446e+02
1.054348217446e+02
1.054348217446e+02
1.054348217446e+02
1.054348217446e+02
1.054348217446e+02
1.054348217446e+02
1.054348217446e+02
1.054348217446e+02
1.054348217446e+02
1.054348217446e+02
1.054348217446e+02
1.054348217446e+02
1.054348217446e+02
1.054348217446e+02
1.054348217446e+02
1.054348217446e+02
1.054348217446e+02
1.054348217446e+02
1.054348217446e+02
1.054348217446e+02
1.054348217446e+02
1.054348217446e+02
1.054348217446e+02
1.054348217446e+02
1.054348217446e+02
1.054348217446e+02
1.054348217446e+02
1.054348217446e+02
1.054348217446e+02
1.054348217446e+02
1.054348217446e+02
1.054348217446e+02
1.054348217446e+02
1.054348217446e+02
1.054348217446e+02
1.054348217446e+02
1.054348217446e+02
1.054348217446e+02
1.054348217446e+02
1.054348217446e+02
1.054348217446e+02
1.054348217446e+02
1.054348217446e+02
1.054348217446e+02
1.054348217446e+02
1.054348217446e+02
1.054348217446e+02
1.054348217446e+02
1.054348217446e+02
1.054348217446e+02
1.054348217446e+02
1.054348217446e+02
1.054348217446e+02
1.054348217446e+02
1.054348217446e+02
1.054348217446e+02
1.054348217446e+02
1.054348217446e+02
1.054348217446e+02
1.054348217446e+02
1.054348217446e+02
1.054348217446e+02
1.054348217446e+02
1.054348217446e+02
1.054348217446e+02
1.054348217446e+02
1.054348217446e+02
1.054348217446e+02
1.054348217446e+02
1.054348217446e+02
1.054348217446e+02
1.054348217446e+02
1.054348217446e+02
1.054348217446e+02
1.054348217446e+02
1.054348217446e+02
1.054348217446e+02
1.054348217446e+02
1.054348217446e+02
1.054348217446e+02
1.054348217446e+02
1.054348217446e+02
1.054348217446e+02
1.054348217446e+02
1.054348217446e+02
1.054348217446e+02
1.054348217446e+02
1.054348217446e+02
1.054348217446e+02
1.054348217446e+02
1.054348217446e+02
1.054348217446e+02
1.054348217446e+02
1.054348217446e+02
1.054348217446e+02
1.054348217446e+02
1.054348217446e+02
1.054348217446e+02
1.054348217446e+02
1.054348217446e+02
1.054348217446e+02
1.054348217446e+02
1.054348217446e+02
1.054348217446e+02
1.054348217446e+02
1.054348217446e+02
1.050402105284e+02
1.044902266328e+02
1.039431224180e+02
1.033988828063e+02
1.028574927987e+02
1.023189374750e+02
1.017832019929e+02
1.012502715878e+02
1.007201315727e+02
1.001927673371e+02
9.966816434726e+01
9.914630814549e+01
9.862718434978e+01
9.811077865341e+01
9.759707682459e+01
9.708606470604e+01
9.657772821460e+01
9.607205334087e+01
9.556902614878e+01
9.506863277524e+01
9.457085942974e+01
9.407569239398e+01
9.358311802148e+01
9.309312273723e+01
9.260569303728e+01
9.212081548840e+01
9.163847672768e+01
9.115866346219e+01
9.068136246860e+01
9.020656059281e+01
8.973424474960e+01
8.926440192225e+01
8.879701916222e+01
8.833208358874e+01
8.786958238851e+01
8.740950281529e+01
8.695183218961e+01
8.649655789836e+01
8.604366739450e+01
8.559314819665e+01
8.514498788882e+01
8.469917412000e+01
8.425569460386e+01
8.381453711841e+01
8.337568950563e+01
8.293913967119e+01
8.250487558406e+01
8.207288527621e+01
8.164315684227e+01
8.121567843922e+01
8.079043828604e+01
8.036742466340e+01
7.994662591331e+01
7.952803043886e+01
7.911162670382e+01
7.869740323239e+01
7.828534860884e+01
7.787545147723e+01
7.746770054106e+01
7.706208456299e+01
7.665859236452e+01
7.625721282567e+01
7.585793488468e+01
7.546074753773e+01
7.506563983859e+01
7.467260089837e+01
7.428161988516e+01
7.389268602380e+01
7.350578859553e+01
7.312091693771e+01
7.273806044354e+01
7.235720856174e+01
7.197835079630e+01
7.160147670614e+01
7.122657590487e+01
7.085363806048e+01
7.048265289504e+01
7.011361018445e+01
6.974649975814e+01
6.938131149879e+01
6.901803534206e+01
6.865666127630e+01
6.829717934229e+01
6.793957963293e+01
6.758385229302e+01
6.722998751895e+01
6.687797555845e+01
6.652780671030e+01
6.617947132408e+01
6.583295979991e+01
6.548826258814e+01
6.514537018917e+01
6.480427315309e+01
6.446496207952e+01
6.412742761726e+01
6.379166046408e+01
6.345765136647e+01
6.312539111936e+01
6.279487056588e+01
6.246608059710e+01
6.213901215179e+01
6.181365621617e+01
6.149000382364e+01
6.116804605455e+01
6.084777403598e+01
6.052917894142e+01
6.021225199062e+01
5.989698444928e+01
5.958336762884e+01
5.927139288622e+01
5.896105162362e+01
5.865233528823e+01
5.834523537204e+01
5.803974341157e+01
5.773585098768e+01
5.743354972529e+01
5.713283129318e+01
5.683368740376e+01
5.653610981281e+01
5.624009031929e+01
5.594562076512e+01
5.565269303489e+01
5.536129905573e+01
5.507143079700e+01
5.478308027013e+01
5.449623952838e+01
5.421090066659e+01
5.392705582104e+01
5.364469716913e+01
5.336381692926e+01
5.308440736054e+01
5.280646076266e+01
5.252996947557e+01
5.225492587936e+01
5.198132239402e+01
5.170915147921e+01
5.143840563410e+01
5.116907739709e+01
5.090115934569e+01
5.063464409626e+01
5.036952430381e+01
5.010579266181e+01
4.984344190201e+01
4.958246479418e+01
4.932285414597e+01
4.906460280269e+01
4.880770364711e+01
4.855214959924e+01
4.829793361620e+01
4.804504869196e+01
4.779348785718e+01
4.754324417902e+01
4.729431076092e+01
4.704668074244e+01
4.680034729907e+01
4.655530364202e+01
4.631154301806e+01
4.606905870930e+01
4.582784403303e+01
4.558789234155e+01
4.534919702194e+01
4.511175149592e+01
4.487554921965e+01
4.464058368355e+01
4.440684841213e+01
4.417433696380e+01
4.394304293070e+01
4.371295993852e+01
4.348408164633e+01
4.325640174640e+01
4.302991396401e+01
4.280461205732e+01
4.258048981716e+01
4.235754106687e+01
4.213575966212e+01
4.191513949078e+01
4.169567447269e+01
4.147735855955e+01
4.126018573472e+01
4.104415001306e+01
4.082924544076e+01
4.061546609521e+01
4.040280608478e+01
4.019125954871e+01
3.998082065692e+01
3.977148360985e+01
3.956324263831e+01
3.935609200332e+01
3.915002599595e+01
3.894503893715e+01
3.874112517762e+01
3.853827909763e+01
3.833649510689e+01
3.813576764434e+01
3.793609117810e+01
3.773746020519e+01
3.753986925149e+01
3.734331287152e+01
3.714778564832e+01
3.695328219328e+01
3.675979714603e+01
3.656732517425e+01
3.637586097352e+01
3.618539926724e+01
3.599593480640e+01
3.580746236949e+01
3.561997676233e+01
3.543347281795e+01
3.524794539642e+01
3.506338938472e+01
3.487979969663e+01
3.469717127253e+01
3.451549907930e+01
3.433477811017e+01
3.415500338461e+01
3.397616994813e+01
3.379827287221e+01
3.362130725412e+01
3.344526821682e+01
3.327015090877e+01
3.309595050386e+01
3.292266220125e+01
3.275028122523e+01
3.257880282510e+01
3.240822227501e+01
3.223853487389e+01
3.206973594527e+01
3.190182083715e+01
3.173478492192e+01
3.156862359616e+01
3.140333228060e+01
3.123890641990e+01
3.107534148261e+01
3.091263296098e+01
3.075077637087e+01
3.058976725163e+01
3.042960116594e+01
3.027027369975e+01
3.011178046209e+01
2.995411708499e+01
2.979727922335e+01
2.964126255484e+01
2.948606277973e+01
2.933167562082e+01
2.917809682330e+01
2.902532215465e+01
2.887334740450e+01
2.872216838453e+01
2.857178092833e+01
2.842218089135e+01
2.827336415068e+01
2.812532660506e+01
2.797806417466e+01
2.783157280102e+01
2.768584844695e+01
2.754088709637e+01
2.739668475426e+01
2.725323744648e+01
2.711054121973e+01
2.696859214139e+01
2.682738629944e+01
2.668691980235e+01
2.654718877895e+01
2.640818937834e+01
2.626991776980e+01
2.613237014265e+01
2.599554270618e+01
2.585943168950e+01
2.572403334150e+01
2.558934393068e+01
2.545535974509e+01
2.532207709221e+01
2.518949229888e+01
2.505760171113e+01
2.492640169415e+01
2.479588863216e+01
2.466605892831e+01
2.453690900456e+01
2.440843530165e+01
2.428063427892e+01
2.415350241425e+01
2.402703620398e+01
2.390123216279e+01
2.377608682360e+01
2.365159673748e+01
2.352775847358e+01
2.340456861899e+01
2.328202377868e+01
2.316012057540e+01
2.303885564958e+01
2.291822565924e+01
2.279822727990e+01
2.267885720447e+01
2.256011214321e+01
2.244198882358e+01
2.232448399017e+01
2.220759440463e+01
2.209131684557e+01
2.197564810844e+01
2.186058500551e+01
2.174612436570e+01
2.163226303456e+01
2.151899787414e+01
2.140632576294e+01
2.129424359578e+01
2.118274828375e+01
2.107183675412e+01
2.096150595025e+01
2.085175283148e+01
2.074257437309e+01
2.063396756620e+01
2.052592941768e+01
2.041845695007e+01
2.031154720150e+01
2.020519722561e+01
2.009940409146e+01
1.999416488346e+01
1.988947670130e+01
1.978533665983e+01
1.968174188903e+01
1.957868953389e+01
1.947617675437e+01
1.937420072526e+01
1.927275863620e+01
1.917184769149e+01
1.907146511009e+01
1.897160812554e+01
1.887227398585e+01
1.877345995341e+01
1.867516330500e+01
1.857738133162e+01
1.848011133846e+01
1.838335064482e+01
1.828709658405e+01
1.819134650345e+01
1.809609776421e+01
1.800134774134e+01
1.790709382358e+01
1.781333341338e+01
1.772006392674e+01
1.762728279322e+01
1.753498745585e+01
1.744317537102e+01
1.735184400845e+01
1.726099085110e+01
1.717061339514e+01
1.708070914980e+01
1.699127563740e+01
1.690231039320e+01
1.681381096539e+01
1.672577491496e+01
1.663819981572e+01
1.655108325415e+01
1.646442282937e+01
1.637821615307e+01
1.629246084947e+01
1.620715455520e+01
1.612229491927e+01
1.603787960302e+01
1.595390628000e+01
1.587037263597e+01
1.578727636880e+01
1.570461518840e+01
1.562238681670e+01
1.554058898753e+01
1.545921944659e+01
1.537827595139e+01
1.529775627120e+01
1.521765818692e+01
1.513797949112e+01
1.505871798790e+01
1.497987149286e+01
1.490143783306e+01
1.482341484689e+01
1.474580038411e+01
1.466859230570e+01
1.459178848387e+01
1.451538680195e+01
1.443938515435e+01
1.436378144652e+01
1.428857359488e+01
1.421375952673e+01
1.413933718025e+01
1.406530450441e+01
1.399165945891e+01
1.391840001415e+01
1.384552415113e+01
1.377302986145e+01
1.370091514720e+01
1.362917802095e+01
1.355781650567e+01
1.348682863468e+01
1.341621245159e+01
1.334596601027e+01
1.327608737476e+01
1.320657461926e+01
1.313742582803e+01
1.306863909537e+01
1.300021252556e+01
1.293214423280e+01
1.286443234117e+01
1.279707498458e+01
1.273007030668e+01
1.266341646086e+01
1.259711161019e+01
1.253115392734e+01
1.246554159455e+01
1.240027280358e+01
1.233534575565e+01
1.227075866141e+01
1.220650974088e+01
1.214259722338e+01
1.207901934751e+01
1.201577436111e+01
1.195286052117e+01
1.189027609382e+01
1.182801935425e+01
1.176608858670e+01
1.170448208438e+01
1.164319814944e+01
1.158223509294e+01
1.152159123473e+01
1.146126490351e+01
1.140125443671e+01
1.134155818045e+01
1.128217448954e+01
1.122310172736e+01
1.116433826590e+01
1.110588248566e+01
1.104773277560e+01
1.098988753314e+01
1.093234516407e+01
1.087510408254e+01
1.081816271099e+01
1.076151948014e+01
1.070517282890e+01
1.064912120436e+01
1.059336306175e+01
1.053789686438e+01
1.048272108360e+01
1.042783419876e+01
1.037323469719e+01
1.031892107411e+01
1.026489183264e+01
1.021114548373e+01
1.015768054611e+01
1.010449554629e+01
1.005158901847e+01
9.998959504526e+00
9.946605553984e+00
9.894525723943e+00
9.842718579062e+00
9.791182691512e+00
9.739916640936e+00
9.688919014413e+00
9.638188406416e+00
9.587723418775e+00
9.537522660636e+00
9.487584748426e+00
9.437908305811e+00
9.388491963663e+00
9.339334360015e+00
9.290434140032e+00
9.241789955964e+00
9.193400467117e+00
9.145264339813e+00
9.097380247350e+00
9.049746869970e+00
9.002362894820e+00
8.955227015918e+00
8.908337934111e+00
8.861694357048e+00
8.815294999135e+00
8.769138581506e+00
8.723223831987e+00
8.677549485055e+00
8.632114281810e+00
8.586916969937e+00
8.541956303670e+00
8.497231043762e+00
8.452739957444e+00
8.408481818397e+00
8.364455406714e+00
8.320659508869e+00
8.277092917681e+00
8.233754432281e+00
8.190642858081e+00
8.147757006737e+00
8.105095696119e+00
8.062657750278e+00
8.020441999409e+00
7.978447279827e+00
7.936672433926e+00
7.895116310152e+00
7.853777762967e+00
7.812655652823e+00
7.771748846125e+00
7.731056215201e+00
7.690576638271e+00
7.650308999417e+00
7.610252188548e+00
7.570405101372e+00
7.530766639368e+00
7.491335709747e+00
7.452111225430e+00
7.413092105014e+00
7.374277272740e+00
7.335665658466e+00
7.297256197637e+00
7.259047831252e+00
7.221039505839e+00
7.183230173420e+00
7.145618791487e+00
7.108204322970e+00
7.070985736207e+00
7.033962004918e+00
6.997132108174e+00
6.960495030368e+00
6.924049761188e+00
6.887795295587e+00
6.851730633757e+00
6.815854781098e+00
6.780166748191e+00
6.744665550771e+00
6.709350209700e+00
6.674219750934e+00
6.639273205504e+00
6.604509609479e+00
6.569928003948e+00
6.535527434985e+00
6.501306953628e+00
6.467265615846e+00
6.433402482518e+00
6.399716619404e+00
6.366207097115e+00
6.332872991094e+00
6.299713381581e+00
6.266727353593e+00
6.233913996896e+00
6.201272405977e+00
6.168801680021e+00
6.136500922883e+00
6.104369243063e+00
6.072405753681e+00
6.040609572450e+00
6.008979821651e+00
5.977515628109e+00
5.946216123166e+00
5.915080442656e+00
5.884107726880e+00
5.853297120583e+00
5.822647772926e+00
5.792158837463e+00
5.761829472115e+00
5.731658839147e+00
5.701646105144e+00
5.671790440982e+00
5.642091021809e+00
5.612547027018e+00
5.583157640223e+00
5.553922049234e+00
5.524839446036e+00
5.495909026762e+00
5.467129991669e+00
5.438501545116e+00
5.410022895539e+00
5.381693255428e+00
5.353511841302e+00
5.325477873688e+00
5.297590577093e+00
5.269849179985e+00
5.242252914768e+00
5.214801017759e+00
5.187492729162e+00
5.160327293049e+00
5.133303957333e+00
5.106421973748e+00
5.079680597825e+00
5.053079088866e+00
5.026616709926e+00
5.000292727786e+00
4.974106412932e+00
4.948057039532e+00
4.922143885412e+00
4.896366232036e+00
4.870723364479e+00
4.845214571408e+00
4.819839145059e+00
4.794596381210e+00
4.769485579164e+00
4.744506041724e+00
4.719657075170e+00
4.694937989238e+00
4.670348097093e+00
4.645886715314e+00
4.621553163864e+00
4.597346766074e+00
4.573266848614e+00
4.549312741475e+00
4.525483777948e+00
4.501779294595e+00
4.478198631234e+00
4.454741130909e+00
4.431406139875e+00
4.408193007571e+00
4.385101086599e+00
4.362129732700e+00
4.339278304734e+00
4.316546164656e+00
4.293932677492e+00
4.271437211321e+00
4.249059137248e+00
4.226797829382e+00
4.204652664817e+00
4.182623023604e+00
4.160708288734e+00
4.138907846109e+00
4.117221084527e+00
4.095647395652e+00
4.074186173994e+00
4.052836816889e+00
4.031598724470e+00
4.010471299651e+00
3.989453948097e+00
3.968546078208e+00
3.947747101090e+00
3.927056430536e+00
3.906473482998e+00
3.885997677571e+00
3.865628435962e+00
3.845365182472e+00
3.825207343970e+00
3.805154349869e+00
3.785205632104e+00
3.765360625108e+00
3.745618765788e+00
3.725979493499e+00
3.706442250024e+00
3.687006479546e+00
3.667671628629e+00
3.648437146185e+00
3.629302483459e+00
3.610267094000e+00
3.591330433635e+00
3.572491960448e+00
3.553751134752e+00
3.535107419067e+00
3.516560278093e+00
3.498109178682e+00
3.479753589821e+00
3.461492982597e+00
3.443326830178e+00
3.425254607785e+00
3.407275792665e+00
3.389389864067e+00
3.371596303216e+00
3.353894593284e+00
3.336284219367e+00
3.318764668454e+00
3.301335429406e+00
3.283995992924e+00
3.266745851525e+00
3.249584499514e+00
3.232511432954e+00
3.215526149642e+00
3.198628149080e+00
3.181816932447e+00
3.165092002570e+00
3.148452863896e+00
3.131899022465e+00
3.115429985879e+00
3.099045263274e+00
3.082744365292e+00
3.066526804051e+00
3.050392093114e+00
3.034339747460e+00
3.018369283456e+00
3.002480218825e+00
2.986672072616e+00
2.970944365174e+00
2.955296618106e+00
2.939728354257e+00
2.924239097671e+00
2.908828373565e+00
2.893495708295e+00
2.878240629323e+00
2.863062665188e+00
2.847961345471e+00
2.832936200766e+00
2.817986762640e+00
2.803112563609e+00
2.788313137098e+00
2.773588017411e+00
2.758936739695e+00
2.744358839908e+00
2.729853854785e+00
2.715421321800e+00
2.701060779138e+00
2.686771765652e+00
2.672553820835e+00
2.658406484780e+00
2.644329298149e+00
2.630321802132e+00
2.616383538414e+00
2.602514049140e+00
2.588712876876e+00
2.574979564574e+00
2.561313655536e+00
2.547714693374e+00
2.534182221977e+00
2.520715785471e+00
2.507314928181e+00
2.493979194596e+00
2.480708129330e+00
2.467501277082e+00
2.454358182603e+00
2.441278390653e+00
2.428261445964e+00
2.415306893203e+00
2.402414276933e+00
2.389583141573e+00
2.376813031363e+00
2.364103490319e+00
2.351454062202e+00
2.338864290475e+00
2.326333718263e+00
2.313861888318e+00
2.301448342979e+00
2.289092624132e+00
2.276794273175e+00
2.264552830974e+00
2.252367837833e+00
2.240238833448e+00
2.228165356874e+00
2.216146946485e+00
2.204183139939e+00
2.192273474140e+00
2.180417485200e+00
2.168614708405e+00
2.156864678175e+00
2.145166928035e+00
2.133520990575e+00
2.121926397415e+00
2.110382679175e+00
2.098889365440e+00
2.087445984725e+00
2.076052064446e+00
2.064707130888e+00
2.053410709174e+00
2.042162323238e+00
2.030961495793e+00
2.019807748304e+00
2.008700600966e+00
1.997639572672e+00
1.986624180994e+00
1.975653942160e+00
1.964728371028e+00
1.953846981072e+00
1.943009284359e+00
1.932214791536e+00
1.921463011812e+00
1.910753452945e+00
1.900085621232e+00
1.889459021499e+00
1.878873157092e+00
1.868327529875e+00
1.857821640225e+00
1.847354987032e+00
1.836927067703e+00
1.826537378161e+00
1.816185412862e+00
1.805870664796e+00
1.795592625507e+00
1.785350785107e+00
1.775144632298e+00
1.764973654392e+00
1.754837337340e+00
1.744735165767e+00
1.734666622998e+00
1.724631191106e+00
1.714628350949e+00
1.704657582218e+00
1.694718363495e+00
1.684810172301e+00
1.674932485165e+00
1.665084777687e+00
1.655266524609e+00
1.645477199899e+00
1.635716276827e+00
1.625983228057e+00
1.616277525744e+00
1.606598641630e+00
1.596946047158e+00
1.587319213583e+00
1.577717612093e+00
1.568140713938e+00
1.558587990567e+00
1.549058913767e+00
1.539552955818e+00
1.530069589646e+00
1.520608288997e+00
1.511168528602e+00
1.501749784371e+00
1.492351533573e+00
1.482973255047e+00
1.473614429403e+00
1.464274539248e+00
1.454953069407e+00
1.445649507165e+00
1.436363342515e+00
1.427094068410e+00
1.417841181034e+00
1.408604180078e+00
1.399382569028e+00
1.390175855461e+00
1.380983551355e+00
1.371805173404e+00
1.362640243353e+00
1.353488288333e+00
1.344348841212e+00
1.335221440960e+00
1.326105633014e+00
1.317000969668e+00
1.307907010461e+00
1.298823322581e+00
1.289749481281e+00
1.280685070301e+00
1.271629682306e+00
1.262582919323e+00
1.253544393203e+00
1.244513726079e+00
1.235490550840e+00
1.226474511614e+00
1.217465264252e+00
1.208462476834e+00
1.199465830165e+00
1.190475018295e+00
1.181489749032e+00
1.172509744471e+00
1.163534741521e+00
1.154564492440e+00
1.145598765375e+00
1.136637344901e+00
1.127680032568e+00
1.118726647445e+00
1.109777026663e+00
1.100831025966e+00
1.091888520249e+00
1.082949404103e+00
1.074013592353e+00
1.065081020588e+00
1.056151645688e+00
1.047225446346e+00
1.038302423575e+00
1.029382601212e+00
1.020466026404e+00
1.011552770086e+00
1.002642927442e+00
9.937366183523e-01
9.848339878203e-01
9.759352063828e-01
9.670404704989e-01
9.581500029166e-01
9.492640530154e-01
9.403828971241e-01
9.315068388104e-01
9.226362091421e-01
9.137713669187e-01
9.049126988692e-01
8.960606198176e-01
8.872155728125e-01
8.783780292197e-01
8.695484887769e-01
8.607274796080e-01
8.519155581959e-01
8.431133093139e-01
8.343213459114e-01
8.255403089555e-01
8.167708672260e-01
8.080137170631e-01
7.992695820664e-01
7.905392127452e-01
7.818233861187e-01
7.731229052655e-01
7.644385988225e-01
7.557713204320e-01
7.471219481381e-01
7.384913837304e-01
7.298805520370e-01
7.212904001661e-01
7.127218966966e-01
7.041760308188e-01
6.956538114251e-01
6.871562661527e-01
6.786844403784e-01
6.702393961671e-01
6.618222111763e-01
6.534339775160e-01
6.450758005688e-01
6.367487977689e-01
6.284540973453e-01
6.201928370283e-01
6.119661627248e-01
6.037752271621e-01
5.956211885051e-01
5.875052089487e-01
5.794284532881e-01
5.713920874711e-01
5.633972771342e-01
5.554451861274e-01
5.475369750290e-01
5.396737996562e-01
5.318568095722e-01
5.240871465963e-01
5.163659433178e-01
5.086943216190e-01
5.010733912100e-01
4.935042481791e-01
4.859879735626e-01
4.785256319365e-01
4.711182700346e-01
4.637669153953e-01
4.564725750411e-01
4.492362341939e-01
4.420588550283e-01
4.349413754663e-01
4.278847080172e-01
4.208897386627e-01
4.139573257929e-01
4.070882991926e-01
4.002834590817e-01
3.935435752116e-01
3.868693860182e-01
3.802615978342e-01
3.737208841614e-01
3.672478850050e-01
3.608432062695e-01
3.545074192179e-01
3.482410599949e-01
3.420446292137e-01
3.359185916070e-01
3.298633757424e-01
3.238793738007e-01
3.179669414188e-01
3.121263975944e-01
3.063580246529e-01
3.006620682752e-01
2.950387375857e-01
2.894882052978e-01
2.840106079176e-01
2.786060460021e-01
2.732745844718e-01
2.680162529747e-01
2.628310463003e-01
2.577189248420e-01
2.526798151046e-01
2.477136102558e-01
2.428201707183e-01
2.379993248023e-01
2.332508693726e-01
2.285745705516e-01
2.239701644528e-01
2.194373579446e-01
2.149758294396e-01
2.105852297097e-01
2.062651827222e-01
2.020152864956e-01
1.978351139725e-01
1.937242139074e-01
1.896821117668e-01
1.857083106393e-01
1.818022921542e-01
1.779635174052e-01
1.741914278787e-01
1.704854463829e-01
1.668449779771e-01
1.632694108997e-01
1.597581174905e-01
1.563104551097e-01
1.529257670479e-01
1.496033834284e-01
1.463426220993e-01
1.431427895138e-01
1.400031815979e-01
1.369230846047e-01
1.339017759528e-01
1.309385250493e-01
1.280325940961e-01
1.251832388780e-01
1.223897095323e-01
1.196512512999e-01
1.169671052558e-01
1.143365090199e-01
1.117586974473e-01
1.092329032967e-01
1.067583578784e-01
1.043342916801e-01
1.019599349709e-01
9.963451838426e-02
9.735727347760e-02
9.512743327127e-02
9.294423276496e-02
9.080690943241e-02
8.871470369455e-02
8.666685937108e-02
8.466262411085e-02
8.270124980119e-02
8.078199295654e-02
7.890411508667e-02
7.706688304491e-02
7.526956935658e-02
7.351145252826e-02
7.179181733809e-02
7.010995510768e-02
6.846516395599e-02
6.685674903572e-02
6.528402275259e-02
6.374630496802e-02
6.224292318579e-02
6.077321272300e-02
5.933651686601e-02
5.793218701168e-02
5.655958279462e-02
5.521807220073e-02
5.390703166768e-02
5.262584617283e-02
5.137390930893e-02
5.015062334829e-02
4.895539929577e-02
4.778765693113e-02
4.664682484112e-02
4.553234044195e-02
4.444364999237e-02
4.338020859797e-02
4.234148020711e-02
4.132693759881e-02
4.033606236315e-02
3.936834487445e-02
3.842328425776e-02
3.750038834895e-02
3.659917364875e-02
3.571916527126e-02
3.485989688705e-02
3.402091066138e-02
3.320175718781e-02
3.240199541742e-02
3.162119258414e-02
3.085892412625e-02
3.011477360457e-02
2.938833261740e-02
2.867920071268e-02
2.798698529734e-02
2.731130154447e-02
2.665177229811e-02
2.600802797621e-02
2.537970647184e-02
2.476645305285e-02
2.416792026013e-02
2.358376780479e-02
2.301366246431e-02
2.245727797788e-02
2.191429494101e-02
2.138440069970e-02
2.086728924420e-02
2.036266110250e-02
1.987022323373e-02
1.938968892153e-02
1.892077766758e-02
1.846321508522e-02
1.801673279358e-02
1.758106831190e-02
1.715596495451e-02
1.674117172629e-02
1.633644321879e-02
1.594153950710e-02
1.555622604747e-02
1.518027357578e-02
1.481345800694e-02
1.445556033515e-02
1.410636653532e-02
1.376566746532e-02
1.343325876950e-02
1.310894078323e-02
1.279251843857e-02
1.248380117121e-02
1.218260282847e-02
1.188874157872e-02
1.160203982183e-02
1.132232410106e-02
1.104942501614e-02
1.078317713765e-02
1.052341892270e-02
1.026999263197e-02
1.002274424799e-02
9.781523394806e-03
9.546183258907e-03
9.316580511535e-03
9.092575232282e-03
8.874030834020e-03
8.660813989147e-03
8.452794557144e-03
8.249845513444e-03
8.051842879595e-03
7.858665654723e-03
7.670195748270e-03
7.486317914010e-03
7.306919685328e-03
7.131891311749e-03
6.961125696706e-03
6.794518336536e-03
6.631967260691e-03
6.473372973144e-03
6.318638394983e-03
6.167668808179e-03
6.020371800505e-03
5.876657211599e-03
5.736437080147e-03
5.599625592184e-03
5.466139030477e-03
5.335895724997e-03
5.208816004438e-03
5.084822148789e-03
4.963838342932e-03
4.845790631248e-03
4.730606873216e-03
4.618216699992e-03
4.508551471946e-03
4.401544237145e-03
4.297129690758e-03
4.195244135373e-03
4.095825442214e-03
3.998813013220e-03
3.904147744003e-03
3.811771987634e-03
3.721629519267e-03
3.633665501571e-03
3.547826450962e-03
3.464060204609e-03
3.382315888212e-03
3.302543884523e-03
3.224695802610e-03
3.148724447829e-03
3.074583792511e-03
3.002228947333e-03
2.931616133365e-03
2.862702654782e-03
2.795446872217e-03
2.729808176751e-03
2.665746964523e-03
2.603224611948e-03
2.542203451520e-03
2.482646748206e-03
2.424518676398e-03
2.367784297427e-03
2.312409537615e-03
2.258361166858e-03
2.205606777729e-03
2.154114765086e-03
2.103854306177e-03
2.054795341227e-03
2.006908554501e-03
1.960165355823e-03
1.914537862557e-03
1.869998882015e-03
1.826521894309e-03
1.784081035618e-03
1.742651081862e-03
1.702207432786e-03
1.662726096430e-03
1.624183673981e-03
1.586557345005e-03
1.549824853038e-03
1.513964491531e-03
1.478955090154e-03
1.444776001425e-03
1.411407087681e-03
1.378828708368e-03
1.347021707646e-03
1.315967402302e-03
1.285647569967e-03
1.256044437624e-03
1.227140670396e-03
1.198919360628e-03
1.171364017225e-03
1.144458555266e-03
1.118187285875e-03
1.092534906343e-03
1.067486490497e-03
1.043027479317e-03
1.019143671771e-03
9.958212159007e-04
9.730466001106e-04
9.508066446888e-04
9.290884935334e-04
9.078796060881e-04
8.871677494799e-04
8.669409908535e-04
8.471876898982e-04
8.278964915622e-04
8.090563189493e-04
7.906563663940e-04
7.726860927109e-04
7.551352146126e-04
7.379937002933e-04
7.212517631738e-04
7.048998558030e-04
6.889286639125e-04
6.733291006212e-04
6.580923007846e-04
6.432096154869e-04
6.286726066703e-04
6.144730419003e-04
6.006028892618e-04
5.870543123840e-04
5.738196655892e-04
5.608914891646e-04
5.482625047525e-04
5.359256108555e-04
5.238738784557e-04
5.121005467431e-04
5.005990189519e-04
4.893628583004e-04
4.783857840338e-04
4.676616675656e-04
4.571845287165e-04
4.469485320467e-04
4.369479832812e-04
4.271773258242e-04
4.176311373610e-04
4.083041265452e-04
3.991911297688e-04
3.902871080136e-04
3.815871437807e-04
3.730864380981e-04
3.647803076020e-04
3.566641816920e-04
3.487335997575e-04
3.409842084729e-04
3.334117591610e-04
3.260121052224e-04
3.187811996286e-04
3.117150924786e-04
3.048099286158e-04
2.980619453047e-04
2.914674699660e-04
2.850229179676e-04
2.787247904713e-04
2.725696723328e-04
2.665542300542e-04
2.606752097878e-04
2.549294353895e-04
2.493138065205e-04
2.438252967964e-04
2.384609519825e-04
2.332178882342e-04
2.280932903804e-04
2.230844102505e-04
2.181885650427e-04
2.134031357323e-04
2.087255655202e-04
2.041533583200e-04
1.996840772819e-04
1.953153433539e-04
1.910448338786e-04
1.868702812243e-04
1.827894714507e-04
1.788002430071e-04
1.749004854632e-04
1.710881382710e-04
1.673611895576e-04
1.637176749475e-04
1.601556764147e-04
1.566733211620e-04
1.532687805294e-04
1.499402689281e-04
1.466860428015e-04
1.435043996121e-04
1.403936768526e-04
1.373522510815e-04
1.343785369835e-04
1.314709864514e-04
1.286280876916e-04
1.258483643518e-04
1.231303746691e-04
1.204727106400e-04
1.178739972103e-04
1.153328914851e-04
1.128480819579e-04
1.104182877589e-04
1.080422579215e-04
1.057187706669e-04
1.034466327062e-04
1.012246785592e-04
9.905176989084e-05
9.692679486250e-05
9.484866750027e-05
9.281632707806e-05
9.082873751599e-05
8.888488679332e-05
8.698378637582e-05
8.512447065696e-05
8.330599641281e-05
8.152744227015e-05
7.978790818753e-05
7.808651494898e-05
7.642240366996e-05
7.479473531533e-05
7.320269022907e-05
7.164546767534e-05
7.012228539069e-05
6.863237914714e-05
6.717500232584e-05
6.574942550098e-05
6.435493603392e-05
6.299083767693e-05
6.165645018671e-05
6.035110894708e-05
5.907416460089e-05
5.782498269074e-05
5.660294330841e-05
5.540744075272e-05
5.423788319561e-05
5.309369235632e-05
5.197430318332e-05
5.087916354398e-05
4.980773392162e-05
4.875948711991e-05
4.773390797428e-05
4.673049307036e-05
4.574875046908e-05
4.478819943837e-05
4.384837019138e-05
4.292880363080e-05
4.202905109948e-05
4.114867413688e-05
4.028724424140e-05
3.944434263833e-05
3.861956005348e-05
3.781249649199e-05
3.702276102263e-05
3.624997156711e-05
3.549375469443e-05
3.475374542018e-05
3.402958701054e-05
3.332093079096e-05
3.262743595946e-05
3.194876940425e-05
3.128460552575e-05
3.063462606281e-05
2.999851992306e-05
2.937598301729e-05
2.876671809770e-05
2.817043460004e-05
2.758684848944e-05
2.701568210993e-05
2.645666403747e-05
2.590952893645e-05
2.537401741964e-05
2.484987591135e-05
2.433685651390e-05
2.383471687717e-05
2.334322007128e-05
2.286213446221e-05
2.239123359037e-05
2.193029605205e-05
2.147910538363e-05
2.103744994845e-05
2.060512282648e-05
2.018192170643e-05
1.976764878045e-05
1.936211064133e-05
1.896511818205e-05
1.857648649767e-05
1.819603478962e-05
1.782358627206e-05
1.745896808060e-05
1.710201118301e-05
1.675255029212e-05
1.641042378065e-05
1.607547359811e-05
1.574754518960e-05
1.542648741651e-05
1.511215247902e-05
1.480439584046e-05
1.450307615343e-05
1.420805518755e-05
1.391919775902e-05
1.363637166168e-05
1.335944759974e-05
1.308829912210e-05
1.282280255810e-05
1.256283695481e-05
1.230828401579e-05
1.205902804121e-05
1.181495586941e-05
1.157595681976e-05
1.134192263687e-05
1.111274743607e-05
1.088832765018e-05
1.066856197742e-05
1.045335133065e-05
1.024259878766e-05
1.003620954264e-05
9.834090858821e-06
9.636152022113e-06
9.442304295871e-06
9.252460876673e-06
9.066536851115e-06
8.884449153602e-06
8.706116525098e-06
8.531459472824e-06
8.360400230879e-06
8.192862721757e-06
8.028772518748e-06
7.868056809193e-06
7.710644358579e-06
7.556465475457e-06
7.405451977151e-06
7.257537156258e-06
7.112655747903e-06
6.970743897744e-06
6.831739130701e-06
6.695580320397e-06
6.562207659295e-06
6.431562629514e-06
6.303587974297e-06
6.178227670141e-06
6.055426899549e-06
5.935132024399e-06
5.817290559923e-06
5.701851149266e-06
5.588763538625e-06
5.477978552950e-06
5.369448072195e-06
5.263125008098e-06
5.158963281492e-06
5.056917800129e-06
4.956944436993e-06
4.859000009116e-06
4.763042256856e-06
4.669029823656e-06
4.576922236245e-06
4.486679885290e-06
4.398264006486e-06
4.311636662061e-06
4.226760722705e-06
4.143599849900e-06
4.062118478644e-06
3.982281800567e-06
3.904055747420e-06
3.827406974937e-06
3.752302847054e-06
3.678711420486e-06
3.606601429642e-06
3.535942271883e-06
3.466703993100e-06
3.398857273628e-06
3.332373414457e-06
3.267224323761e-06
3.203382503726e-06
3.140821037665e-06
3.079513577427e-06
3.019434331077e-06
2.960558050862e-06
2.902860021430e-06
2.846316048318e-06
2.790902446699e-06
2.736596030368e-06
2.683374100979e-06
2.631214437521e-06
2.580095286020e-06
2.529995349476e-06
2.480893778021e-06
2.432770159286e-06
2.385604508996e-06
2.339377261756e-06
2.294069262051e-06
2.249661755444e-06
2.206136379959e-06
2.163475157663e-06
2.121660486431e-06
2.080675131887e-06
2.040502219529e-06
2.001125227021e-06
1.962527976661e-06
1.924694628005e-06
1.887609670662e-06
1.851257917240e-06
1.815624496450e-06
1.780694846362e-06
1.746454707804e-06
1.712890117908e-06
1.679987403798e-06
1.647733176415e-06
1.616114324477e-06
1.585118008568e-06
1.554731655360e-06
1.524942951958e-06
1.495739840373e-06
1.467110512105e-06
1.439043402855e-06
1.411527187347e-06
1.384550774263e-06
1.358103301285e-06
1.332174130251e-06
1.306752842412e-06
1.281829233790e-06
1.257393310643e-06
1.233435285020e-06
1.209945570421e-06
1.186914777542e-06
1.164333710120e-06
1.142193360862e-06
1.120484907467e-06
1.099199708725e-06
1.078329300716e-06
1.057865393071e-06
1.037799865329e-06
1.018124763370e-06
9.988322959141e-07
9.799148311123e-07
9.613648931969e-07
9.431751592111e-07
9.253384558070e-07
9.078477561123e-07
8.906961766642e-07
8.738769744092e-07
8.573835437675e-07
8.412094137598e-07
8.253482451958e-07
8.097938279230e-07
7.945400781345e-07
7.795810357339e-07
7.649108617567e-07
7.505238358472e-07
7.364143537888e-07
7.225769250866e-07
7.090061706029e-07
6.956968202416e-07
6.826437106829e-07
6.698417831655e-07
6.572860813171e-07
6.449717490297e-07
6.328940283809e-07
6.210482575994e-07
6.094298690731e-07
5.980343874000e-07
5.868574274805e-07
5.758946926496e-07
5.651419728492e-07
5.545951428388e-07
5.442501604444e-07
5.341030648439e-07
5.241499748896e-07
5.143870874651e-07
5.048106758779e-07
4.954170882851e-07
4.862027461531e-07
4.771641427492e-07
4.682978416650e-07
4.596004753715e-07
4.510687438040e-07
4.426994129768e-07
4.344893136279e-07
4.264353398906e-07
4.185344479949e-07
4.107836549945e-07
4.031800375217e-07
3.957207305676e-07
3.884029262886e-07
3.812238728373e-07
3.741808732185e-07
3.672712841682e-07
3.604925150572e-07
3.538420268169e-07
3.473173308878e-07
3.409159881896e-07
3.346356081137e-07
3.284738475357e-07
3.224284098491e-07
3.164970440188e-07
3.106775436550e-07
3.049677461054e-07
2.993655315672e-07
2.938688222168e-07
2.884755813584e-07
2.831838125895e-07
2.779915589844e-07
2.728969022943e-07
2.678979621641e-07
2.629928953652e-07
2.581798950448e-07
2.534571899900e-07
2.488230439080e-07
2.442757547203e-07
2.398136538720e-07
2.354351056556e-07
2.311385065481e-07
2.269222845626e-07
2.227848986125e-07
2.187248378895e-07
2.147406212539e-07
2.108307966379e-07
2.069939404607e-07
2.032286570564e-07
1.995335781127e-07
1.959073621223e-07
1.923486938441e-07
1.888562837773e-07
1.854288676446e-07
1.820652058869e-07
1.787640831685e-07
1.755243078920e-07
1.723447117232e-07
1.692241491258e-07
1.661614969061e-07
1.631556537662e-07
1.602055398669e-07
1.573100963992e-07
1.544682851650e-07
1.516790881661e-07
1.489415072014e-07
1.462545634726e-07
1.436172971980e-07
1.410287672339e-07
1.384880507039e-07
1.359942426357e-07
1.335464556055e-07
1.311438193890e-07
1.287854806204e-07
1.264706024576e-07
1.241983642548e-07
1.219679612409e-07
1.197786042055e-07
1.176295191903e-07
1.155199471875e-07
1.134491438439e-07
1.114163791710e-07
1.094209372612e-07
1.074621160096e-07
1.055392268412e-07
1.036515944444e-07
1.017985565086e-07
9.997946346858e-08
9.819367825274e-08
9.644057603733e-08
9.471954400512e-08
9.302998110918e-08
9.137129784134e-08
8.974291600528e-08
8.814426849428e-08
8.657479907339e-08
8.503396216595e-08
8.352122264445e-08
8.203605562559e-08
8.057794626944e-08
7.914638958260e-08
7.774089022541e-08
7.636096232290e-08
7.500612927961e-08
7.367592359812e-08
7.236988670115e-08
7.108756875732e-08
6.982852851028e-08
6.859233311136e-08
6.737855795551e-08
6.618678652052e-08
6.501661020946e-08
6.386762819629e-08
6.273944727447e-08
6.163168170869e-08
6.054395308950e-08
5.947589019082e-08
5.842712883031e-08
5.739731173255e-08
5.638608839487e-08
5.539311495591e-08
5.441805406678e-08
5.346057476472e-08
5.252035234936e-08
5.159706826139e-08
5.069040996360e-08
4.980007082435e-08
4.892575000332e-08
4.806715233948e-08
4.722398824135e-08
4.639597357938e-08
4.558282958049e-08
4.478428272466e-08
4.400006464360e-08
4.322991202139e-08
4.247356649711e-08
4.173077456936e-08
4.100128750271e-08
4.028486123592e-08
3.958125629205e-08
3.889023769029e-08
3.821157485954e-08
3.754504155367e-08
3.689041576849e-08
3.624747966031e-08
3.561601946615e-08
3.499582542542e-08
3.438669170326e-08
3.378841631531e-08
3.320080105395e-08
3.262365141604e-08
3.205677653201e-08
3.149998909638e-08
3.095310529964e-08
3.041594476147e-08
2.988833046521e-08
2.937008869366e-08
2.886104896614e-08
2.836104397678e-08
2.786990953395e-08
2.738748450095e-08
2.691361073783e-08
2.644813304433e-08
2.599089910396e-08
2.554175942911e-08
2.510056730732e-08
2.466717874852e-08
2.424145243333e-08
2.382324966233e-08
2.341243430638e-08
2.300887275786e-08
2.261243388283e-08
2.222298897420e-08
2.184041170572e-08
2.146457808692e-08
2.109536641891e-08
2.073265725101e-08
2.037633333826e-08
2.002627959974e-08
1.968238307766e-08
1.934453289728e-08
1.901262022761e-08
1.868653824284e-08
1.836618208454e-08
1.805144882454e-08
1.774223742862e-08
1.743844872080e-08
1.713998534838e-08
1.684675174761e-08
1.655865411010e-08
1.627560034975e-08
1.599750007046e-08
1.572426453434e-08
1.545580663058e-08
1.519204084496e-08
1.493288322986e-08
1.467825137491e-08
1.442806437816e-08
1.418224281788e-08
1.394070872477e-08
1.370338555484e-08
1.347019816270e-08
1.324107277545e-08
1.301593696699e-08
1.279471963290e-08
1.257735096572e-08
1.236376243076e-08
1.215388674234e-08
1.194765784054e-08
1.174501086829e-08
1.154588214900e-08
1.135020916456e-08
1.115793053376e-08
1.096898599117e-08
1.078331636636e-08
1.060086356352e-08
1.042157054155e-08
1.024538129442e-08
1.007224083197e-08
9.902095161033e-09
9.734891266981e-09
9.570577095543e-09
9.409101535022e-09
9.250414398825e-09
9.094466408333e-09
8.941209176097e-09
8.790595189340e-09
8.642577793790e-09
8.497111177801e-09
8.354150356785e-09
8.213651157937e-09
8.075570205243e-09
7.939864904780e-09
7.806493430285e-09
7.675414709000e-09
7.546588407788e-09
7.419974919501e-09
7.295535349616e-09
7.173231503114e-09
7.053025871610e-09
6.934881620726e-09
6.818762577700e-09
6.704633219227e-09
6.592458659530e-09
6.482204638657e-09
6.373837510994e-09
6.267324233994e-09
6.162632357123e-09
6.059730011003e-09
5.958585896773e-09
5.859169275633e-09
5.761449958596e-09
5.665398296428e-09
5.570985169775e-09
5.478181979474e-09
5.386960637053e-09
5.297293555395e-09
5.209153639589e-09
5.122514277945e-09
5.037349333178e-09
4.953633133759e-09
4.871340465422e-09
4.790446562838e-09
4.710927101433e-09
4.632758189367e-09
4.555916359659e-09
4.480378562461e-09
4.406122157471e-09
4.333124906490e-09
4.261364966122e-09
4.190820880597e-09
4.121471574741e-09
4.053296347071e-09
3.986274863013e-09
3.920387148255e-09
3.855613582216e-09
3.791934891641e-09
3.729332144312e-09
3.667786742874e-09
3.607280418780e-09
3.547795226342e-09
3.489313536899e-09
3.431818033086e-09
3.375291703213e-09
3.319717835747e-09
3.265080013894e-09
3.211362110286e-09
73 180.95 4.0448 fcc
0.000000000000e+00
-1.280943877233e-01
-2.539982908579e-01
-3.777300444448e-01
-4.993089835250e-01
-6.187544431394e-01
-7.360857583289e-01
-8.513222641346e-01
-9.644832955974e-01
-1.075588187758e+00
-1.184656275658e+00
-1.291706894338e+00
-1.396759378838e+00
-1.499833064201e+00
-1.600947285466e+00
-1.700121377675e+00
-1.797374675869e+00
-1.892726515088e+00
-1.986196230374e+00
-2.077803156768e+00
-2.167566629310e+00
-2.255505983042e+00
-2.341640553004e+00
-2.425989674237e+00
-2.508572681783e+00
-2.589408910682e+00
-2.668517695976e+00
-2.745918372704e+00
-2.821630275909e+00
-2.895672740631e+00
-2.968065101911e+00
-3.038826694790e+00
-3.107976854309e+00
-3.175534915509e+00
-3.241520213431e+00
-3.305952083115e+00
-3.368849859604e+00
-3.430232877937e+00
-3.490120473156e+00
-3.548531980301e+00
-3.605486734414e+00
-3.661004070536e+00
-3.715103323707e+00
-3.767803828969e+00
-3.819124921362e+00
-3.869085935928e+00
-3.917706207707e+00
-3.965005071740e+00
-4.011001863068e+00
-4.055715916733e+00
-4.099166567775e+00
-4.141373151235e+00
-4.182355002154e+00
-4.222131455573e+00
-4.260721846533e+00
-4.298145510074e+00
-4.334421781239e+00
-4.369569995068e+00
-4.403609486601e+00
-4.436559590880e+00
-4.468439642946e+00
-4.499268977840e+00
-4.529066930602e+00
-4.557852836273e+00
-4.585646029896e+00
-4.612465846509e+00
-4.638331621155e+00
-4.663262688875e+00
-4.687278384709e+00
-4.710398043698e+00
-4.732641000883e+00
-4.754026591306e+00
-4.774574150006e+00
-4.794303012026e+00
-4.813232512406e+00
-4.831381986187e+00
-4.848770768410e+00
-4.865418194115e+00
-4.881343598345e+00
-4.896566316139e+00
-4.911105682540e+00
-4.924981032587e+00
-4.938211701321e+00
-4.950817023785e+00
-4.962816335017e+00
-4.974228970061e+00
-4.985074263956e+00
-4.995371551743e+00
-5.005140168464e+00
-5.014399449159e+00
-5.023168728870e+00
-5.031467342637e+00
-5.039314625501e+00
-5.046729912503e+00
-5.053732538685e+00
-5.060341839086e+00
-5.066577148749e+00
-5.072457802713e+00
-5.078003136021e+00
-5.083232483712e+00
-5.088165180828e+00
-5.092820562410e+00
-5.097217963499e+00
-5.101376719136e+00
-5.105315915449e+00
-5.109046780479e+00
-5.112569317449e+00
-5.115882793193e+00
-5.118986474547e+00
-5.121879628345e+00
-5.124561521422e+00
-5.127031420612e+00
-5.129288592750e+00
-5.131332304671e+00
-5.133161823210e+00
-5.134776415200e+00
-5.136175347478e+00
-5.137357886877e+00
-5.138323300232e+00
-5.139070854377e+00
-5.139599816148e+00
-5.139909452380e+00
-5.139999029906e+00
-5.139867815562e+00
-5.139515076181e+00
-5.138940078600e+00
-5.138142089652e+00
-5.137120376173e+00
-5.135874204996e+00
-5.134402842956e+00
-5.132705556889e+00
-5.130781613629e+00
-5.128630280010e+00
-5.126250822868e+00
-5.123642509036e+00
-5.120804605350e+00
-5.117736378645e+00
-5.114437095754e+00
-5.110906023512e+00
-5.107142428755e+00
-5.103145578317e+00
-5.098923821175e+00
-5.094495357735e+00
-5.089862584834e+00
-5.085027366391e+00
-5.079991536739e+00
-5.074756901302e+00
-5.069325237236e+00
-5.063698294061e+00
-5.057877794276e+00
-5.051865433950e+00
-5.045662883300e+00
-5.039271787254e+00
-5.032693765994e+00
-5.025930415487e+00
-5.018983308001e+00
-5.011853992604e+00
-5.004543995655e+00
-4.997054821276e+00
-4.989387951811e+00
-4.981544848281e+00
-4.973526950816e+00
-4.965335679081e+00
-4.956972432694e+00
-4.948438591623e+00
-4.939735516583e+00
-4.930864549421e+00
-4.921827013482e+00
-4.912624213977e+00
-4.903257438337e+00
-4.893727956554e+00
-4.884037021524e+00
-4.874185869370e+00
-4.864175719761e+00
-4.854007776228e+00
-4.843683226467e+00
-4.833203242634e+00
-4.822568981634e+00
-4.811781585409e+00
-4.800842181208e+00
-4.789751881859e+00
-4.778511786030e+00
-4.767122978488e+00
-4.755586530350e+00
-4.743903499323e+00
-4.732074929949e+00
-4.720101853836e+00
-4.707985289885e+00
-4.695726244513e+00
-4.683325711875e+00
-4.670784674072e+00
-4.658104101361e+00
-4.645284952359e+00
-4.632328174243e+00
-4.619234702941e+00
-4.606005463325e+00
-4.592641369398e+00
-4.579143324473e+00
-4.565512221354e+00
-4.551748942508e+00
-4.537854360237e+00
-4.523829336845e+00
-4.509674724799e+00
-4.495391366891e+00
-4.480980096396e+00
-4.466441737221e+00
-4.451777104058e+00
-4.436987002530e+00
-4.422072229335e+00
-4.407033572387e+00
-4.391871810953e+00
-4.376587715791e+00
-4.361182049279e+00
-4.345655565546e+00
-4.330009010601e+00
-4.314243122456e+00
-4.298358631247e+00
-4.282356259355e+00
-4.266236721526e+00
-4.250000724980e+00
-4.233648969531e+00
-4.217182147691e+00
-4.200600944782e+00
-4.183906039044e+00
-4.167098101734e+00
-4.150177797234e+00
-4.133145783149e+00
-4.116002710404e+00
-4.098749223344e+00
-4.081385959824e+00
-4.063913551309e+00
-4.046332622959e+00
-4.028643793722e+00
-4.010847676421e+00
-3.992944877839e+00
-3.974935998809e+00
-3.956821634288e+00
-3.938602373450e+00
-3.920278799757e+00
-3.901851491042e+00
-3.883321019586e+00
-3.864687952195e+00
-3.845952850272e+00
-3.827116269892e+00
-3.808178761874e+00
-3.789140871853e+00
-3.770003140347e+00
-3.750766102825e+00
-3.731430289781e+00
-3.711996226789e+00
-3.692464434578e+00
-3.672835429090e+00
-3.653109721542e+00
-3.633287818494e+00
-3.613370221903e+00
-3.593357429184e+00
-3.573249933271e+00
-3.553048222673e+00
-3.532752781530e+00
-3.512364089670e+00
-3.491882622662e+00
-3.471308851873e+00
-3.450643244516e+00
-3.429886263707e+00
-3.409038368514e+00
-3.388100014007e+00
-3.367071651309e+00
-3.345953727644e+00
-3.324746686385e+00
-3.303450967100e+00
-3.282067005603e+00
-3.260595233994e+00
-3.239036080707e+00
-3.217389970556e+00
-3.195657324774e+00
-3.173838561059e+00
-3.151934093619e+00
-3.129944333207e+00
-3.107869687167e+00
-3.085710559473e+00
-3.063467350768e+00
-3.041140458405e+00
-3.018730276482e+00
-2.996237195885e+00
-2.973661604321e+00
-2.951003886356e+00
-2.928264423453e+00
-2.905443594006e+00
-2.882541773375e+00
-2.859559333923e+00
-2.836496645045e+00
-2.813354073208e+00
-2.790131981981e+00
-2.766830732066e+00
-2.743450681334e+00
-2.719992184852e+00
-2.696455594921e+00
-2.672841261099e+00
-2.649149530238e+00
-2.625380746508e+00
-2.601535251432e+00
-2.577613383912e+00
-2.553615480257e+00
-2.529541874216e+00
-2.505392896997e+00
-2.481168877304e+00
-2.456870141359e+00
-2.432497012929e+00
-2.408049813352e+00
-2.383528861565e+00
-2.358934474129e+00
-2.334266965253e+00
-2.309526646819e+00
-2.284713828407e+00
-2.259828817321e+00
-2.234871918609e+00
-2.209843435090e+00
-2.184743667376e+00
-2.159572913895e+00
-2.134331470913e+00
-2.109019632557e+00
-2.083637690837e+00
-2.058185935667e+00
-2.032664654888e+00
-2.007074134287e+00
-1.981414657620e+00
-1.955686506631e+00
-1.929889961074e+00
-1.904025298730e+00
-1.878092795429e+00
-1.852092725073e+00
-1.826025359646e+00
-1.799890969242e+00
-1.773689822079e+00
-1.747422184521e+00
-1.721088321092e+00
-1.694688494497e+00
-1.668222965640e+00
-1.641691993638e+00
-1.615095835845e+00
-1.588434747862e+00
-1.561708983560e+00
-1.534918795091e+00
-1.508064432910e+00
-1.481146145787e+00
-1.454164180828e+00
-1.427118783484e+00
-1.400010197572e+00
-1.372838665291e+00
-1.345604427233e+00
-1.318307722402e+00
-1.290948788227e+00
-1.263527860578e+00
-1.236045173778e+00
-1.208500960622e+00
-1.180895452387e+00
-1.153228878849e+00
-1.125501468293e+00
-1.097713447532e+00
-1.069865041917e+00
-1.041956475352e+00
-1.013987970304e+00
-9.859597478218e-01
-9.578720275444e-01
-9.297250277152e-01
-9.015189651946e-01
-8.732540554728e-01
-8.449305126817e-01
-8.165485496071e-01
-7.881083777013e-01
-7.596102070942e-01
-7.310542466057e-01
-7.024407037572e-01
-6.737697847829e-01
-6.450416946414e-01
-6.162566370268e-01
-5.874148143800e-01
-5.585164278994e-01
-5.295616775521e-01
-5.005507620842e-01
-4.714838790320e-01
-4.423612247319e-01
-4.131829943313e-01
-3.839493817984e-01
-3.546605799328e-01
-3.253167803751e-01
-2.959181736172e-01
-2.664649490118e-01
-2.369572947824e-01
-2.073953980325e-01
-1.777794447557e-01
-1.481096198443e-01
-1.183861070993e-01
-8.860908923919e-02
-5.877874790918e-02
-2.889526369006e-02
1.041183892795e-03
3.103041636072e-02
6.107225627300e-02
9.116652721833e-02
1.213130538062e-01
1.515116616588e-01
1.817621774020e-01
2.120644286580e-01
2.424182440366e-01
2.728234531271e-01
3.032798864908e-01
3.337873756526e-01
3.643457530935e-01
3.949548522426e-01
4.256145074699e-01
4.563245540782e-01
4.870848282960e-01
5.178951672700e-01
5.487554090576e-01
5.796653926198e-01
6.106249578140e-01
6.416339453869e-01
6.726921969674e-01
7.037995550598e-01
7.349558630366e-01
7.661609651319e-01
7.974147064349e-01
8.287169328825e-01
8.600674912534e-01
8.914662291613e-01
9.229129950482e-01
9.544076381782e-01
9.859500086313e-01
1.017539957297e+00
1.049177335867e+00
1.080861996832e+00
1.112593793472e+00
1.144372579852e+00
1.176198210817e+00
1.208070541985e+00
1.239989429739e+00
1.271954731225e+00
1.303966304345e+00
1.336024007750e+00
1.368127700836e+00
1.400277243736e+00
1.432472497319e+00
1.464713323179e+00
1.496999583633e+00
1.529331141716e+00
1.561707861173e+00
1.594129606456e+00
1.626596242718e+00
1.659107635809e+00
1.691663652268e+00
1.724264159320e+00
1.756909024873e+00
1.789598117507e+00
1.822331306476e+00
1.855108461698e+00
1.887929453754e+00
1.920794153879e+00
1.953702433961e+00
1.986654166535e+00
2.019649224778e+00
2.052687482505e+00
2.085768814162e+00
2.118893094827e+00
2.152060200200e+00
2.185270006599e+00
2.218522390961e+00
2.251817230831e+00
2.285154404362e+00
2.318533790308e+00
2.351955268022e+00
2.385418717452e+00
2.418924019132e+00
2.452471054185e+00
2.486059704314e+00
2.519689851799e+00
2.553361379496e+00
2.587074170826e+00
2.620828109779e+00
2.654623080906e+00
2.688458969314e+00
2.722335660666e+00
2.756253041173e+00
2.790210997595e+00
2.824209417231e+00
2.858248187922e+00
2.892327198042e+00
2.926446336498e+00
2.960605492724e+00
2.994804556679e+00
3.029043418843e+00
3.063321970212e+00
3.097640102297e+00
3.131997707120e+00
3.166394677207e+00
3.200830905592e+00
3.235306285806e+00
3.269820711876e+00
3.304374078327e+00
3.338966280170e+00
3.373597212905e+00
3.408266772516e+00
3.442974855466e+00
3.477721358698e+00
3.512506179628e+00
3.547329216142e+00
3.582190366596e+00
3.617089529811e+00
3.652026605070e+00
3.687001492113e+00
3.722014091139e+00
3.757064302800e+00
3.792152028195e+00
3.827277168873e+00
3.862439626828e+00
3.897639304493e+00
3.932876104742e+00
3.968149930885e+00
4.003460686662e+00
4.038808276247e+00
4.074192604241e+00
4.109613575667e+00
4.145071095974e+00
4.180565071029e+00
4.216095407116e+00
4.251662010932e+00
4.287264789587e+00
4.322903650601e+00
4.358578501899e+00
4.394289251809e+00
4.430035809064e+00
4.465818082792e+00
4.501635982520e+00
4.537489418169e+00
4.573378300049e+00
4.609302538862e+00
4.645262045695e+00
4.681256732021e+00
4.717286509694e+00
4.753351290946e+00
4.789450988390e+00
4.825585515010e+00
4.861754784166e+00
4.897958709587e+00
4.934197205369e+00
4.970470185976e+00
5.006777566235e+00
5.043119261334e+00
5.079495186821e+00
5.115905258602e+00
5.152349392935e+00
5.188827506433e+00
5.225339516061e+00
5.261885339131e+00
5.298464893301e+00
5.335078096575e+00
5.371724867298e+00
5.408405124157e+00
5.445118786176e+00
5.481865772717e+00
5.518646003475e+00
5.555459398478e+00
5.592305878085e+00
5.629185362981e+00
5.666097774181e+00
5.703043033023e+00
5.740021061168e+00
5.777031780598e+00
5.814075113614e+00
5.851150982834e+00
5.888259311191e+00
5.925400021933e+00
5.962573038618e+00
5.999778285114e+00
6.037015685599e+00
6.074285164555e+00
6.111586646770e+00
6.148920057334e+00
6.186285321639e+00
6.223682365375e+00
6.261111114531e+00
6.298571495391e+00
6.336063434534e+00
6.373586858832e+00
6.411141695446e+00
6.448727871827e+00
6.486345315716e+00
6.523993955137e+00
6.561673718400e+00
6.599384534097e+00
6.637126331102e+00
6.674899038569e+00
6.712702585927e+00
6.750536902886e+00
6.788401919429e+00
6.826297565811e+00
6.864223772562e+00
6.902180470479e+00
6.940167590630e+00
6.978185064352e+00
7.016232823244e+00
7.054310799172e+00
7.092418924265e+00
7.130557130914e+00
7.168725351768e+00
7.206923519738e+00
7.245151567988e+00
7.283409429943e+00
7.321697039278e+00
7.360014329924e+00
7.398361236062e+00
7.436737692126e+00
7.475143632796e+00
7.513578993001e+00
7.552043707917e+00
7.590537712964e+00
7.629060943807e+00
7.667613336351e+00
7.706194826745e+00
7.744805351376e+00
7.783444846870e+00
7.822113250090e+00
7.860810498136e+00
7.899536528342e+00
7.938291278275e+00
7.977074685735e+00
8.015886688752e+00
8.054727225589e+00
8.093596234733e+00
8.132493654902e+00
8.171419425038e+00
8.210373484309e+00
8.249355772107e+00
8.288366228046e+00
8.327404791962e+00
8.366471403912e+00
8.405566004170e+00
8.444688533229e+00
8.483838931802e+00
8.523017140812e+00
8.562223101402e+00
8.601456754925e+00
8.640718042949e+00
8.680006907251e+00
8.719323289820e+00
8.758667132855e+00
8.798038378759e+00
8.837436970147e+00
8.876862849837e+00
8.916315960853e+00
8.955796246423e+00
8.995303649977e+00
9.034838115147e+00
9.074399585767e+00
9.113988005871e+00
9.153603319688e+00
9.193245471650e+00
9.232914406383e+00
9.272610068707e+00
9.312332403642e+00
9.352081356396e+00
9.391856872374e+00
9.431658897172e+00
9.471487376575e+00
9.511342256559e+00
9.551223483292e+00
9.591131003125e+00
9.631064762599e+00
9.671024708441e+00
9.711010787564e+00
9.751022947064e+00
9.791061134221e+00
9.831125296497e+00
9.871215381536e+00
9.911331337164e+00
9.951473111385e+00
9.991640652384e+00
1.003183390852e+01
1.007205282834e+01
1.011229736055e+01
1.015256745404e+01
1.019286305789e+01
1.023318412133e+01
1.027353059377e+01
1.031390242480e+01
1.035429956417e+01
1.039472196181e+01
1.043516956783e+01
1.047564233247e+01
1.051614020618e+01
1.055666313955e+01
1.059721108335e+01
1.063778398852e+01
1.067838180615e+01
1.071900448751e+01
1.075965198401e+01
1.080032424724e+01
1.084102122896e+01
1.088174288107e+01
1.092248915564e+01
1.096326000490e+01
1.100405538125e+01
1.104487523721e+01
1.108571952551e+01
1.112658819899e+01
1.116748121067e+01
1.120839851373e+01
1.124934006148e+01
1.129030580740e+01
1.133129570513e+01
1.137230970845e+01
1.141334777129e+01
1.145440984773e+01
1.149549589201e+01
1.153660585852e+01
1.157773970178e+01
1.161889737648e+01
1.166007883744e+01
1.170128403965e+01
1.174251293820e+01
1.178376548839e+01
1.182504164560e+01
1.186634136540e+01
1.190766460349e+01
1.194901131569e+01
1.199038145800e+01
1.203177498653e+01
1.207319185755e+01
1.211463202746e+01
1.215609545280e+01
1.219758209025e+01
1.223909189664e+01
1.228062482891e+01
1.232218084416e+01
1.236375989963e+01
1.240536195266e+01
1.244698696078e+01
1.248863488159e+01
1.253030567289e+01
1.257199929256e+01
1.261371569864e+01
1.265545484930e+01
1.269721670282e+01
1.273900121765e+01
1.278080835233e+01
1.282263806556e+01
1.286449031614e+01
1.290636506304e+01
1.294826226530e+01
1.299018188215e+01
1.303212387290e+01
1.307408819701e+01
1.311607481405e+01
1.315808368373e+01
1.320011476588e+01
1.324216802045e+01
1.328424340752e+01
1.332634088727e+01
1.336846042005e+01
1.341060196628e+01
1.345276548653e+01
1.349495094148e+01
1.353715829195e+01
1.357938749885e+01
1.362163852323e+01
1.366391132626e+01
1.370620586920e+01
1.374852211347e+01
1.379086002058e+01
1.383321955215e+01
1.387560066994e+01
1.391800333582e+01
1.396042751175e+01
1.400287315984e+01
1.404534024229e+01
1.408782872143e+01
1.413033855969e+01
1.417286971961e+01
1.421542216386e+01
1.425799585521e+01
1.430059075653e+01
1.434320683084e+01
1.438584404122e+01
1.442850235089e+01
1.447118172318e+01
1.451388212151e+01
1.455660350944e+01
1.459934585060e+01
1.464210910875e+01
1.468489324776e+01
1.472769823159e+01
1.477052402433e+01
1.481337059015e+01
1.485623789334e+01
1.489912589829e+01
1.494203456951e+01
1.498496387158e+01
1.502791376922e+01
1.507088422723e+01
1.511387521052e+01
1.515688668410e+01
1.519991861309e+01
1.524297096270e+01
1.528604369825e+01
1.532913678516e+01
1.537225018895e+01
1.541538387522e+01
1.545853780970e+01
1.550171195821e+01
1.554490628665e+01
1.558812076104e+01
1.563135534749e+01
1.567461001221e+01
1.571788472150e+01
1.576117944176e+01
1.580449413948e+01
1.584782878127e+01
1.589118333381e+01
1.593455776387e+01
1.597795203835e+01
1.602136612421e+01
1.606479998852e+01
1.610825359843e+01
1.615172692120e+01
1.619521992418e+01
1.623873257479e+01
1.628226484058e+01
1.632581668916e+01
1.636938808824e+01
1.641297900563e+01
1.645658940921e+01
1.650021926698e+01
1.654386854701e+01
1.658753721746e+01
1.663122524658e+01
1.667493260271e+01
1.671865925428e+01
1.676240516982e+01
1.680617031791e+01
1.684995466726e+01
1.689375818665e+01
1.693758084493e+01
1.698142261107e+01
1.702528345409e+01
1.706916334313e+01
1.711306224739e+01
1.715698013616e+01
1.720091697883e+01
1.724487274486e+01
1.728884740378e+01
1.733284092524e+01
1.737685327895e+01
1.742088443470e+01
1.746493436237e+01
1.750900303192e+01
1.755309041339e+01
1.759719647692e+01
1.764132119271e+01
1.768546453104e+01
1.772962646228e+01
1.777380695688e+01
1.781800598537e+01
1.786222351836e+01
1.790645952654e+01
1.795071398067e+01
1.799498685160e+01
1.803927811026e+01
1.808358772764e+01
1.812791567483e+01
1.817226192298e+01
1.821662644334e+01
1.826100920722e+01
1.830541018599e+01
1.834982935115e+01
1.839426667421e+01
1.843872212681e+01
1.848319568064e+01
1.852768730746e+01
1.857219697912e+01
1.861672466755e+01
1.866127034473e+01
1.870583398273e+01
1.875041555370e+01
1.879501502985e+01
1.883963238346e+01
1.888426758691e+01
1.892892061263e+01
1.897359143312e+01
1.901828002097e+01
1.906298634882e+01
1.910771038941e+01
1.915245211552e+01
1.919721150002e+01
1.924198851585e+01
1.928678313602e+01
1.933159533360e+01
1.937642508175e+01
1.942127235368e+01
1.946613712269e+01
1.951101936212e+01
1.955591904541e+01
1.960083614606e+01
1.964577063761e+01
1.969072249372e+01
1.973569168808e+01
1.978067819445e+01
1.982568198668e+01
1.987070303867e+01
1.991574132439e+01
1.996079681787e+01
2.000586949322e+01
2.005095932462e+01
2.009606628630e+01
2.014119035256e+01
2.018633149776e+01
2.023148969635e+01
2.027666492283e+01
2.032185715175e+01
2.036706635775e+01
2.041229251552e+01
2.045753559982e+01
2.050279558546e+01
2.054807244734e+01
2.059336616040e+01
2.063867669966e+01
2.068400404019e+01
2.072934815713e+01
2.077470902568e+01
2.082008662110e+01
2.086548091872e+01
2.091089189394e+01
2.095631952218e+01
2.100176377898e+01
2.104722463989e+01
2.109270208056e+01
2.113819607668e+01
2.118370660400e+01
2.122923363833e+01
2.127477715557e+01
2.132033713163e+01
2.136591354251e+01
2.141150636428e+01
2.145711557305e+01
2.150274114498e+01
2.154838305631e+01
2.159404128334e+01
2.163971580241e+01
2.168540658993e+01
2.173111362238e+01
2.177683687626e+01
2.182257632817e+01
2.186833195475e+01
2.191410373269e+01
2.195989163875e+01
2.200569564974e+01
2.205151574252e+01
2.209735189403e+01
2.214320408124e+01
2.218907228119e+01
2.223495647097e+01
2.228085662773e+01
2.232677272869e+01
2.237270475108e+01
2.241865267224e+01
2.246461646954e+01
2.251059612039e+01
2.255659160228e+01
2.260260289273e+01
2.264862996935e+01
2.269467280977e+01
2.274073139169e+01
2.278680569286e+01
2.283289569107e+01
2.287900136420e+01
2.292512269015e+01
2.297125964687e+01
2.301741221240e+01
2.306358036478e+01
2.310976408216e+01
2.315596334270e+01
2.320217812462e+01
2.324840840620e+01
2.329465416577e+01
2.334091538171e+01
2.338719203246e+01
2.343348409649e+01
2.347979155235e+01
2.352611437860e+01
2.357245255390e+01
2.361880605692e+01
2.366517486640e+01
2.371155896114e+01
2.375795831995e+01
2.380437292175e+01
2.385080274544e+01
2.389724777003e+01
2.394370797455e+01
2.399018333809e+01
2.403667383977e+01
2.408317945877e+01
2.412970017434e+01
2.417623596574e+01
2.422278681230e+01
2.426935269341e+01
2.431593358848e+01
2.436252947699e+01
2.440914033846e+01
2.445576615245e+01
2.450240689857e+01
2.454906255649e+01
2.459573310593e+01
2.464241852662e+01
2.468911879838e+01
2.473583390106e+01
2.478256381455e+01
2.482930851879e+01
2.487606799377e+01
2.492284221953e+01
2.496963117615e+01
2.501643484374e+01
2.506325320249e+01
2.511008623261e+01
2.515693391436e+01
2.520379622805e+01
2.525067315403e+01
2.529756467270e+01
2.534447076451e+01
2.539139140993e+01
2.543832658949e+01
2.548527628378e+01
2.553224047341e+01
2.557921913905e+01
2.562621226140e+01
2.567321982122e+01
2.572024179929e+01
2.576727817646e+01
2.581432893360e+01
2.586139405164e+01
2.590847351156e+01
2.595556729435e+01
2.600267538107e+01
2.604979775282e+01
2.609693439073e+01
2.614408527598e+01
2.619125038980e+01
2.623842971346e+01
2.628562322825e+01
2.633283091552e+01
2.638005275667e+01
2.642728873313e+01
2.647453882636e+01
2.652180301789e+01
2.656908128927e+01
2.661637362209e+01
2.666367999799e+01
2.671100039865e+01
2.675833480579e+01
2.680568320116e+01
2.685304556657e+01
2.690042188386e+01
2.694781213489e+01
2.699521630160e+01
2.704263436595e+01
2.709006630992e+01
2.713751211556e+01
2.718497176496e+01
2.723244524022e+01
2.727993252350e+01
2.732743359700e+01
2.737494844295e+01
2.742247704363e+01
2.747001938135e+01
2.751757543846e+01
2.756514519735e+01
2.761272864044e+01
2.766032575022e+01
2.770793650917e+01
2.775556089984e+01
2.780319890481e+01
2.785085050670e+01
2.789851568817e+01
2.794619443191e+01
2.799388672064e+01
2.804159253715e+01
2.808931186422e+01
2.813704468471e+01
2.818479098150e+01
2.823255073750e+01
2.828032393567e+01
2.832811055898e+01
2.837591059048e+01
2.842372401323e+01
2.847155081031e+01
2.851939096488e+01
2.856724446009e+01
2.861511127916e+01
2.866299140533e+01
2.871088482189e+01
2.875879151213e+01
2.880671145942e+01
2.885464464714e+01
2.890259105871e+01
2.895055067759e+01
2.899852348727e+01
2.904650947128e+01
2.909450861317e+01
2.914252089654e+01
2.919054630503e+01
2.923858482230e+01
2.928663643205e+01
2.933470111802e+01
2.938277886396e+01
2.943086965370e+01
2.947897347105e+01
2.952709029990e+01
2.957522012415e+01
2.962336292774e+01
2.967151869463e+01
2.971968740884e+01
2.976786905441e+01
2.981606361541e+01
2.986427107594e+01
2.991249142014e+01
2.996072463219e+01
3.000897069629e+01
3.005722959668e+01
3.010550131763e+01
3.015378584344e+01
3.020208315846e+01
3.025039324704e+01
3.029871609360e+01
3.034705168256e+01
3.039539999839e+01
3.044376102559e+01
3.049213474868e+01
3.054052115224e+01
3.058892022085e+01
3.063733193914e+01
3.068575629177e+01
3.073419326342e+01
3.078264283881e+01
3.083110500270e+01
3.087957973988e+01
3.092806703514e+01
3.097656687335e+01
3.102507923937e+01
3.107360411811e+01
3.112214149451e+01
3.117069135354e+01
3.121925368020e+01
3.126782845952e+01
3.131641567655e+01
3.136501531640e+01
3.141362736418e+01
3.146225180503e+01
3.151088862415e+01
3.155953780675e+01
3.160819933806e+01
3.165687320336e+01
3.170555938795e+01
3.175425787716e+01
3.180296865634e+01
3.185169171090e+01
3.190042702625e+01
3.194917458783e+01
3.199793438113e+01
3.204670639165e+01
3.209549060494e+01
3.214428700655e+01
3.219309558207e+01
3.224191631715e+01
3.229074919741e+01
3.233959420855e+01
3.238845133628e+01
3.243732056632e+01
3.248620188446e+01
3.253509527648e+01
3.258400072821e+01
3.263291822549e+01
3.268184775421e+01
3.273078930027e+01
3.277974284962e+01
3.282870838821e+01
3.287768590203e+01
3.292667537710e+01
3.297567679947e+01
3.302469015522e+01
3.307371543044e+01
3.312275261126e+01
3.317180168385e+01
3.322086263437e+01
3.326993544906e+01
3.331902011413e+01
3.336811661586e+01
3.341722494054e+01
3.346634507449e+01
3.351547700406e+01
