DATE: 2021-06-05 CONTRIBUTOR: Shuozhi Xu (shuozhixu@ucsb.edu)
CITATION: Shuozhi Xu, Saeed Zare Chavoshi, Yanqing Su, Comput. Mater. Sci. 202 (2022) 110942
http://dx.doi.org/10.1016/j.commatsci.2021.110942
5 W Ta Nb Cr X
2000 0.2771569812852027E+00 2000 0.3199268520872213E-02 0.6395337773223553E+01
74 183.84 3.8761 fcc
0.000000000000e+00
-1.230963844283e-01
-2.441152245893e-01
-3.630743797138e-01
-4.799917090328e-01
-5.948850717774e-01
-7.077723271784e-01
-8.186713344668e-01
-9.275999528736e-01
-1.034576041630e+00
-1.139617459966e+00
-1.242742067114e+00
-1.343967722304e+00
-1.443312284767e+00
-1.540793613735e+00
-1.636429568438e+00
-1.730238008106e+00
-1.822236791972e+00
-1.912443779266e+00
-2.000876829219e+00
-2.087553801062e+00
-2.172492554025e+00
-2.255710947341e+00
-2.337226840239e+00
-2.417058091952e+00
-2.495222561709e+00
-2.571738108742e+00
-2.646622592282e+00
-2.719893871559e+00
-2.791569805805e+00
-2.861668254251e+00
-2.930207076127e+00
-2.997204130665e+00
-3.062677277095e+00
-3.126644374649e+00
-3.189123282557e+00
-3.250131860050e+00
-3.309687966360e+00
-3.367809460718e+00
-3.424514202353e+00
-3.479820050498e+00
-3.533744864384e+00
-3.586306503240e+00
-3.637522826298e+00
-3.687411692790e+00
-3.735990961946e+00
-3.783278492997e+00
-3.829292145173e+00
-3.874049777707e+00
-3.917569249829e+00
-3.959868420770e+00
-4.000965149760e+00
-4.040877296032e+00
-4.079622718815e+00
-4.117219277341e+00
-4.153684830841e+00
-4.189037238546e+00
-4.223294359686e+00
-4.256474053493e+00
-4.288594179197e+00
-4.319672596030e+00
-4.349727163222e+00
-4.378775740006e+00
-4.406836185610e+00
-4.433926359267e+00
-4.460064120207e+00
-4.485267327662e+00
-4.509553840862e+00
-4.532941519038e+00
-4.555448221422e+00
-4.577091807244e+00
-4.597890135735e+00
-4.617861066126e+00
-4.637022457648e+00
-4.655392169532e+00
-4.672988061010e+00
-4.689827991311e+00
-4.705929819667e+00
-4.721311405309e+00
-4.735990607469e+00
-4.749985285376e+00
-4.763313298262e+00
-4.775992505357e+00
-4.788040765894e+00
-4.799475939102e+00
-4.810315884213e+00
-4.820578460457e+00
-4.830281527066e+00
-4.839442943271e+00
-4.848080568302e+00
-4.856212261391e+00
-4.863855881769e+00
-4.871029288665e+00
-4.877750341312e+00
-4.884036898941e+00
-4.889906820782e+00
-4.895377966066e+00
-4.900468194025e+00
-4.905195363888e+00
-4.909577334888e+00
-4.913631966255e+00
-4.917377117220e+00
-4.920830647015e+00
-4.924010414869e+00
-4.926934280014e+00
-4.929620101682e+00
-4.932085739102e+00
-4.934349051506e+00
-4.936427898126e+00
-4.938340138191e+00
-4.940103630932e+00
-4.941736235582e+00
-4.943255811370e+00
-4.944680217528e+00
-4.946027313287e+00
-4.947313785293e+00
-4.948543092997e+00
-4.949714855442e+00
-4.950828211153e+00
-4.951882298654e+00
-4.952876256472e+00
-4.953809223131e+00
-4.954680337156e+00
-4.955488737073e+00
-4.956233561405e+00
-4.956913948679e+00
-4.957529037419e+00
-4.958077966150e+00
-4.958559873398e+00
-4.958973897687e+00
-4.959319177543e+00
-4.959594851491e+00
-4.959800058055e+00
-4.959933935760e+00
-4.959995623133e+00
-4.959984258697e+00
-4.959898980978e+00
-4.959738928500e+00
-4.959503239790e+00
-4.959191053372e+00
-4.958801507770e+00
-4.958333741511e+00
-4.957786893119e+00
-4.957160101119e+00
-4.956452504036e+00
-4.955663240395e+00
-4.954791448722e+00
-4.953836267541e+00
-4.952796835378e+00
-4.951672290757e+00
-4.950461772203e+00
-4.949164418242e+00
-4.947779367398e+00
-4.946305758198e+00
-4.944742729164e+00
-4.943091654987e+00
-4.941366577419e+00
-4.939570685623e+00
-4.937704817582e+00
-4.935769796695e+00
-4.933766432115e+00
-4.931695519078e+00
-4.929557839225e+00
-4.927354160914e+00
-4.925085239520e+00
-4.922751817729e+00
-4.920354625826e+00
-4.917894381971e+00
-4.915371792465e+00
-4.912787552018e+00
-4.910142343999e+00
-4.907436840686e+00
-4.904671703506e+00
-4.901847583269e+00
-4.898965120399e+00
-4.896024945151e+00
-4.893027677831e+00
-4.889973929002e+00
-4.886864299694e+00
-4.883699381600e+00
-4.880479757267e+00
-4.877206000293e+00
-4.873878675503e+00
-4.870498339132e+00
-4.867065538999e+00
-4.863580814678e+00
-4.860044697663e+00
-4.856457711531e+00
-4.852820372096e+00
-4.849133187568e+00
-4.845396658698e+00
-4.841611278928e+00
-4.837777534532e+00
-4.833895904754e+00
-4.829966861947e+00
-4.825990871699e+00
-4.821968392972e+00
-4.817899878217e+00
-4.813785773509e+00
-4.809626518655e+00
-4.805422547321e+00
-4.801174287141e+00
-4.796882159834e+00
-4.792546581306e+00
-4.788167961764e+00
-4.783746705816e+00
-4.779283212575e+00
-4.774777875758e+00
-4.770231083782e+00
-4.765643219861e+00
-4.761014662099e+00
-4.756345783580e+00
-4.751636952457e+00
-4.746888532039e+00
-4.742100880875e+00
-4.737274352841e+00
-4.732409297216e+00
-4.727506058765e+00
-4.722564977816e+00
-4.717586390336e+00
-4.712570628004e+00
-4.707518018287e+00
-4.702428884510e+00
-4.697303545923e+00
-4.692142317775e+00
-4.686945511377e+00
-4.681713434165e+00
-4.676446389772e+00
-4.671144678084e+00
-4.665808595304e+00
-4.660438434011e+00
-4.655034483222e+00
-4.649597028447e+00
-4.644126351746e+00
-4.638622731784e+00
-4.633086443889e+00
-4.627517760101e+00
-4.621916949225e+00
-4.616284276884e+00
-4.610620005568e+00
-4.604924394683e+00
-4.599197700600e+00
-4.593440176702e+00
-4.587652073428e+00
-4.581833638323e+00
-4.575985116079e+00
-4.570106748580e+00
-4.564198774943e+00
-4.558261431565e+00
-4.552294952158e+00
-4.546299567793e+00
-4.540275506940e+00
-4.534222995505e+00
-4.528142256869e+00
-4.522033511928e+00
-4.515896979124e+00
-4.509732874487e+00
-4.503541411667e+00
-4.497322801971e+00
-4.491077254396e+00
-4.484804975660e+00
-4.478506170242e+00
-4.472181040405e+00
-4.465829786236e+00
-4.459452605673e+00
-4.453049694536e+00
-4.446621246558e+00
-4.440167453412e+00
-4.433688504746e+00
-4.427184588203e+00
-4.420655889458e+00
-4.414102592237e+00
-4.407524878352e+00
-4.400922927720e+00
-4.394296918394e+00
-4.387647026590e+00
-4.380973426705e+00
-4.374276291350e+00
-4.367555791370e+00
-4.360812095868e+00
-4.354045372229e+00
-4.347255786144e+00
-4.340443501632e+00
-4.333608681062e+00
-4.326751485177e+00
-4.319872073112e+00
-4.312970602419e+00
-4.306047229084e+00
-4.299102107553e+00
-4.292135390747e+00
-4.285147230084e+00
-4.278137775499e+00
-4.271107175462e+00
-4.264055576998e+00
-4.256983125707e+00
-4.249889965778e+00
-4.242776240012e+00
-4.235642089834e+00
-4.228487655319e+00
-4.221313075200e+00
-4.214118486890e+00
-4.206904026498e+00
-4.199669828846e+00
-4.192416027482e+00
-4.185142754699e+00
-4.177850141551e+00
-4.170538317866e+00
-4.163207412260e+00
-4.155857552158e+00
-4.148488863803e+00
-4.141101472270e+00
-4.133695501487e+00
-4.126271074241e+00
-4.118828312197e+00
-4.111367335908e+00
-4.103888264832e+00
-4.096391217344e+00
-4.088876310746e+00
-4.081343661284e+00
-4.073793384159e+00
-4.066225593538e+00
-4.058640402569e+00
-4.051037923390e+00
-4.043418267144e+00
-4.035781543987e+00
-4.028127863103e+00
-4.020457332715e+00
-4.012770060092e+00
-4.005066151567e+00
-3.997345712542e+00
-3.989608847500e+00
-3.981855660019e+00
-3.974086252776e+00
-3.966300727564e+00
-3.958499185299e+00
-3.950681726029e+00
-3.942848448945e+00
-3.934999452390e+00
-3.927134833870e+00
-3.919254690064e+00
-3.911359116829e+00
-3.903448209213e+00
-3.895522061465e+00
-3.887580767038e+00
-3.879624418605e+00
-3.871653108062e+00
-3.863666926542e+00
-3.855665964418e+00
-3.847650311312e+00
-3.839620056109e+00
-3.831575286957e+00
-3.823516091280e+00
-3.815442555787e+00
-3.807354766475e+00
-3.799252808638e+00
-3.791136766878e+00
-3.783006725110e+00
-3.774862766568e+00
-3.766704973814e+00
-3.758533428746e+00
-3.750348212602e+00
-3.742149405971e+00
-3.733937088795e+00
-3.725711340381e+00
-3.717472239403e+00
-3.709219863913e+00
-3.700954291344e+00
-3.692675598517e+00
-3.684383861650e+00
-3.676079156360e+00
-3.667761557674e+00
-3.659431140030e+00
-3.651087977288e+00
-3.642732142732e+00
-3.634363709078e+00
-3.625982748480e+00
-3.617589332532e+00
-3.609183532282e+00
-3.600765418226e+00
-3.592335060324e+00
-3.583892528001e+00
-3.575437890150e+00
-3.566971215141e+00
-3.558492570827e+00
-3.550002024544e+00
-3.541499643121e+00
-3.532985492884e+00
-3.524459639660e+00
-3.515922148781e+00
-3.507373085091e+00
-3.498812512951e+00
-3.490240496241e+00
-3.481657098369e+00
-3.473062382268e+00
-3.464456410412e+00
-3.455839244809e+00
-3.447210947012e+00
-3.438571578124e+00
-3.429921198798e+00
-3.421259869245e+00
-3.412587649235e+00
-3.403904598104e+00
-3.395210774760e+00
-3.386506237679e+00
-3.377791044919e+00
-3.369065254117e+00
-3.360328922495e+00
-3.351582106867e+00
-3.342824863637e+00
-3.334057248808e+00
-3.325279317982e+00
-3.316491126366e+00
-3.307692728777e+00
-3.298884179641e+00
-3.290065533001e+00
-3.281236842518e+00
-3.272398161476e+00
-3.263549542784e+00
-3.254691038983e+00
-3.245822702244e+00
-3.236944584374e+00
-3.228056736822e+00
-3.219159210677e+00
-3.210252056676e+00
-3.201335325203e+00
-3.192409066297e+00
-3.183473329651e+00
-3.174528164615e+00
-3.165573620204e+00
-3.156609745096e+00
-3.147636587635e+00
-3.138654195840e+00
-3.129662617398e+00
-3.120661899678e+00
-3.111652089724e+00
-3.102633234265e+00
-3.093605379714e+00
-3.084568572171e+00
-3.075522857427e+00
-3.066468280968e+00
-3.057404887973e+00
-3.048332723321e+00
-3.039251831593e+00
-3.030162257072e+00
-3.021064043749e+00
-3.011957235324e+00
-3.002841875205e+00
-2.993718006520e+00
-2.984585672107e+00
-2.975444914527e+00
-2.966295776061e+00
-2.957138298713e+00
-2.947972524214e+00
-2.938798494022e+00
-2.929616249328e+00
-2.920425831052e+00
-2.911227279853e+00
-2.902020636126e+00
-2.892805940004e+00
-2.883583231364e+00
-2.874352549825e+00
-2.865113934755e+00
-2.855867425267e+00
-2.846613060226e+00
-2.837350878249e+00
-2.828080917707e+00
-2.818803216728e+00
-2.809517813200e+00
-2.800224744768e+00
-2.790924048842e+00
-2.781615762596e+00
-2.772299922970e+00
-2.762976566672e+00
-2.753645730181e+00
-2.744307449747e+00
-2.734961761394e+00
-2.725608700924e+00
-2.716248303912e+00
-2.706880605717e+00
-2.697505641476e+00
-2.688123446110e+00
-2.678734054325e+00
-2.669337500613e+00
-2.659933819252e+00
-2.650523044314e+00
-2.641105209660e+00
-2.631680348942e+00
-2.622248495611e+00
-2.612809682911e+00
-2.603363943886e+00
-2.593911311379e+00
-2.584451818033e+00
-2.574985496295e+00
-2.565512378416e+00
-2.556032496453e+00
-2.546545882270e+00
-2.537052567540e+00
-2.527552583745e+00
-2.518045962181e+00
-2.508532733955e+00
-2.499012929992e+00
-2.489486581029e+00
-2.479953717623e+00
-2.470414370150e+00
-2.460868568806e+00
-2.451316343608e+00
-2.441757724397e+00
-2.432192740838e+00
-2.422621422421e+00
-2.413043798465e+00
-2.403459898116e+00
-2.393869750351e+00
-2.384273383976e+00
-2.374670827631e+00
-2.365062109789e+00
-2.355447258758e+00
-2.345826302681e+00
-2.336199269541e+00
-2.326566187155e+00
-2.316927083185e+00
-2.307281985130e+00
-2.297630920333e+00
-2.287973915979e+00
-2.278310999099e+00
-2.268642196568e+00
-2.258967535108e+00
-2.249287041291e+00
-2.239600741535e+00
-2.229908662110e+00
-2.220210829136e+00
-2.210507268587e+00
-2.200798006288e+00
-2.191083067921e+00
-2.181362479021e+00
-2.171636264982e+00
-2.161904451053e+00
-2.152167062345e+00
-2.142424123824e+00
-2.132675660322e+00
-2.122921696529e+00
-2.113162256998e+00
-2.103397366148e+00
-2.093627048259e+00
-2.083851327480e+00
-2.074070227826e+00
-2.064283773176e+00
-2.054491987283e+00
-2.044694893766e+00
-2.034892516114e+00
-2.025084877689e+00
-2.015272001724e+00
-2.005453911325e+00
-1.995630629474e+00
-1.985802179025e+00
-1.975968582709e+00
-1.966129863135e+00
-1.956286042786e+00
-1.946437144027e+00
-1.936583189100e+00
-1.926724200128e+00
-1.916860199115e+00
-1.906991207945e+00
-1.897117248386e+00
-1.887238342089e+00
-1.877354510590e+00
-1.867465775308e+00
-1.857572157549e+00
-1.847673678506e+00
-1.837770359258e+00
-1.827862220773e+00
-1.817949283908e+00
-1.808031569407e+00
-1.798109097909e+00
-1.788181889939e+00
-1.778249965919e+00
-1.768313346159e+00
-1.758372050864e+00
-1.748426100135e+00
-1.738475513964e+00
-1.728520312242e+00
-1.718560514753e+00
-1.708596141181e+00
-1.698627211104e+00
-1.688653744002e+00
-1.678675759251e+00
-1.668693276128e+00
-1.658706313809e+00
-1.648714891373e+00
-1.638719027798e+00
-1.628718741967e+00
-1.618714052664e+00
-1.608704978576e+00
-1.598691538297e+00
-1.588673750322e+00
-1.578651633055e+00
-1.568625204802e+00
-1.558594483781e+00
-1.548559488112e+00
-1.538520235827e+00
-1.528476744862e+00
-1.518429033068e+00
-1.508377118200e+00
-1.498321017926e+00
-1.488260749825e+00
-1.478196331387e+00
-1.468127780013e+00
-1.458055113018e+00
-1.447978347630e+00
-1.437897500989e+00
-1.427812590151e+00
-1.417723632087e+00
-1.407630643682e+00
-1.397533641737e+00
-1.387432642971e+00
-1.377327664017e+00
-1.367218721429e+00
-1.357105831676e+00
-1.346989011148e+00
-1.336868276152e+00
-1.326743642916e+00
-1.316615127587e+00
-1.306482746234e+00
-1.296346514844e+00
-1.286206449330e+00
-1.276062565523e+00
-1.265914879180e+00
-1.255763405977e+00
-1.245608161518e+00
-1.235449161328e+00
-1.225286420856e+00
-1.215119955480e+00
-1.204949780498e+00
-1.194775911138e+00
-1.184598362553e+00
-1.174417149822e+00
-1.164232287951e+00
-1.154043791877e+00
-1.143851676460e+00
-1.133655956493e+00
-1.123456646696e+00
-1.113253761718e+00
-1.103047316139e+00
-1.092837324470e+00
-1.082623801150e+00
-1.072406760552e+00
-1.062186216979e+00
-1.051962184666e+00
-1.041734677782e+00
-1.031503710427e+00
-1.021269296635e+00
-1.011031450373e+00
-1.000790185544e+00
-9.905455159826e-01
-9.802974554604e-01
-9.700460176832e-01
-9.597912162927e-01
-9.495330648668e-01
-9.392715769193e-01
-9.290067659013e-01
-9.187386452006e-01
-9.084672281428e-01
-8.981925279912e-01
-8.879145579476e-01
-8.776333311521e-01
-8.673488606840e-01
-8.570611595620e-01
-8.467702407443e-01
-8.364761171295e-01
-8.261788015562e-01
-8.158783068041e-01
-8.055746455938e-01
-7.952678305877e-01
-7.849578743895e-01
-7.746447895456e-01
-7.643285885444e-01
-7.540092838175e-01
-7.436868877395e-01
-7.333614126284e-01
-7.230328707462e-01
-7.127012742990e-01
-7.023666354372e-01
-6.920289662563e-01
-6.816882787967e-01
-6.713445850442e-01
-6.609978969305e-01
-6.506482263332e-01
-6.402955850764e-01
-6.299399849308e-01
-6.195814376141e-01
-6.092199547913e-01
-5.988555480750e-01
-5.884882290256e-01
-5.781180091518e-01
-5.677448999108e-01
-5.573689127083e-01
-5.469900588995e-01
-5.366083497886e-01
-5.262237966297e-01
-5.158364106265e-01
-5.054462029333e-01
-4.950531846546e-01
-4.846573668458e-01
-4.742587605133e-01
-4.638573766149e-01
-4.534532260599e-01
-4.430463197096e-01
-4.326366683773e-01
-4.222242828288e-01
-4.118091737825e-01
-4.013913519098e-01
-3.909708278353e-01
-3.805476121370e-01
-3.701217153467e-01
-3.596931479502e-01
-3.492619203874e-01
-3.388280430527e-01
-3.283915262954e-01
-3.179523804197e-01
-3.075106156849e-01
-2.970662423061e-01
-2.866192704538e-01
-2.761697102546e-01
-2.657175717913e-01
-2.552628651033e-01
-2.448056001866e-01
-2.343457869939e-01
-2.238834354354e-01
-2.134185553785e-01
-2.029511566483e-01
-1.924812490278e-01
-1.820088422580e-01
-1.715339460382e-01
-1.610565700265e-01
-1.505767238393e-01
-1.400944170525e-01
-1.296096592009e-01
-1.191224597787e-01
-1.086328282400e-01
-9.814077399851e-02
-8.764630642822e-02
-7.714943486331e-02
-6.665016859849e-02
-5.614851688921e-02
-4.564448895184e-02
-3.513809396388e-02
-2.462934106420e-02
-1.411823935322e-02
-3.604797893104e-03
6.910974292014e-03
1.742906821583e-02
2.794947492969e-02
3.847218552236e-02
4.899719111985e-02
5.952448288523e-02
7.005405201838e-02
8.058588975588e-02
9.111998737071e-02
1.016563361722e-01
1.121949275056e-01
1.227357527523e-01
1.332788033292e-01
1.438240706887e-01
1.543715463186e-01
1.649212217419e-01
1.754730885165e-01
1.860271382349e-01
1.965833625246e-01
2.071417530472e-01
2.177023014985e-01
2.282649996087e-01
2.388298391416e-01
2.493968118947e-01
2.599659096992e-01
2.705371244196e-01
2.811104479535e-01
2.916858722317e-01
3.022633892177e-01
3.128429909078e-01
3.234246693307e-01
3.340084165475e-01
3.445942246515e-01
3.551820857680e-01
3.657719920541e-01
3.763639356988e-01
3.869579089224e-01
3.975539039766e-01
4.081519131445e-01
4.187519287401e-01
4.293539431083e-01
4.399579486248e-01
4.505639376958e-01
4.611719027581e-01
4.717818362785e-01
4.823937307542e-01
4.930075787122e-01
5.036233727095e-01
5.142411053325e-01
5.248607691974e-01
5.354823569497e-01
5.461058612640e-01
5.567312748441e-01
5.673585904228e-01
5.779878007615e-01
5.886188986504e-01
5.992518769082e-01
6.098867283819e-01
6.205234459468e-01
6.311620225063e-01
6.418024509917e-01
6.524447243620e-01
6.630888356041e-01
6.737347777322e-01
6.843825437882e-01
6.950321268409e-01
7.056835199866e-01
7.163367163482e-01
7.269917090759e-01
7.376484913463e-01
7.483070563628e-01
7.589673973551e-01
7.696295075793e-01
7.802933803179e-01
7.909590088792e-01
8.016263865977e-01
8.122955068336e-01
8.229663629729e-01
8.336389484270e-01
8.443132566329e-01
8.549892810530e-01
8.656670151749e-01
8.763464525111e-01
8.870275865992e-01
8.977104110017e-01
9.083949193058e-01
9.190811051233e-01
9.297689620905e-01
9.404584838681e-01
9.511496641409e-01
9.618424966180e-01
9.725369750326e-01
9.832330931417e-01
9.939308447261e-01
1.004630223590e+00
1.015331223562e+00
1.026033838494e+00
1.036738062259e+00
1.047443888757e+00
1.058151311909e+00
1.068860325659e+00
1.079570923974e+00
1.090283100843e+00
1.100996850281e+00
1.111712166322e+00
1.122429043023e+00
1.133147474466e+00
1.143867454751e+00
1.154588978005e+00
1.165312038373e+00
1.176036630024e+00
1.186762747149e+00
1.197490383959e+00
1.208219534689e+00
1.218950193594e+00
1.229682354950e+00
1.240416013057e+00
1.251151162232e+00
1.261887796818e+00
1.272625911175e+00
1.283365499687e+00
1.294106556756e+00
1.304849076807e+00
1.315593054285e+00
1.326338483655e+00
1.337085359404e+00
1.347833676036e+00
1.358583428080e+00
1.369334610082e+00
1.380087216609e+00
1.390841242247e+00
1.401596681604e+00
1.412353529306e+00
1.423111780000e+00
1.433871428351e+00
1.444632469046e+00
1.455394896789e+00
1.466158706304e+00
1.476923892337e+00
1.487690449648e+00
1.498458373021e+00
1.509227657257e+00
1.519998297175e+00
1.530770287615e+00
1.541543623434e+00
1.552318299509e+00
1.563094310733e+00
1.573871652022e+00
1.584650318307e+00
1.595430304537e+00
1.606211605682e+00
1.616994216728e+00
1.627778132681e+00
1.638563348562e+00
1.649349859413e+00
1.660137660292e+00
1.670926746276e+00
1.681717112459e+00
1.692508753952e+00
1.703301665886e+00
1.714095843406e+00
1.724891281677e+00
1.735687975880e+00
1.746485921214e+00
1.757285112895e+00
1.768085546156e+00
1.778887216247e+00
1.789690118435e+00
1.800494248003e+00
1.811299600253e+00
1.822106170500e+00
1.832913954080e+00
1.843722946343e+00
1.854533142655e+00
1.865344538400e+00
1.876157128978e+00
1.886970909805e+00
1.897785876313e+00
1.908602023949e+00
1.919419348180e+00
1.930237844484e+00
1.941057508359e+00
1.951878335316e+00
1.962700320884e+00
1.973523460606e+00
1.984347750041e+00
1.995173184764e+00
2.005999760367e+00
2.016827472453e+00
2.027656316646e+00
2.038486288580e+00
2.049317383909e+00
2.060149598299e+00
2.070982927432e+00
2.081817367005e+00
2.092652912731e+00
2.103489560336e+00
2.114327305562e+00
2.125166144166e+00
2.136006071920e+00
2.146847084609e+00
2.157689178034e+00
2.168532348010e+00
2.179376590367e+00
2.190221900950e+00
2.201068275616e+00
2.211915710239e+00
2.222764200704e+00
2.233613742915e+00
2.244464332785e+00
2.255315966244e+00
2.266168639236e+00
2.277022347718e+00
2.287877087660e+00
2.298732855049e+00
2.309589645882e+00
2.320447456172e+00
2.331306281945e+00
2.342166119240e+00
2.353026964112e+00
2.363888812626e+00
2.374751660863e+00
2.385615504915e+00
2.396480340891e+00
2.407346164909e+00
2.418212973103e+00
2.429080761619e+00
2.439949526616e+00
2.450819264268e+00
2.461689970759e+00
2.472561642287e+00
2.483434275064e+00
2.494307865314e+00
2.505182409273e+00
2.516057903192e+00
2.526934343331e+00
2.537811725966e+00
2.548690047383e+00
2.559569303884e+00
2.570449491779e+00
2.581330607394e+00
2.592212647065e+00
2.603095607142e+00
2.613979483985e+00
2.624864273969e+00
2.635749973480e+00
2.646636578915e+00
2.657524086684e+00
2.668412493209e+00
2.679301794924e+00
2.690191988275e+00
2.701083069719e+00
2.711975035725e+00
2.722867882776e+00
2.733761607363e+00
2.744656205991e+00
2.755551675176e+00
2.766448011446e+00
2.777345211340e+00
2.788243271409e+00
2.799142188214e+00
2.810041958330e+00
2.820942578340e+00
2.831844044842e+00
2.842746354441e+00
2.853649503757e+00
2.864553489419e+00
2.875458308068e+00
2.886363956356e+00
2.897270430945e+00
2.908177728509e+00
2.919085845733e+00
2.929994779313e+00
2.940904525954e+00
2.951815082374e+00
2.962726445301e+00
2.973638611473e+00
2.984551577640e+00
2.995465340561e+00
3.006379897008e+00
3.017295243760e+00
3.028211377610e+00
3.039128295360e+00
3.050045993821e+00
3.060964469818e+00
3.071883720182e+00
3.082803741756e+00
3.093724531396e+00
3.104646085964e+00
3.115568402335e+00
3.126491477392e+00
3.137415308030e+00
3.148339891153e+00
3.159265223675e+00
3.170191302520e+00
3.181118124623e+00
3.192045686928e+00
3.202973986388e+00
3.213903019968e+00
3.224832784640e+00
3.235763277388e+00
3.246694495204e+00
3.257626435092e+00
3.268559094063e+00
3.279492469140e+00
3.290426557353e+00
3.301361355743e+00
3.312296861361e+00
3.323233071266e+00
3.334169982528e+00
3.345107592224e+00
3.356045897444e+00
3.366984895283e+00
3.377924582848e+00
3.388864957256e+00
3.399806015629e+00
3.410747755103e+00
3.421690172821e+00
3.432633265934e+00
3.443577031604e+00
3.454521467000e+00
3.465466569303e+00
3.476412335699e+00
3.487358763386e+00
3.498305849570e+00
3.509253591465e+00
3.520201986296e+00
3.531151031293e+00
3.542100723698e+00
3.553051060761e+00
3.564002039739e+00
3.574953657901e+00
3.585905912521e+00
3.596858800884e+00
3.607812320282e+00
3.618766468017e+00
3.629721241398e+00
3.640676637743e+00
3.651632654378e+00
3.662589288640e+00
3.673546537870e+00
3.684504399420e+00
3.695462870650e+00
3.706421948929e+00
3.717381631632e+00
3.728341916143e+00
3.739302799857e+00
3.750264280172e+00
3.761226354498e+00
3.772189020253e+00
3.783152274860e+00
3.794116115753e+00
3.805080540373e+00
3.816045546168e+00
3.827011130596e+00
3.837977291121e+00
3.848944025215e+00
3.859911330359e+00
3.870879204041e+00
3.881847643757e+00
3.892816647010e+00
3.903786211313e+00
3.914756334183e+00
3.925727013148e+00
3.936698245741e+00
3.947670029506e+00
3.958642361991e+00
3.969615240753e+00
3.980588663357e+00
3.991562627375e+00
4.002537130386e+00
4.013512169977e+00
4.024487743743e+00
4.035463849284e+00
4.046440484212e+00
4.057417646140e+00
4.068395332694e+00
4.079373541504e+00
4.090352270208e+00
4.101331516451e+00
4.112311277887e+00
4.123291552174e+00
4.134272336980e+00
4.145253629978e+00
4.156235428850e+00
4.167217731284e+00
4.178200534974e+00
4.189183837624e+00
4.200167636941e+00
4.211151930642e+00
4.222136716450e+00
4.233121992095e+00
4.244107755314e+00
4.255094003850e+00
4.266080735453e+00
4.277067947881e+00
4.288055638898e+00
4.299043806275e+00
4.310032447789e+00
4.321021561224e+00
4.332011144372e+00
4.343001195029e+00
4.353991711001e+00
4.364982690097e+00
4.375974130135e+00
4.386966028939e+00
4.397958384340e+00
4.408951194175e+00
4.419944456286e+00
4.430938168524e+00
4.441932328746e+00
4.452926934814e+00
4.463921984597e+00
4.474917475971e+00
4.485913406818e+00
4.496909775026e+00
4.507906578490e+00
4.518903815110e+00
4.529901482794e+00
4.540899579455e+00
4.551898103013e+00
4.562897051393e+00
4.573896422528e+00
4.584896214355e+00
4.595896424819e+00
4.606897051870e+00
4.617898093464e+00
4.628899547565e+00
4.639901412140e+00
4.650903685164e+00
4.661906364617e+00
4.672909448487e+00
4.683912934766e+00
4.694916821452e+00
4.705921106549e+00
4.716925788068e+00
4.727930864025e+00
4.738936332442e+00
4.749942191346e+00
4.760948438772e+00
4.771955072759e+00
4.782962091352e+00
4.793969492601e+00
4.804977274564e+00
4.815985435303e+00
4.826993972886e+00
4.838002885387e+00
4.849012170886e+00
4.860021827466e+00
4.871031853220e+00
4.882042246243e+00
4.893053004636e+00
4.904064126509e+00
4.915075609972e+00
4.926087453146e+00
4.937099654153e+00
4.948112211124e+00
4.959125122192e+00
4.970138385499e+00
4.981151999190e+00
4.992165961417e+00
5.003180270335e+00
5.014194924106e+00
5.025209920899e+00
5.036225258885e+00
5.047240936243e+00
5.058256951155e+00
5.069273301810e+00
5.080289986402e+00
5.091307003130e+00
5.102324350197e+00
5.113342025813e+00
5.124360028194e+00
5.135378355557e+00
5.146397006129e+00
5.157415978140e+00
5.168435269823e+00
5.179454879421e+00
5.190474805177e+00
5.201495045342e+00
5.212515598173e+00
5.223536461928e+00
5.234557634873e+00
5.245579115280e+00
5.256600901423e+00
5.267622991583e+00
5.278645384044e+00
5.289668077098e+00
5.300691069039e+00
5.311714358167e+00
5.322737942788e+00
5.333761821211e+00
5.344785991750e+00
5.355810452725e+00
5.366835202461e+00
5.377860239286e+00
5.388885561534e+00
5.399911167543e+00
5.410937055658e+00
5.421963224226e+00
5.432989671599e+00
5.444016396136e+00
5.455043396199e+00
5.466070670153e+00
5.477098216372e+00
5.488126033230e+00
5.499154119108e+00
5.510182472393e+00
5.521211091473e+00
5.532239974743e+00
5.543269120603e+00
5.554298527455e+00
5.565328193709e+00
5.576358117776e+00
5.587388298073e+00
5.598418733023e+00
5.609449421052e+00
5.620480360589e+00
5.631511550070e+00
5.642542987934e+00
5.653574672626e+00
5.664606602592e+00
5.675638776287e+00
5.686671192166e+00
5.697703848691e+00
5.708736744328e+00
5.719769877546e+00
5.730803246820e+00
5.741836850629e+00
5.752870687455e+00
5.763904755785e+00
5.774939054111e+00
5.785973580928e+00
5.797008334736e+00
5.808043314039e+00
5.819078517346e+00
5.830113943168e+00
5.841149590022e+00
5.852185456429e+00
5.863221540914e+00
5.874257842006e+00
5.885294358237e+00
5.896331088146e+00
5.907368030273e+00
5.918405183164e+00
5.929442545368e+00
5.940480115438e+00
5.951517891932e+00
5.962555873413e+00
5.973594058444e+00
5.984632445596e+00
5.995671033442e+00
6.006709820560e+00
6.017748805530e+00
6.028787986940e+00
6.039827363377e+00
6.050866933435e+00
6.061906695711e+00
6.072946648806e+00
6.083986791325e+00
6.095027121878e+00
6.106067639075e+00
6.117108341535e+00
6.128149227876e+00
6.139190296724e+00
6.150231546706e+00
6.161272976454e+00
6.172314584604e+00
6.183356369794e+00
6.194398330668e+00
6.205440465873e+00
6.216482774058e+00
6.227525253879e+00
6.238567903992e+00
6.249610723061e+00
6.260653709749e+00
6.271696862727e+00
6.282740180666e+00
6.293783662243e+00
6.304827306138e+00
6.315871111035e+00
6.326915075620e+00
6.337959198585e+00
6.349003478623e+00
6.360047914433e+00
6.371092504717e+00
6.382137248178e+00
6.393182143527e+00
6.404227189475e+00
6.415272384738e+00
6.426317728034e+00
6.437363218088e+00
6.448408853624e+00
6.459454633373e+00
6.470500556067e+00
6.481546620444e+00
6.492592825243e+00
6.503639169208e+00
6.514685651086e+00
6.525732269627e+00
6.536779023584e+00
6.547825911716e+00
6.558872932782e+00
6.569920085546e+00
6.580967368775e+00
6.592014781241e+00
6.603062321717e+00
6.614109988980e+00
6.625157781811e+00
6.636205698993e+00
6.647253739315e+00
6.658301901566e+00
6.669350184540e+00
6.680398587034e+00
6.691447107848e+00
6.702495745787e+00
6.713544499656e+00
6.724593368266e+00
6.735642350429e+00
6.746691444963e+00
6.757740650687e+00
6.768789966423e+00
6.779839390998e+00
6.790888923241e+00
6.801938561984e+00
6.812988306062e+00
6.824038154315e+00
6.835088105583e+00
6.846138158712e+00
6.857188312550e+00
6.868238565947e+00
6.879288917757e+00
6.890339366839e+00
6.901389912052e+00
6.912440552259e+00
6.923491286327e+00
6.934542113126e+00
6.945593031527e+00
6.956644040407e+00
6.967695138644e+00
6.978746325118e+00
6.989797598716e+00
7.000848958324e+00
7.011900402833e+00
7.022951931136e+00
7.034003542129e+00
7.045055234713e+00
7.056107007788e+00
7.067158860261e+00
7.078210791040e+00
7.089262799036e+00
7.100314883162e+00
7.111367042335e+00
7.122419275476e+00
7.133471581506e+00
7.144523959352e+00
7.155576407942e+00
7.166628926206e+00
7.177681513080e+00
7.188734167499e+00
7.199786888404e+00
7.210839674737e+00
7.221892525444e+00
7.232945439472e+00
7.243998415772e+00
7.255051453299e+00
7.266104551009e+00
7.277157707861e+00
7.288210922816e+00
7.299264194841e+00
7.310317522902e+00
7.321370905970e+00
7.332424343017e+00
7.343477833019e+00
7.354531374956e+00
7.365584967807e+00
7.376638610556e+00
7.387692302191e+00
7.398746041700e+00
7.409799828075e+00
7.420853660311e+00
7.431907537405e+00
7.442961458356e+00
7.454015422167e+00
7.465069427843e+00
7.476123474391e+00
7.487177560823e+00
7.498231686151e+00
7.509285849390e+00
7.520340049559e+00
7.531394285677e+00
7.542448556770e+00
7.553502861861e+00
7.564557199980e+00
7.575611570158e+00
7.586665971427e+00
7.597720402825e+00
7.608774863389e+00
7.619829352161e+00
7.630883868184e+00
7.641938410504e+00
7.652992978170e+00
7.664047570233e+00
7.675102185746e+00
7.686156823766e+00
7.697211483351e+00
7.708266163562e+00
7.719320863462e+00
7.730375582118e+00
7.741430318597e+00
7.752485071970e+00
7.763539841311e+00
7.774594625695e+00
7.785649424200e+00
7.796704235906e+00
7.807759059897e+00
7.818813895257e+00
7.829868741074e+00
7.840923596438e+00
7.851978460442e+00
7.863033332179e+00
7.874088210748e+00
7.885143095247e+00
7.896197984778e+00
7.907252878446e+00
7.918307775356e+00
7.929362674618e+00
7.940417575341e+00
7.951472476641e+00
7.962527377632e+00
7.973582277433e+00
7.984637175163e+00
7.995692069945e+00
8.006746960904e+00
8.017801847167e+00
8.028856727863e+00
8.039911602124e+00
8.050966469084e+00
8.062021327878e+00
8.073076177646e+00
8.084131017527e+00
8.095185846664e+00
8.106240664202e+00
8.117295469289e+00
8.128350261074e+00
8.139405038707e+00
8.150459801345e+00
8.161514548141e+00
8.172569278254e+00
8.183623990845e+00
8.194678685076e+00
8.205733360111e+00
8.216788015118e+00
8.227842649265e+00
8.238897261723e+00
8.249951851666e+00
8.261006418269e+00
8.272060960709e+00
8.283115478165e+00
8.294169969821e+00
8.305224434859e+00
8.316278872464e+00
8.327333281827e+00
8.338387662135e+00
8.349442012581e+00
8.360496332361e+00
8.371550620669e+00
8.382604876704e+00
8.393659099666e+00
8.404713288759e+00
8.415767443186e+00
8.426821562154e+00
8.437875644872e+00
8.448929690549e+00
8.459983698400e+00
8.471037667638e+00
8.482091597480e+00
8.493145487144e+00
8.504199335852e+00
8.515253142825e+00
8.526306907289e+00
8.537360628470e+00
8.548414305597e+00
8.559467937900e+00
8.570521524612e+00
8.581575064966e+00
8.592628558201e+00
8.603682003553e+00
8.614735400263e+00
8.625788747574e+00
8.636842044730e+00
8.647895290976e+00
8.658948485562e+00
8.670001627735e+00
8.681054716750e+00
8.692107751858e+00
8.703160732317e+00
8.714213657383e+00
8.725266526316e+00
8.736319338377e+00
8.747372092830e+00
8.758424788939e+00
8.769477425971e+00
8.780530003196e+00
8.791582519884e+00
8.802634975307e+00
8.813687368739e+00
8.824739699458e+00
8.835791966740e+00
8.846844169866e+00
8.857896308118e+00
8.868948380778e+00
8.880000387133e+00
8.891052326469e+00
8.902104198075e+00
8.913156001243e+00
8.924207735264e+00
8.935259399433e+00
8.946310993046e+00
8.957362515400e+00
8.968413965797e+00
8.979465343536e+00
8.990516647921e+00
9.001567878258e+00
9.012619033852e+00
9.023670114013e+00
9.034721118050e+00
9.045772045276e+00
9.056822895003e+00
9.067873666548e+00
9.078924359228e+00
9.089974972362e+00
9.101025505269e+00
9.112075957273e+00
9.123126327698e+00
9.134176615868e+00
9.145226821112e+00
9.156276942759e+00
9.167326980139e+00
9.178376932585e+00
9.189426799432e+00
9.200476580014e+00
9.211526273669e+00
9.222575879737e+00
9.233625397558e+00
9.244674826475e+00
9.255724165832e+00
9.266773414975e+00
9.277822573251e+00
9.288871640010e+00
9.299920614601e+00
9.310969496378e+00
9.322018284693e+00
9.333066978904e+00
9.344115578366e+00
9.355164082440e+00
9.366212490484e+00
9.377260801862e+00
9.388309015936e+00
9.399357132073e+00
9.410405149638e+00
9.421453068001e+00
9.432500886531e+00
9.443548604599e+00
9.454596221579e+00
9.465643736846e+00
9.476691149776e+00
9.487738459746e+00
9.498785666136e+00
9.509832768326e+00
9.520879765700e+00
9.531926657642e+00
9.542973443536e+00
9.554020122770e+00
9.565066694732e+00
9.576113158813e+00
9.587159514405e+00
9.598205760899e+00
9.609251897692e+00
9.620297924180e+00
9.631343839759e+00
9.642389643830e+00
9.653435335792e+00
9.664480915049e+00
9.675526381004e+00
9.686571733062e+00
9.697616970629e+00
9.708662093114e+00
9.719707099926e+00
9.730751990477e+00
9.741796764180e+00
9.752841420447e+00
9.763885958694e+00
9.774930378339e+00
9.785974678800e+00
9.797018859496e+00
9.808062919850e+00
9.819106859282e+00
9.830150677219e+00
9.841194373084e+00
9.852237946306e+00
9.863281396313e+00
9.874324722534e+00
9.885367924400e+00
9.896411001345e+00
9.907453952803e+00
9.918496778208e+00
9.929539476998e+00
9.940582048611e+00
9.951624492487e+00
9.962666808067e+00
9.973708994792e+00
9.984751052108e+00
9.995792979459e+00
1.000683477629e+01
1.001787644205e+01
1.002891797620e+01
1.003995937817e+01
1.005100064742e+01
1.006204178341e+01
1.007308278558e+01
1.008412365341e+01
1.009516438634e+01
1.010620498382e+01
1.011724544534e+01
1.012828577033e+01
1.013932595827e+01
1.015036600863e+01
1.016140592085e+01
1.017244569443e+01
1.018348532881e+01
1.019452482347e+01
1.020556417788e+01
1.021660339152e+01
1.022764246385e+01
1.023868139436e+01
1.024972018251e+01
1.026075882778e+01
1.027179732966e+01
1.028283568762e+01
1.029387390114e+01
1.030491196971e+01
1.031594989281e+01
1.032698766992e+01
1.033802530053e+01
1.034906278413e+01
1.036010012021e+01
1.037113730825e+01
1.038217434776e+01
1.039321123821e+01
1.040424797910e+01
1.041528456994e+01
1.042632101021e+01
1.043735729941e+01
1.044839343704e+01
1.045942942260e+01
1.047046525560e+01
1.048150093553e+01
1.049253646190e+01
1.050357183421e+01
1.051460705197e+01
1.052564211469e+01
1.053667702187e+01
1.054771177303e+01
1.055874636767e+01
1.056978080531e+01
1.058081508546e+01
1.059184920764e+01
1.060288317136e+01
1.061391697613e+01
1.062495062148e+01
1.063598410693e+01
1.064701743199e+01
1.065805059618e+01
1.066908359904e+01
1.068011644008e+01
1.069114911883e+01
1.070218163482e+01
1.071321398756e+01
1.072424617660e+01
1.073527820146e+01
1.074631006167e+01
1.075734175677e+01
1.076837328628e+01
1.077940464974e+01
1.079043584669e+01
1.080146687667e+01
1.081249773920e+01
1.082352843383e+01
1.083455896011e+01
1.084558931756e+01
1.085661950574e+01
1.086764952419e+01
1.087867937245e+01
1.088970905006e+01
1.090073855658e+01
1.091176789155e+01
1.092279705452e+01
1.093382604504e+01
1.094485486267e+01
1.095588350695e+01
1.096691197743e+01
1.097794027368e+01
1.098896839524e+01
1.099999634168e+01
1.101102411255e+01
1.102205170741e+01
1.103307912582e+01
1.104410636734e+01
1.105513343154e+01
1.106616031797e+01
1.107718702620e+01
1.108821355580e+01
1.109923990633e+01
1.111026607736e+01
1.112129206846e+01
1.113231787920e+01
1.114334350914e+01
1.115436895786e+01
1.116539422494e+01
1.117641930994e+01
1.118744421244e+01
1.119846893202e+01
1.120949346825e+01
1.122051782071e+01
1.123154198898e+01
1.124256597264e+01
1.125358977127e+01
1.126461338445e+01
1.127563681176e+01
1.128666005280e+01
1.129768310714e+01
1.130870597437e+01
1.131972865408e+01
1.133075114585e+01
1.134177344927e+01
1.135279556394e+01
1.136381748945e+01
1.137483922538e+01
1.138586077133e+01
1.139688212690e+01
1.140790329167e+01
1.141892426525e+01
1.142994504723e+01
1.144096563721e+01
1.145198603479e+01
1.146300623957e+01
1.147402625114e+01
1.148504606912e+01
1.149606569310e+01
1.150708512269e+01
1.151810435750e+01
1.152912339712e+01
1.154014224116e+01
1.155116088924e+01
1.156217934096e+01
1.157319759593e+01
1.158421565376e+01
1.159523351406e+01
1.160625117645e+01
1.161726864053e+01
1.162828590593e+01
1.163930297226e+01
1.165031983913e+01
1.166133650616e+01
1.167235297297e+01
1.168336923917e+01
1.169438530440e+01
1.170540116826e+01
1.171641683039e+01
1.172743229039e+01
1.173844754790e+01
1.174946260255e+01
1.176047745395e+01
1.177149210173e+01
1.178250654552e+01
1.179352078495e+01
1.180453481964e+01
1.181554864923e+01
1.182656227335e+01
1.183757569163e+01
1.184858890370e+01
1.185960190920e+01
1.187061470775e+01
1.188162729900e+01
1.189263968259e+01
1.190365185814e+01
1.191466382529e+01
1.192567558369e+01
1.193668713298e+01
1.194769847279e+01
1.195870960276e+01
1.196972052255e+01
1.198073123179e+01
1.199174173012e+01
1.200275201720e+01
1.201376209266e+01
1.202477195616e+01
1.203578160733e+01
1.204679104584e+01
1.205780027132e+01
1.206880928344e+01
1.207981808183e+01
1.209082666615e+01
1.210183503606e+01
1.211284319121e+01
1.212385113125e+01
1.213485885583e+01
1.214586636462e+01
1.215687365726e+01
1.216788073343e+01
1.217888759277e+01
1.218989423494e+01
1.220090065961e+01
1.221190686644e+01
1.222291285508e+01
1.223391862521e+01
1.224492417648e+01
1.225592950855e+01
1.226693462110e+01
1.227793951379e+01
1.228894418629e+01
1.229994863826e+01
1.231095286937e+01
1.232195687929e+01
1.233296066769e+01
1.234396423425e+01
1.235496757863e+01
1.236597070050e+01
1.237697359954e+01
1.238797627542e+01
1.239897872782e+01
1.240998095642e+01
1.242098296088e+01
1.243198474089e+01
1.244298629612e+01
1.245398762625e+01
1.246498873097e+01
1.247598960995e+01
1.248699026287e+01
1.249799068941e+01
1.250899088927e+01
1.251999086211e+01
1.253099060763e+01
1.254199012551e+01
1.255298941543e+01
1.256398847708e+01
1.257498731016e+01
1.258598591434e+01
1.259698428931e+01
1.260798243477e+01
1.261898035040e+01
1.262997803590e+01
1.264097549096e+01
1.265197271527e+01
1.266296970852e+01
1.267396647041e+01
1.268496300062e+01
1.269595929887e+01
1.270695536484e+01
1.271795119822e+01
1.272894679873e+01
1.273994216605e+01
1.275093729989e+01
1.276193219994e+01
1.277292686590e+01
1.278392129749e+01
1.279491549439e+01
1.280590945631e+01
1.281690318296e+01
1.282789667403e+01
1.283888992924e+01
1.284988294829e+01
1.286087573089e+01
1.287186827673e+01
1.288286058554e+01
1.289385265702e+01
1.290484449087e+01
1.291583608682e+01
1.292682744456e+01
1.293781856381e+01
1.294880944429e+01
1.295980008569e+01
1.297079048775e+01
1.298178065017e+01
1.299277057266e+01
1.300376025495e+01
1.301474969675e+01
1.302573889777e+01
1.303672785774e+01
1.304771657636e+01
1.305870505337e+01
1.306969328847e+01
1.308068128140e+01
1.309166903187e+01
1.310265653960e+01
1.311364380431e+01
1.312463082573e+01
1.313561760359e+01
1.314660413760e+01
1.315759042749e+01
1.316857647299e+01
1.317956227382e+01
1.319054782971e+01
1.320153314039e+01
1.321251820559e+01
1.322350302503e+01
1.323448759845e+01
1.324547192557e+01
1.325645600613e+01
1.326743983985e+01
1.327842342648e+01
1.328940676574e+01
1.330038985737e+01
1.331137270110e+01
1.332235529666e+01
1.333333764380e+01
1.334431974224e+01
1.335530159173e+01
1.336628319200e+01
1.337726454280e+01
1.338824564385e+01
1.339922649490e+01
1.341020709569e+01
1.342118744596e+01
1.343216754545e+01
1.344314739390e+01
1.345412699106e+01
1.346510633666e+01
1.347608543046e+01
1.348706427220e+01
1.349804286161e+01
1.350902119846e+01
1.351999928248e+01
1.353097711342e+01
1.354195469103e+01
1.355293201505e+01
1.356390908524e+01
1.357488590135e+01
1.358586246312e+01
1.359683877031e+01
1.360781482266e+01
1.361879061993e+01
1.362976616188e+01
1.364074144825e+01
1.365171647879e+01
1.366269125327e+01
1.367366577144e+01
1.368464003305e+01
1.369561403785e+01
1.370658778562e+01
1.371756127609e+01
1.690072297137e+02
1.690072297137e+02
1.690072297137e+02
1.690072297137e+02
1.690072297137e+02
1.690072297137e+02
1.690072297137e+02
1.690072297137e+02
1.690072297137e+02
1.690072297137e+02
1.690072297137e+02
1.690072297137e+02
1.690072297137e+02
1.690072297137e+02
1.690072297137e+02
1.690072297137e+02
1.690072297137e+02
1.690072297137e+02
1.690072297137e+02
1.690072297137e+02
1.690072297137e+02
1.690072297137e+02
1.690072297137e+02
1.690072297137e+02
1.690072297137e+02
1.690072297137e+02
1.690072297137e+02
1.690072297137e+02
1.690072297137e+02
1.690072297137e+02
1.690072297137e+02
1.690072297137e+02
1.690072297137e+02
1.690072297137e+02
1.690072297137e+02
1.690072297137e+02
1.690072297137e+02
1.690072297137e+02
1.690072297137e+02
1.690072297137e+02
1.690072297137e+02
1.690072297137e+02
1.690072297137e+02
1.690072297137e+02
1.690072297137e+02
1.690072297137e+02
1.690072297137e+02
1.690072297137e+02
1.690072297137e+02
1.690072297137e+02
1.690072297137e+02
1.690072297137e+02
1.690072297137e+02
1.690072297137e+02
1.690072297137e+02
1.690072297137e+02
1.690072297137e+02
1.690072297137e+02
1.690072297137e+02
1.690072297137e+02
1.690072297137e+02
1.690072297137e+02
1.690072297137e+02
1.690072297137e+02
1.690072297137e+02
1.690072297137e+02
1.690072297137e+02
1.690072297137e+02
1.690072297137e+02
1.690072297137e+02
1.690072297137e+02
1.690072297137e+02
1.690072297137e+02
1.690072297137e+02
1.690072297137e+02
1.690072297137e+02
1.690072297137e+02
1.690072297137e+02
1.690072297137e+02
1.690072297137e+02
1.690072297137e+02
1.690072297137e+02
1.690072297137e+02
1.690072297137e+02
1.690072297137e+02
1.690072297137e+02
1.690072297137e+02
1.690072297137e+02
1.690072297137e+02
1.690072297137e+02
1.690072297137e+02
1.690072297137e+02
1.690072297137e+02
1.690072297137e+02
1.690072297137e+02
1.690072297137e+02
1.690072297137e+02
1.690072297137e+02
1.690072297137e+02
1.690072297137e+02
1.690072297137e+02
1.690072297137e+02
1.690072297137e+02
1.690072297137e+02
1.690072297137e+02
1.690072297137e+02
1.690072297137e+02
1.690072297137e+02
1.690072297137e+02
1.690072297137e+02
1.690072297137e+02
1.690072297137e+02
1.690072297137e+02
1.690072297137e+02
1.690072297137e+02
1.690072297137e+02
1.690072297137e+02
1.690072297137e+02
1.690072297137e+02
1.690072297137e+02
1.690072297137e+02
1.690072297137e+02
1.690072297137e+02
1.690072297137e+02
1.690072297137e+02
1.690072297137e+02
1.690072297137e+02
1.690072297137e+02
1.690072297137e+02
1.690072297137e+02
1.690072297137e+02
1.690072297137e+02
1.690072297137e+02
1.690072297137e+02
1.690072297137e+02
1.690072297137e+02
1.690072297137e+02
1.690072297137e+02
1.690072297137e+02
1.690072297137e+02
1.690072297137e+02
1.690072297137e+02
1.690072297137e+02
1.690072297137e+02
1.690072297137e+02
1.690072297137e+02
1.690072297137e+02
1.690072297137e+02
1.690072297137e+02
1.690072297137e+02
1.690072297137e+02
1.690072297137e+02
1.690072297137e+02
1.690072297137e+02
1.690072297137e+02
1.690072297137e+02
1.690072297137e+02
1.683396962407e+02
1.674095626873e+02
1.664845684352e+02
1.655646850881e+02
1.646498844065e+02
1.637401383070e+02
1.628354188613e+02
1.619356982953e+02
1.610409489888e+02
1.601511434737e+02
1.592662544339e+02
1.583862547043e+02
1.575111172697e+02
1.566408152644e+02
1.557753219710e+02
1.549146108197e+02
1.540586553876e+02
1.532074293977e+02
1.523609067183e+02
1.515190613620e+02
1.506818674849e+02
1.498492993862e+02
1.490213315068e+02
1.481979384290e+02
1.473790948754e+02
1.465647757084e+02
1.457549559292e+02
1.449496106772e+02
1.441487152292e+02
1.433522449984e+02
1.425601755340e+02
1.417724825204e+02
1.409891417762e+02
1.402101292535e+02
1.394354210375e+02
1.386649933456e+02
1.378988225262e+02
1.371368850589e+02
1.363791575528e+02
1.356256167466e+02
1.348762395073e+02
1.341310028297e+02
1.333898838360e+02
1.326528597744e+02
1.319199080192e+02
1.311910060695e+02
1.304661315486e+02
1.297452622038e+02
1.290283759050e+02
1.283154506447e+02
1.276064645366e+02
1.269013958158e+02
1.262002228372e+02
1.255029240757e+02
1.248094781247e+02
1.241198636964e+02
1.234340596202e+02
1.227520448426e+02
1.220737984266e+02
1.213992995505e+02
1.207285275081e+02
1.200614617072e+02
1.193980816697e+02
1.187383670305e+02
1.180822975369e+02
1.174298530485e+02
1.167810135357e+02
1.161357590799e+02
1.154940698724e+02
1.148559262140e+02
1.142213085144e+02
1.135901972914e+02
1.129625731707e+02
1.123384168847e+02
1.117177092726e+02
1.111004312792e+02
1.104865639547e+02
1.098760884541e+02
1.092689860364e+02
1.086652380641e+02
1.080648260028e+02
1.074677314205e+02
1.068739359870e+02
1.062834214734e+02
1.056961697515e+02
1.051121627933e+02
1.045313826703e+02
1.039538115532e+02
1.033794317112e+02
1.028082255114e+02
1.022401754183e+02
1.016752639935e+02
1.011134738946e+02
1.005547878754e+02
9.999918878467e+01
9.944665956619e+01
9.889718325785e+01
9.835074299129e+01
9.780732199136e+01
9.726690357559e+01
9.672947115369e+01
9.619500822704e+01
9.566349838817e+01
9.513492532029e+01
9.460927279675e+01
9.408652468054e+01
9.356666492385e+01
9.304967756751e+01
9.253554674054e+01
9.202425665965e+01
9.151579162878e+01
9.101013603855e+01
9.050727436587e+01
9.000719117339e+01
8.950987110909e+01
8.901529890575e+01
8.852345938050e+01
8.803433743438e+01
8.754791805185e+01
8.706418630034e+01
8.658312732978e+01
8.610472637214e+01
8.562896874103e+01
8.515583983116e+01
8.468532511796e+01
8.421741015712e+01
8.375208058413e+01
8.328932211385e+01
8.282912054008e+01
8.237146173508e+01
8.191633164922e+01
8.146371631047e+01
8.101360182400e+01
8.056597437176e+01
8.012082021204e+01
7.967812567908e+01
7.923787718260e+01
7.880006120744e+01
7.836466431308e+01
7.793167313330e+01
7.750107437570e+01
7.707285482136e+01
7.664700132437e+01
7.622350081146e+01
7.580234028161e+01
7.538350680562e+01
7.496698752574e+01
7.455276965525e+01
7.414084047808e+01
7.373118734845e+01
7.332379769041e+01
7.291865899752e+01
7.251575883245e+01
7.211508482657e+01
7.171662467960e+01
7.132036615923e+01
7.092629710073e+01
7.053440540657e+01
7.014467904610e+01
6.975710605511e+01
6.937167453551e+01
6.898837265495e+01
6.860718864646e+01
6.822811080807e+01
6.785112750249e+01
6.747622715673e+01
6.710339826171e+01
6.673262937199e+01
6.636390910534e+01
6.599722614241e+01
6.563256922644e+01
6.526992716282e+01
6.490928881881e+01
6.455064312319e+01
6.419397906590e+01
6.383928569773e+01
6.348655212996e+01
6.313576753402e+01
6.278692114118e+01
6.244000224224e+01
6.209500018712e+01
6.175190438462e+01
6.141070430206e+01
6.107138946495e+01
6.073394945666e+01
6.039837391813e+01
6.006465254755e+01
5.973277510001e+01
5.940273138721e+01
5.907451127714e+01
5.874810469380e+01
5.842350161684e+01
5.810069208127e+01
5.777966617717e+01
5.746041404938e+01
5.714292589718e+01
5.682719197403e+01
5.651320258720e+01
5.620094809755e+01
5.589041891919e+01
5.558160551919e+01
5.527449841729e+01
5.496908818564e+01
5.466536544843e+01
5.436332088171e+01
5.406294521301e+01
5.376422922111e+01
5.346716373573e+01
5.317173963727e+01
5.287794785652e+01
5.258577937436e+01
5.229522522154e+01
5.200627647832e+01
5.171892427429e+01
5.143315978803e+01
5.114897424685e+01
5.086635892657e+01
5.058530515117e+01
5.030580429260e+01
5.002784777047e+01
4.975142705179e+01
4.947653365074e+01
4.920315912838e+01
4.893129509237e+01
4.866093319679e+01
4.839206514180e+01
4.812468267341e+01
4.785877758328e+01
4.759434170838e+01
4.733136693081e+01
4.706984517751e+01
4.680976842003e+01
4.655112867428e+01
4.629391800029e+01
4.603812850195e+01
4.578375232680e+01
4.553078166574e+01
4.527920875284e+01
4.502902586506e+01
4.478022532205e+01
4.453279948589e+01
4.428674076086e+01
4.404204159321e+01
4.379869447092e+01
4.355669192349e+01
4.331602652170e+01
4.307669087735e+01
4.283867764310e+01
4.260197951218e+01
4.236658921821e+01
4.213249953493e+01
4.189970327605e+01
4.166819329495e+01
4.143796248451e+01
4.120900377689e+01
4.098131014330e+01
4.075487459376e+01
4.052969017694e+01
4.030574997992e+01
4.008304712795e+01
3.986157478430e+01
3.964132614998e+01
3.942229446359e+01
3.920447300108e+01
3.898785507556e+01
3.877243403708e+01
3.855820327244e+01
3.834515620497e+01
3.813328629434e+01
3.792258703637e+01
3.771305196281e+01
3.750467464115e+01
3.729744867441e+01
3.709136770098e+01
3.688642539437e+01
3.668261546308e+01
3.647993165034e+01
3.627836773397e+01
3.607791752617e+01
3.587857487332e+01
3.568033365581e+01
3.548318778783e+01
3.528713121722e+01
3.509215792522e+01
3.489826192638e+01
3.470543726827e+01
3.451367803138e+01
3.432297832890e+01
3.413333230654e+01
3.394473414236e+01
3.375717804661e+01
3.357065826149e+01
3.338516906104e+01
3.320070475093e+01
3.301725966831e+01
3.283482818158e+01
3.265340469030e+01
3.247298362496e+01
3.229355944680e+01
3.211512664769e+01
3.193767974993e+01
3.176121330608e+01
3.158572189880e+01
3.141120014069e+01
3.123764267411e+01
3.106504417102e+01
3.089339933282e+01
3.072270289021e+01
3.055294960296e+01
3.038413425983e+01
3.021625167837e+01
3.004929670474e+01
2.988326421361e+01
2.971814910795e+01
2.955394631888e+01
2.939065080557e+01
2.922825755499e+01
2.906676158185e+01
2.890615792839e+01
2.874644166424e+01
2.858760788627e+01
2.842965171845e+01
2.827256831169e+01
2.811635284368e+01
2.796100051879e+01
2.780650656784e+01
2.765286624803e+01
2.750007484276e+01
2.734812766150e+01
2.719702003962e+01
2.704674733828e+01
2.689730494425e+01
2.674868826980e+01
2.660089275256e+01
2.645391385537e+01
2.630774706610e+01
2.616238789761e+01
2.601783188750e+01
2.587407459806e+01
2.573111161609e+01
2.558893855277e+01
2.544755104353e+01
2.530694474792e+01
2.516711534947e+01
2.502805855557e+01
2.488977009731e+01
2.475224572938e+01
2.461548122992e+01
2.447947240041e+01
2.434421506550e+01
2.420970507294e+01
2.407593829341e+01
2.394291062041e+01
2.381061797013e+01
2.367905628131e+01
2.354822151514e+01
2.341810965513e+01
2.328871670699e+01
2.316003869848e+01
2.303207167931e+01
2.290481172103e+01
2.277825491689e+01
2.265239738173e+01
2.252723525184e+01
2.240276468488e+01
2.227898185973e+01
2.215588297638e+01
2.203346425582e+01
2.191172193992e+01
2.179065229131e+01
2.167025159328e+01
2.155051614966e+01
2.143144228468e+01
2.131302634289e+01
2.119526468906e+01
2.107815370800e+01
2.096168980455e+01
2.084586940336e+01
2.073068894888e+01
2.061614490517e+01
2.050223375586e+01
2.038895200398e+01
2.027629617190e+01
2.016426280119e+01
2.005284845255e+01
1.994204970566e+01
1.983186315912e+01
1.972228543030e+01
1.961331315528e+01
1.950494298873e+01
1.939717160377e+01
1.928999569194e+01
1.918341196305e+01
1.907741714507e+01
1.897200798407e+01
1.886718124409e+01
1.876293370706e+01
1.865926217267e+01
1.855616345831e+01
1.845363439895e+01
1.835167184705e+01
1.825027267245e+01
1.814943376230e+01
1.804915202093e+01
1.794942436979e+01
1.785024774735e+01
1.775161910896e+01
1.765353542683e+01
1.755599368987e+01
1.745899090364e+01
1.736252409025e+01
1.726659028825e+01
1.717118655257e+01
1.707630995439e+01
1.698195758109e+01
1.688812653613e+01
1.679481393899e+01
1.670201692505e+01
1.660973264551e+01
1.651795826734e+01
1.642669097314e+01
1.633592796107e+01
1.624566644479e+01
1.615590365335e+01
1.606663683109e+01
1.597786323761e+01
1.588958014761e+01
1.580178485088e+01
1.571447465217e+01
1.562764687112e+01
1.554129884218e+01
1.545542791453e+01
1.537003145199e+01
1.528510683296e+01
1.520065145029e+01
1.511666271128e+01
1.503313803751e+01
1.495007486483e+01
1.486747064325e+01
1.478532283688e+01
1.470362892381e+01
1.462238639610e+01
1.454159275962e+01
1.446124553408e+01
1.438134225282e+01
1.430188046288e+01
1.422285772479e+01
1.414427161259e+01
1.406611971371e+01
1.398839962892e+01
1.391110897224e+01
1.383424537085e+01
1.375780646506e+01
1.368178990822e+01
1.360619336663e+01
1.353101451947e+01
1.345625105876e+01
1.338190068927e+01
1.330796112844e+01
1.323443010631e+01
1.316130536548e+01
1.308858466100e+01
1.301626576033e+01
1.294434644326e+01
1.287282450184e+01
1.280169774031e+01
1.273096397506e+01
1.266062103452e+01
1.259066675911e+01
1.252109900119e+01
1.245191562499e+01
1.238311450650e+01
1.231469353349e+01
1.224665060534e+01
1.217898363308e+01
1.211169053924e+01
1.204476925785e+01
1.197821773432e+01
1.191203392543e+01
1.184621579923e+01
1.178076133499e+01
1.171566852314e+01
1.165093536521e+01
1.158655987376e+01
1.152254007231e+01
1.145887399532e+01
1.139555968807e+01
1.133259520665e+01
1.126997861789e+01
1.120770799926e+01
1.114578143888e+01
1.108419703538e+01
1.102295289793e+01
1.096204714610e+01
1.090147790986e+01
1.084124332949e+01
1.078134155553e+01
1.072177074875e+01
1.066252908003e+01
1.060361473037e+01
1.054502589080e+01
1.048676076233e+01
1.042881755589e+01
1.037119449230e+01
1.031388980215e+01
1.025690172584e+01
1.020022851345e+01
1.014386842470e+01
1.008781972894e+01
1.003208070503e+01
9.976649641342e+00
9.921524835674e+00
9.866704595214e+00
9.812187236479e+00
9.757971085267e+00
9.704054476603e+00
9.650435754688e+00
9.597113272848e+00
9.544085393481e+00
9.491350488010e+00
9.438906936828e+00
9.386753129250e+00
9.334887463461e+00
9.283308346470e+00
9.232014194056e+00
9.181003430721e+00
9.130274489640e+00
9.079825812613e+00
9.029655850017e+00
8.979763060754e+00
8.930145912206e+00
8.880802880189e+00
8.831732448899e+00
8.782933110870e+00
8.734403366927e+00
8.686141726134e+00
8.638146705752e+00
8.590416831191e+00
8.542950635963e+00
8.495746661637e+00
8.448803457792e+00
8.402119581974e+00
8.355693599646e+00
8.309524084147e+00
8.263609616646e+00
8.217948786095e+00
8.172540189187e+00
8.127382430312e+00
8.082474121508e+00
8.037813882426e+00
7.993400340276e+00
7.949232129791e+00
7.905307893181e+00
7.861626280089e+00
7.818185947548e+00
7.774985559942e+00
7.732023788957e+00
7.689299313545e+00
7.646810819878e+00
7.604557001306e+00
7.562536558317e+00
7.520748198494e+00
7.479190636473e+00
7.437862593905e+00
7.396762799408e+00
7.355889988535e+00
7.315242903726e+00
7.274820294269e+00
7.234620916263e+00
7.194643532573e+00
7.154886912792e+00
7.115349833203e+00
7.076031076732e+00
7.036929432919e+00
6.998043697869e+00
6.959372674218e+00
6.920915171089e+00
6.882670004060e+00
6.844635995119e+00
6.806811972625e+00
6.769196771273e+00
6.731789232055e+00
6.694588202218e+00
6.657592535229e+00
6.620801090734e+00
6.584212734523e+00
6.547826338490e+00
6.511640780598e+00
6.475654944834e+00
6.439867721182e+00
6.404278005575e+00
6.368884699866e+00
6.333686711786e+00
6.298682954908e+00
6.263872348608e+00
6.229253818034e+00
6.194826294061e+00
6.160588713261e+00
6.126540017862e+00
6.092679155713e+00
6.059005080247e+00
6.025516750447e+00
5.992213130806e+00
5.959093191291e+00
5.926155907310e+00
5.893400259672e+00
5.860825234554e+00
5.828429823465e+00
5.796213023205e+00
5.764173835835e+00
5.732311268641e+00
5.700624334092e+00
5.669112049811e+00
5.637773438537e+00
5.606607528088e+00
5.575613351327e+00
5.544789946126e+00
5.514136355330e+00
5.483651626723e+00
5.453334812990e+00
5.423184971683e+00
5.393201165188e+00
5.363382460685e+00
5.333727930115e+00
5.304236650144e+00
5.274907702131e+00
5.245740172085e+00
5.216733150639e+00
5.187885733008e+00
5.159197018956e+00
5.130666112759e+00
5.102292123173e+00
5.074074163397e+00
5.046011351035e+00
5.018102808065e+00
4.990347660800e+00
4.962745039855e+00
4.935294080111e+00
4.907993920677e+00
4.880843704858e+00
4.853842580118e+00
4.826989698044e+00
4.800284214310e+00
4.773725288642e+00
4.747312084783e+00
4.721043770456e+00
4.694919517327e+00
4.668938500973e+00
4.643099900840e+00
4.617402900212e+00
4.591846686175e+00
4.566430449575e+00
4.541153384988e+00
4.516014690681e+00
4.491013568574e+00
4.466149224207e+00
4.441420866699e+00
4.416827708715e+00
4.392368966428e+00
4.368043859480e+00
4.343851610948e+00
4.319791447302e+00
4.295862598374e+00
4.272064297317e+00
4.248395780565e+00
4.224856287802e+00
4.201445061917e+00
4.178161348969e+00
4.155004398151e+00
4.131973461748e+00
4.109067795100e+00
4.086286656566e+00
4.063629307479e+00
4.041095012115e+00
4.018683037646e+00
3.996392654108e+00
3.974223134356e+00
3.952173754028e+00
3.930243791504e+00
3.908432527865e+00
3.886739246855e+00
3.865163234840e+00
3.843703780767e+00
3.822360176123e+00
3.801131714896e+00
3.780017693532e+00
3.759017410897e+00
3.738130168229e+00
3.717355269105e+00
3.696692019393e+00
3.676139727213e+00
3.655697702893e+00
3.635365258927e+00
3.615141709935e+00
3.595026372616e+00
3.575018565709e+00
3.555117609947e+00
3.535322828014e+00
3.515633544504e+00
3.496049085873e+00
3.476568780400e+00
3.457191958137e+00
3.437917950871e+00
3.418746092074e+00
3.399675716860e+00
3.380706161943e+00
3.361836765588e+00
3.343066867566e+00
3.324395809110e+00
3.305822932870e+00
3.287347582865e+00
3.268969104438e+00
3.250686844210e+00
3.232500150033e+00
3.214408370945e+00
3.196410857119e+00
3.178506959825e+00
3.160696031372e+00
3.142977425071e+00
3.125350495181e+00
3.107814596864e+00
3.090369086141e+00
3.073013319839e+00
3.055746655546e+00
3.038568451566e+00
3.021478066868e+00
3.004474861039e+00
2.987558194240e+00
2.970727427153e+00
2.953981920937e+00
2.937321037182e+00
2.920744137858e+00
2.904250585270e+00
2.887839742010e+00
2.871510970912e+00
2.855263635003e+00
2.839097097457e+00
2.823010721550e+00
2.807003870612e+00
2.791075907985e+00
2.775226196971e+00
2.759454100794e+00
2.743758982551e+00
2.728140205170e+00
2.712597131366e+00
2.697129123595e+00
2.681735544016e+00
2.666415754446e+00
2.651169116320e+00
2.635994990649e+00
2.620892737981e+00
2.605861718364e+00
2.590901291304e+00
2.576010815731e+00
2.561189649961e+00
2.546437151661e+00
2.531752677819e+00
2.517135584703e+00
2.502585227838e+00
2.488100961972e+00
2.473682141046e+00
2.459328118172e+00
2.445038245602e+00
2.430811874705e+00
2.416648355949e+00
2.402547038879e+00
2.388507272094e+00
2.374528403240e+00
2.360609778988e+00
2.346750745027e+00
2.332950646054e+00
2.319208825766e+00
2.305524626858e+00
2.291897391021e+00
2.278326458945e+00
2.264811170319e+00
2.251350863847e+00
2.237944877252e+00
2.224592547295e+00
2.211293209792e+00
2.198046199637e+00
2.184850850828e+00
2.171706496494e+00
2.158612468934e+00
2.145568099656e+00
2.132572719416e+00
2.119625658269e+00
2.106726245624e+00
2.093873810298e+00
2.081067680584e+00
2.068307184318e+00
2.055591648954e+00
2.042920401645e+00
2.030292769331e+00
2.017708078831e+00
2.005165656944e+00
1.992664830553e+00
1.980204926743e+00
1.967785272917e+00
1.955405196929e+00
1.943064027215e+00
1.930761092939e+00
1.918495724144e+00
1.906267251915e+00
1.894075008540e+00
1.881918327696e+00
1.869796544628e+00
1.857708996348e+00
1.845655021838e+00
1.833633962264e+00
1.821645161202e+00
1.809687964868e+00
1.797761722367e+00
1.785865785943e+00
1.773999511245e+00
1.762162257603e+00
1.750353388318e+00
1.738572270952e+00
1.726818277644e+00
1.715090785427e+00
1.703389176559e+00
1.691712838867e+00
1.680061166104e+00
1.668433558309e+00
1.656829422193e+00
1.645248171525e+00
1.633689227534e+00
1.622152019323e+00
1.610635984296e+00
1.599140568592e+00
1.587665227537e+00
1.576209426105e+00
1.564772639384e+00
1.553354353068e+00
1.541954063943e+00
1.530571280396e+00
1.519205522929e+00
1.507856324685e+00
1.496523231985e+00
1.485205804866e+00
1.473903617645e+00
1.462616259472e+00
1.451343334904e+00
1.440084464484e+00
1.428839285320e+00
1.417607451681e+00
1.406388635590e+00
1.395182527422e+00
1.383988836511e+00
1.372807291756e+00
1.361637642227e+00
1.350479657778e+00
1.339333129652e+00
1.328197871093e+00
1.317073717948e+00
1.305960529268e+00
1.294858187909e+00
1.283766601117e+00
1.272685701115e+00
1.261615445671e+00
1.250555818667e+00
1.239506830644e+00
1.228468519343e+00
1.217440950222e+00
1.206424216963e+00
1.195418441959e+00
1.184423776775e+00
1.173440402593e+00
1.162468530631e+00
1.151508402532e+00
1.140560290735e+00
1.129624498807e+00
1.118701361744e+00
1.107791246249e+00
1.096894550961e+00
1.086011706656e+00
1.075143176409e+00
1.064289455709e+00
1.053451072540e+00
1.042628587415e+00
1.031822593360e+00
1.021033715855e+00
1.010262612732e+00
9.995099740074e-01
9.887765216812e-01
9.780630094697e-01
9.673702224914e-01
9.566989768958e-01
9.460501194368e-01
9.354245269900e-01
9.248231060120e-01
9.142467919428e-01
9.036965485498e-01
8.931733672134e-01
8.826782661551e-01
8.722122896063e-01
8.617765069207e-01
8.513720116283e-01
8.409999204333e-01
8.306613721567e-01
8.203575266229e-01
8.100895634946e-01
7.998586810544e-01
7.896660949372e-01
7.795130368128e-01
7.694007530234e-01
7.593305031763e-01
7.493035586944e-01
7.393212013278e-01
7.293847216292e-01
7.194954173950e-01
7.096545920760e-01
6.998635531614e-01
6.901236105377e-01
6.804360748279e-01
6.708022557136e-01
6.612234602434e-01
6.517009911322e-01
6.422361450549e-01
6.328302109381e-01
6.234844682546e-01
6.142001853230e-01
6.049786176190e-01
5.958210060998e-01
5.867285755472e-01
5.777025329331e-01
5.687440658105e-01
5.598543407349e-01
5.510345017195e-01
5.422856687271e-01
5.336089362039e-01
5.250053716565e-01
5.164760142777e-01
5.080218736223e-01
4.996439283366e-01
4.913431249454e-01
4.831203766968e-01
4.749765624698e-01
4.669125257446e-01
4.589290736398e-01
4.510269760162e-01
4.432069646506e-01
4.354697324789e-01
4.278159329120e-01
4.202461792237e-01
4.127610440110e-01
4.053610587287e-01
3.980467132978e-01
3.908184557862e-01
3.836766921646e-01
3.766217861333e-01
3.696540590229e-01
3.627737897647e-01
3.559812149323e-01
3.492765288516e-01
3.426598837778e-01
3.361313901391e-01
3.296911168427e-01
3.233390916447e-01
3.170753015778e-01
3.108996934383e-01
3.048121743274e-01
2.988126122456e-01
2.929008367375e-01
2.870766395840e-01
2.813397755404e-01
2.756899631152e-01
2.701268853903e-01
2.646501908764e-01
2.592594944035e-01
2.539543780413e-01
2.487343920492e-01
2.435990558503e-01
2.385478590295e-01
2.335802623503e-01
2.286956987893e-01
2.238935745853e-01
2.191732703000e-01
2.145341418884e-01
2.099755217750e-01
2.054967199362e-01
2.010970249828e-01
1.967757052438e-01
1.925320098471e-01
1.883651697964e-01
1.842743990407e-01
1.802588955368e-01
1.763178423007e-01
1.724504084479e-01
1.686557502204e-01
1.649330119986e-01
1.612813272970e-01
1.576998197431e-01
1.541876040369e-01
1.507437868916e-01
1.473674679526e-01
1.440577406958e-01
1.408136933034e-01
1.376344095166e-01
1.345189694644e-01
1.314664504687e-01
1.284759278247e-01
1.255464755559e-01
1.226771671447e-01
1.198670762366e-01
1.171152773198e-01
1.144208463779e-01
1.117828615183e-01
1.092004035740e-01
1.066725566800e-01
1.041984088247e-01
1.017770523760e-01
9.940758458204e-02
9.708910804808e-02
9.482073118839e-02
9.260156865463e-02
9.043074174052e-02
8.830737876353e-02
8.623061542379e-02
8.419959514102e-02
8.221346936962e-02
8.027139789279e-02
7.837254909590e-02
7.651610021997e-02
7.470123759551e-02
7.292715685756e-02
7.119306314236e-02
6.949817126618e-02
6.784170588716e-02
6.622290165037e-02
6.464100331706e-02
6.309526587833e-02
6.158495465418e-02
6.010934537808e-02
5.866772426814e-02
5.725938808493e-02
5.588364417695e-02
5.453981051404e-02
5.322721570933e-02
5.194519903035e-02
5.069311039972e-02
4.947031038598e-02
4.827617018503e-02
4.711007159277e-02
4.597140696924e-02
4.485957919495e-02
4.377400161960e-02
4.271409800386e-02
4.167930245449e-02
4.066905935329e-02
3.968282328020e-02
3.872005893109e-02
3.778024103034e-02
3.686285423895e-02
3.596739305815e-02
3.509336172910e-02
3.424027412890e-02
3.340765366322e-02
3.259503315588e-02
3.180195473562e-02
3.102796972039e-02
3.027263849937e-02
2.953553041299e-02
2.881622363116e-02
2.811430503001e-02
2.742937006729e-02
2.676102265659e-02
2.610887504074e-02
2.547254766440e-02
2.485166904610e-02
2.424587564989e-02
2.365481175676e-02
2.307812933595e-02
2.251548791632e-02
2.196655445790e-02
2.143100322371e-02
2.090851565207e-02
2.039878022937e-02
1.990149236353e-02
1.941635425813e-02
1.894307478737e-02
1.848136937200e-02
1.803095985608e-02
1.759157438495e-02
1.716294728416e-02
1.674481893970e-02
1.633693567937e-02
1.593904965543e-02
1.555091872865e-02
1.517230635363e-02
1.480298146558e-02
1.444271836854e-02
1.409129662500e-02
1.374850094709e-02
1.341412108928e-02
1.308795174252e-02
1.276979243006e-02
1.245944740480e-02
1.215672554811e-02
1.186144027043e-02
1.157340941329e-02
1.129245515304e-02
1.101840390613e-02
1.075108623599e-02
1.049033676155e-02
1.023599406733e-02
9.987900615088e-03
9.745902657142e-03
9.509850151182e-03
9.279596676703e-03
9.054999352984e-03
8.835918758608e-03
8.622218852531e-03
8.413766896664e-03
8.210433379965e-03
8.012091944033e-03
7.818619310164e-03
7.629895207887e-03
7.445802304931e-03
7.266226138625e-03
7.091055048707e-03
6.920180111526e-03
6.753495075611e-03
6.590896298600e-03
6.432282685495e-03
6.277555628240e-03
6.126618946587e-03
5.979378830239e-03
5.835743782247e-03
5.695624563640e-03
5.558934139274e-03
5.425587624864e-03
5.295502235202e-03
5.168597233517e-03
5.044793881975e-03
4.924015393283e-03
4.806186883399e-03
4.691235325294e-03
4.579089503787e-03
4.469679971396e-03
4.362939005210e-03
4.258800564753e-03
4.157200250816e-03
4.058075265254e-03
3.961364371703e-03
3.867007857233e-03
3.774947494880e-03
3.685126507070e-03
3.597489529901e-03
3.511982578267e-03
3.428553011810e-03
3.347149501678e-03
3.267721998081e-03
3.190221698610e-03
3.114601017324e-03
3.040813554576e-03
2.968814067559e-03
2.898558441567e-03
2.830003661950e-03
2.763107786741e-03
2.697829919953e-03
2.634130185520e-03
2.571969701874e-03
2.511310557141e-03
2.452115784941e-03
2.394349340784e-03
2.337976079033e-03
2.282961730450e-03
2.229272880272e-03
2.176876946846e-03
2.125742160776e-03
2.075837544590e-03
2.027132892911e-03
1.979598753112e-03
1.933206406457e-03
1.887927849705e-03
1.843735777166e-03
1.800603563217e-03
1.758505245236e-03
1.717415506969e-03
1.677309662314e-03
1.638163639501e-03
1.599953965673e-03
1.562657751851e-03
1.526252678272e-03
1.490716980099e-03
1.456029433480e-03
1.422169341966e-03
1.389116523263e-03
1.356851296317e-03
1.325354468727e-03
1.294607324470e-03
1.264591611932e-03
1.235289532251e-03
1.206683727936e-03
1.178757271792e-03
1.151493656105e-03
1.124876782115e-03
1.098890949741e-03
1.073520847577e-03
1.048751543130e-03
1.024568473312e-03
1.000957435165e-03
9.779045768260e-04
9.553963887187e-04
9.334196949632e-04
9.119616450082e-04
8.910097054720e-04
8.705516521892e-04
8.505755624603e-04
8.310698074949e-04
8.120230450478e-04
7.934242122400e-04
7.752625185622e-04
7.575274390539e-04
7.402087076566e-04
7.232963107338e-04
7.067804807552e-04
6.906516901413e-04
6.749006452627e-04
6.595182805916e-04
6.444957530015e-04
6.298244362105e-04
6.154959153655e-04
6.015019817633e-04
5.878346277050e-04
5.744860414809e-04
5.614486024815e-04
5.487148764331e-04
5.362776107525e-04
5.241297300207e-04
5.122643315695e-04
5.006746811807e-04
4.893542088929e-04
4.782965049157e-04
4.674953156455e-04
4.569445397827e-04
4.466382245474e-04
4.365705619892e-04
4.267358853917e-04
4.171286657667e-04
4.077435084369e-04
3.985751497055e-04
3.896184536089e-04
3.808684087517e-04
3.723201252214e-04
3.639688315807e-04
3.558098719359e-04
3.478387030785e-04
3.400508916994e-04
3.324421116728e-04
3.250081414085e-04
3.177448612709e-04
3.106482510628e-04
3.037143875723e-04
2.969394421818e-04
2.903196785363e-04
2.838514502711e-04
2.775311987959e-04
2.713554511345e-04
2.653208178193e-04
2.594239908380e-04
2.536617416317e-04
2.480309191436e-04
2.425284479166e-04
2.371513262378e-04
2.318966243300e-04
2.267614825887e-04
2.217431098626e-04
2.168387817771e-04
2.120458391003e-04
2.073616861490e-04
2.027837892354e-04
1.983096751514e-04
1.939369296920e-04
1.896631962144e-04
1.854861742339e-04
1.814036180537e-04
1.774133354304e-04
1.735131862709e-04
1.697010813632e-04
1.659749811380e-04
1.623328944611e-04
1.587728774560e-04
1.552930323560e-04
1.518915063840e-04
1.485664906609e-04
1.453162191406e-04
1.421389675716e-04
1.390330524842e-04
1.359968302029e-04
1.330286958831e-04
1.301270825718e-04
1.272904602913e-04
1.245173351461e-04
1.218062484507e-04
1.191557758804e-04
1.165645266420e-04
1.140311426653e-04
1.115542978147e-04
1.091326971196e-04
1.067650760249e-04
1.044501996587e-04
1.021868621186e-04
9.997388577609e-05
9.781012059665e-05
9.569444347797e-05
9.362575760361e-05
9.160299181273e-05
8.962509998531e-05
8.769106044241e-05
8.579987536113e-05
8.395057020389e-05
8.214219316166e-05
8.037381461089e-05
7.864452658362e-05
7.695344225060e-05
7.529969541700e-05
7.368244003047e-05
7.210084970118e-05
7.055411723353e-05
6.904145416936e-05
6.756209034218e-05
6.611527344236e-05
6.470026859280e-05
6.331635793501e-05
6.196284022517e-05
6.063903044008e-05
5.934425939259e-05
5.807787335648e-05
5.683923370029e-05
5.562771653018e-05
5.444271234129e-05
5.328362567771e-05
5.214987480050e-05
5.104089136390e-05
4.995612009925e-05
4.889501850660e-05
4.785705655377e-05
4.684171638267e-05
4.584849202265e-05
4.487688911087e-05
4.392642461928e-05
4.299662658828e-05
4.208703386671e-05
4.119719585818e-05
4.032667227338e-05
3.947503288849e-05
3.864185730924e-05
3.782673474073e-05
3.702926376276e-05
3.624905211048e-05
3.548571646043e-05
3.473888222151e-05
3.400818333116e-05
3.329326205623e-05
3.259376879879e-05
3.190936190637e-05
3.123970748696e-05
3.058447922823e-05
2.994335822116e-05
2.931603278790e-05
2.870219831362e-05
2.810155708249e-05
2.751381811746e-05
2.693869702392e-05
2.637591583705e-05
2.582520287278e-05
2.528629258232e-05
2.475892541013e-05
2.424284765524e-05
2.373781133587e-05
2.324357405731e-05
2.275989888281e-05
2.228655420761e-05
2.182331363597e-05
2.136995586103e-05
2.092626454755e-05
2.049202821742e-05
2.006704013787e-05
1.965109821231e-05
1.924400487372e-05
1.884556698061e-05
1.845559571538e-05
1.807390648505e-05
1.770031882444e-05
1.733465630146e-05
1.697674642476e-05
1.662642055348e-05
1.628351380914e-05
1.594786498956e-05
1.561931648489e-05
1.529771419547e-05
1.498290745176e-05
1.467474893600e-05
1.437309460580e-05
1.407780361951e-05
1.378873826328e-05
1.350576387984e-05
1.322874879899e-05
1.295756426963e-05
1.269208439348e-05
1.243218606020e-05
1.217774888415e-05
1.192865514258e-05
1.168478971521e-05
1.144604002528e-05
1.121229598192e-05
1.098344992391e-05
1.075939656466e-05
1.054003293858e-05
1.032525834859e-05
1.011497431490e-05
9.909084524928e-06
9.707494784475e-06
9.510112969905e-06
9.316848981511e-06
9.127614697931e-06
8.942323931618e-06
8.760892385340e-06
8.583237609679e-06
8.409278961510e-06
8.238937563437e-06
8.072136264166e-06
7.908799599779e-06
7.748853755909e-06
7.592226530776e-06
7.438847299079e-06
7.288646976708e-06
7.141557986273e-06
6.997514223417e-06
6.856451023906e-06
6.718305131468e-06
6.583014666370e-06
6.450519094712e-06
6.320759198429e-06
6.193677045963e-06
6.069215963628e-06
5.947320507601e-06
5.827936436579e-06
5.711010685035e-06
5.596491337100e-06
5.484327601032e-06
5.374469784269e-06
5.266869269043e-06
5.161478488560e-06
5.058250903708e-06
4.957140980302e-06
4.858104166845e-06
4.761096872786e-06
4.666076447283e-06
4.573001158433e-06
4.481830172986e-06
4.392523536506e-06
4.305042153987e-06
4.219347770909e-06
4.135402954714e-06
4.053171076710e-06
3.972616294373e-06
3.893703534058e-06
3.816398474092e-06
3.740667528252e-06
3.666477829613e-06
3.593797214761e-06
3.522594208361e-06
3.452838008068e-06
3.384498469781e-06
3.317546093231e-06
3.251952007882e-06
3.187687959158e-06
3.124726294976e-06
3.063039952576e-06
3.002602445654e-06
2.943387851776e-06
2.885370800076e-06
2.828526459232e-06
2.772830525704e-06
2.718259212237e-06
2.664789236629e-06
2.612397810734e-06
2.561062629723e-06
2.510761861579e-06
2.461474136825e-06
2.413178538482e-06
2.365854592254e-06
2.319482256923e-06
2.274041914964e-06
2.229514363367e-06
2.185880804661e-06
2.143122838137e-06
2.101222451271e-06
2.060162011326e-06
2.019924257154e-06
1.980492291165e-06
1.941849571487e-06
1.903979904290e-06
1.866867436281e-06
1.830496647369e-06
1.794852343492e-06
1.759919649591e-06
1.725684002757e-06
1.692131145512e-06
1.659247119251e-06
1.627018257820e-06
1.595431181236e-06
1.564472789553e-06
1.534130256852e-06
1.504391025368e-06
1.475242799751e-06
1.446673541442e-06
1.418671463181e-06
1.391225023631e-06
1.364322922123e-06
1.337954093515e-06
1.312107703160e-06
1.286773141988e-06
1.261940021695e-06
1.237598170038e-06
1.213737626226e-06
1.190348636424e-06
1.167421649341e-06
1.144947311927e-06
1.122916465153e-06
1.101320139891e-06
1.080149552878e-06
1.059396102774e-06
1.039051366296e-06
1.019107094447e-06
9.995552088200e-07
9.803877979844e-07
9.615971139497e-07
9.431755687072e-07
9.251157308463e-07
9.074103222435e-07
8.900522148238e-07
8.730344273916e-07
8.563501225307e-07
8.399926035705e-07
8.239553116192e-07
8.082318226590e-07
7.928158447060e-07
7.777012150302e-07
7.628818974354e-07
7.483519795988e-07
7.341056704662e-07
7.201372977049e-07
7.064413052106e-07
6.930122506677e-07
6.798448031627e-07
6.669337408483e-07
6.542739486579e-07
6.418604160693e-07
6.296882349160e-07
6.177525972455e-07
6.060487932239e-07
5.945722090848e-07
5.833183251223e-07
5.722827137272e-07
5.614610374649e-07
5.508490471944e-07
5.404425802276e-07
5.302375585275e-07
5.202299869457e-07
5.104159514966e-07
5.007916176688e-07
4.913532287722e-07
4.820971043210e-07
4.730196384502e-07
4.641172983662e-07
4.553866228307e-07
4.468242206758e-07
4.384267693521e-07
4.301910135060e-07
4.221137635888e-07
4.141918944936e-07
4.064223442227e-07
3.988021125822e-07
3.913282599045e-07
3.839979057981e-07
3.768082279233e-07
3.697564607944e-07
3.628398946066e-07
3.560558740885e-07
3.494017973777e-07
3.428751149210e-07
3.364733283978e-07
3.301939896654e-07
3.240346997274e-07
3.179931077233e-07
3.120669099395e-07
3.062538488411e-07
3.005517121243e-07
2.949583317883e-07
2.894715832266e-07
2.840893843382e-07
2.788096946565e-07
2.736305144971e-07
2.685498841229e-07
2.635658829275e-07
2.586766286347e-07
2.538802765155e-07
2.491750186214e-07
2.445590830334e-07
2.400307331266e-07
2.355882668511e-07
2.312300160265e-07
2.269543456525e-07
2.227596532326e-07
2.186443681132e-07
2.146069508353e-07
2.106458925004e-07
2.067597141493e-07
2.029469661540e-07
1.992062276224e-07
1.955361058145e-07
1.919352355720e-07
1.884022787589e-07
1.849359237137e-07
1.815348847135e-07
1.781979014488e-07
1.749237385090e-07
1.717111848793e-07
1.685590534469e-07
1.654661805189e-07
1.624314253486e-07
1.594536696726e-07
1.565318172572e-07
1.536647934541e-07
1.508515447653e-07
1.480910384171e-07
1.453822619426e-07
1.427242227731e-07
1.401159478379e-07
1.375564831719e-07
1.350448935320e-07
1.325802620208e-07
1.301616897182e-07
1.277882953207e-07
1.254592147882e-07
1.231736009974e-07
1.209306234032e-07
1.187294677063e-07
1.165693355284e-07
1.144494440931e-07
1.123690259140e-07
1.103273284893e-07
1.083236140019e-07
1.063571590263e-07
1.044272542414e-07
1.025332041489e-07
1.006743267975e-07
9.884995351336e-08
9.705942863473e-08
9.530210925343e-08
9.357736496068e-08
9.188457759846e-08
9.022314101584e-08
8.859246083031e-08
8.699195419390e-08
8.542104956416e-08
8.387918647969e-08
8.236581534027e-08
8.088039719151e-08
7.942240351373e-08
7.799131601531e-08
7.658662643004e-08
7.520783631871e-08
7.385445687467e-08
7.252600873333e-08
7.122202178551e-08
6.994203499456e-08
6.868559621721e-08
6.745226202799e-08
6.624159754726e-08
6.505317627263e-08
6.388657991387e-08
6.274139823106e-08
6.161722887610e-08
6.051367723731e-08
5.943035628726e-08
5.836688643357e-08
5.732289537280e-08
5.629801794718e-08
5.529189600435e-08
5.430417825976e-08
5.333452016199e-08
5.238258376064e-08
5.144803757700e-08
5.053055647716e-08
4.962982154780e-08
4.874551997443e-08
4.787734492202e-08
4.702499541805e-08
4.618817623795e-08
4.536659779274e-08
4.455997601898e-08
4.376803227090e-08
4.299049321468e-08
4.222709072485e-08
4.147756178274e-08
4.074164837700e-08
4.001909740603e-08
3.930966058239e-08
3.861309433917e-08
3.792915973813e-08
3.725762237970e-08
3.659825231481e-08
3.595082395844e-08
3.531511600485e-08
3.469091134458e-08
3.407799698303e-08
3.347616396066e-08
3.288520727483e-08
3.230492580311e-08
3.173512222815e-08
3.117560296407e-08
3.062617808424e-08
3.008666125051e-08
2.955686964391e-08
2.903662389659e-08
2.852574802523e-08
2.802406936569e-08
2.753141850897e-08
2.704762923844e-08
2.657253846830e-08
2.610598618326e-08
2.564781537941e-08
2.519787200625e-08
2.475600490983e-08
2.432206577710e-08
2.389590908124e-08
2.347739202815e-08
2.306637450395e-08
2.266271902354e-08
2.226629068012e-08
2.187695709577e-08
2.149458837293e-08
2.111905704689e-08
2.075023803918e-08
2.038800861187e-08
2.003224832279e-08
1.968283898157e-08
1.933966460664e-08
1.900261138297e-08
1.867156762068e-08
1.834642371447e-08
1.802707210383e-08
1.771340723400e-08
1.740532551774e-08
1.710272529782e-08
1.680550681023e-08
1.651357214814e-08
1.622682522652e-08
1.594517174748e-08
1.566851916629e-08
1.539677665802e-08
1.512985508488e-08
1.486766696415e-08
1.461012643676e-08
1.435714923650e-08
1.410865265973e-08
1.386455553582e-08
1.362477819807e-08
1.338924245518e-08
1.315787156336e-08
1.293059019889e-08
1.270732443126e-08
1.248800169684e-08
1.227255077299e-08
1.206090175276e-08
1.185298602001e-08
1.164873622508e-08
1.144808626082e-08
1.125097123920e-08
1.105732746832e-08
1.086709242984e-08
1.068020475687e-08
1.049660421231e-08
1.031623166757e-08
1.013902908169e-08
9.964939480917e-09
9.793906938623e-09
9.625876555627e-09
9.460794440899e-09
9.298607692630e-09
9.139264379663e-09
8.982713523289e-09
8.828905079378e-09
8.677789920871e-09
8.529319820588e-09
8.383447434382e-09
8.240126284603e-09
8.099310743888e-09
7.960956019254e-09
7.825018136497e-09
7.691453924897e-09
7.560221002199e-09
7.431277759896e-09
7.304583348787e-09
7.180097664808e-09
7.057781335138e-09
6.937595704569e-09
6.819502822130e-09
6.703465427974e-09
6.589446940510e-09
6.477411443783e-09
6.367323675086e-09
6.259149012821e-09
6.152853464576e-09
6.048403655442e-09
5.945766816540e-09
5.844910773778e-09
5.745803936806e-09
5.648415288199e-09
5.552714372825e-09
5.458671287434e-09
5.366256670429e-09
5.275441691839e-09
5.186198043478e-09
5.098497929292e-09
5.012314055891e-09
4.927619623251e-09
4.844388315603e-09
4.762594292487e-09
4.682212179976e-09
4.603217062066e-09
4.525584472230e-09
4.449290385131e-09
4.374311208486e-09
4.300623775091e-09
4.228205334991e-09
4.157033547799e-09
4.087086475159e-09
4.018342573354e-09
3.950780686044e-09
3.884380037154e-09
3.819120223883e-09
3.754981209850e-09
3.691943318371e-09
3.629987225855e-09
3.569093955332e-09
3.509244870094e-09
3.450421667464e-09
73 180.95 4.0448 fcc
0.000000000000e+00
-1.280943877233e-01
-2.539982908579e-01
-3.777300444448e-01
-4.993089835250e-01
-6.187544431394e-01
-7.360857583289e-01
-8.513222641346e-01
-9.644832955974e-01
-1.075588187758e+00
-1.184656275658e+00
-1.291706894338e+00
-1.396759378838e+00
-1.499833064201e+00
-1.600947285466e+00
-1.700121377675e+00
-1.797374675869e+00
-1.892726515088e+00
-1.986196230374e+00
-2.077803156768e+00
-2.167566629310e+00
-2.255505983042e+00
-2.341640553004e+00
-2.425989674237e+00
-2.508572681783e+00
-2.589408910682e+00
-2.668517695976e+00
-2.745918372704e+00
-2.821630275909e+00
-2.895672740631e+00
-2.968065101911e+00
-3.038826694790e+00
-3.107976854309e+00
-3.175534915509e+00
-3.241520213431e+00
-3.305952083115e+00
-3.368849859604e+00
-3.430232877937e+00
-3.490120473156e+00
-3.548531980301e+00
-3.605486734414e+00
-3.661004070536e+00
-3.715103323707e+00
-3.767803828969e+00
-3.819124921362e+00
-3.869085935928e+00
-3.917706207707e+00
-3.965005071740e+00
-4.011001863068e+00
-4.055715916733e+00
-4.099166567775e+00
-4.141373151235e+00
-4.182355002154e+00
-4.222131455573e+00
-4.260721846533e+00
-4.298145510074e+00
-4.334421781239e+00
-4.369569995068e+00
-4.403609486601e+00
-4.436559590880e+00
-4.468439642946e+00
-4.499268977840e+00
-4.529066930602e+00
-4.557852836273e+00
-4.585646029896e+00
-4.612465846509e+00
-4.638331621155e+00
-4.663262688875e+00
-4.687278384709e+00
-4.710398043698e+00
-4.732641000883e+00
-4.754026591306e+00
-4.774574150006e+00
-4.794303012026e+00
-4.813232512406e+00
-4.831381986187e+00
-4.848770768410e+00
-4.865418194115e+00
-4.881343598345e+00
-4.896566316139e+00
-4.911105682540e+00
-4.924981032587e+00
-4.938211701321e+00
-4.950817023785e+00
-4.962816335017e+00
-4.974228970061e+00
-4.985074263956e+00
-4.995371551743e+00
-5.005140168464e+00
-5.014399449159e+00
-5.023168728870e+00
-5.031467342637e+00
-5.039314625501e+00
-5.046729912503e+00
-5.053732538685e+00
-5.060341839086e+00
-5.066577148749e+00
-5.072457802713e+00
-5.078003136021e+00
-5.083232483712e+00
-5.088165180828e+00
-5.092820562410e+00
-5.097217963499e+00
-5.101376719136e+00
-5.105315915449e+00
-5.109046780479e+00
-5.112569317449e+00
-5.115882793193e+00
-5.118986474547e+00
-5.121879628345e+00
-5.124561521422e+00
-5.127031420612e+00
-5.129288592750e+00
-5.131332304671e+00
-5.133161823210e+00
-5.134776415200e+00
-5.136175347478e+00
-5.137357886877e+00
-5.138323300232e+00
-5.139070854377e+00
-5.139599816148e+00
-5.139909452380e+00
-5.139999029906e+00
-5.139867815562e+00
-5.139515076181e+00
-5.138940078600e+00
-5.138142089652e+00
-5.137120376173e+00
-5.135874204996e+00
-5.134402842956e+00
-5.132705556889e+00
-5.130781613629e+00
-5.128630280010e+00
-5.126250822868e+00
-5.123642509036e+00
-5.120804605350e+00
-5.117736378645e+00
-5.114437095754e+00
-5.110906023512e+00
-5.107142428755e+00
-5.103145578317e+00
-5.098923821175e+00
-5.094495357735e+00
-5.089862584834e+00
-5.085027366391e+00
-5.079991536739e+00
-5.074756901302e+00
-5.069325237236e+00
-5.063698294061e+00
-5.057877794276e+00
-5.051865433950e+00
-5.045662883300e+00
-5.039271787254e+00
-5.032693765994e+00
-5.025930415487e+00
-5.018983308001e+00
-5.011853992604e+00
-5.004543995655e+00
-4.997054821276e+00
-4.989387951811e+00
-4.981544848281e+00
-4.973526950816e+00
-4.965335679081e+00
-4.956972432694e+00
-4.948438591623e+00
-4.939735516583e+00
-4.930864549421e+00
-4.921827013482e+00
-4.912624213977e+00
-4.903257438337e+00
-4.893727956554e+00
-4.884037021524e+00
-4.874185869370e+00
-4.864175719761e+00
-4.854007776228e+00
-4.843683226467e+00
-4.833203242634e+00
-4.822568981634e+00
-4.811781585409e+00
-4.800842181208e+00
-4.789751881859e+00
-4.778511786030e+00
-4.767122978488e+00
-4.755586530350e+00
-4.743903499323e+00
-4.732074929949e+00
-4.720101853836e+00
-4.707985289885e+00
-4.695726244513e+00
-4.683325711875e+00
-4.670784674072e+00
-4.658104101361e+00
-4.645284952359e+00
-4.632328174243e+00
-4.619234702941e+00
-4.606005463325e+00
-4.592641369398e+00
-4.579143324473e+00
-4.565512221354e+00
-4.551748942508e+00
-4.537854360237e+00
-4.523829336845e+00
-4.509674724799e+00
-4.495391366891e+00
-4.480980096396e+00
-4.466441737221e+00
-4.451777104058e+00
-4.436987002530e+00
-4.422072229335e+00
-4.407033572387e+00
-4.391871810953e+00
-4.376587715791e+00
-4.361182049279e+00
-4.345655565546e+00
-4.330009010601e+00
-4.314243122456e+00
-4.298358631247e+00
-4.282356259355e+00
-4.266236721526e+00
-4.250000724980e+00
-4.233648969531e+00
-4.217182147691e+00
-4.200600944782e+00
-4.183906039044e+00
-4.167098101734e+00
-4.150177797234e+00
-4.133145783149e+00
-4.116002710404e+00
-4.098749223344e+00
-4.081385959824e+00
-4.063913551309e+00
-4.046332622959e+00
-4.028643793722e+00
-4.010847676421e+00
-3.992944877839e+00
-3.974935998809e+00
-3.956821634288e+00
-3.938602373450e+00
-3.920278799757e+00
-3.901851491042e+00
-3.883321019586e+00
-3.864687952195e+00
-3.845952850272e+00
-3.827116269892e+00
-3.808178761874e+00
-3.789140871853e+00
-3.770003140347e+00
-3.750766102825e+00
-3.731430289781e+00
-3.711996226789e+00
-3.692464434578e+00
-3.672835429090e+00
-3.653109721542e+00
-3.633287818494e+00
-3.613370221903e+00
-3.593357429184e+00
-3.573249933271e+00
-3.553048222673e+00
-3.532752781530e+00
-3.512364089670e+00
-3.491882622662e+00
-3.471308851873e+00
-3.450643244516e+00
-3.429886263707e+00
-3.409038368514e+00
-3.388100014007e+00
-3.367071651309e+00
-3.345953727644e+00
-3.324746686385e+00
-3.303450967100e+00
-3.282067005603e+00
-3.260595233994e+00
-3.239036080707e+00
-3.217389970556e+00
-3.195657324774e+00
-3.173838561059e+00
-3.151934093619e+00
-3.129944333207e+00
-3.107869687167e+00
-3.085710559473e+00
-3.063467350768e+00
-3.041140458405e+00
-3.018730276482e+00
-2.996237195885e+00
-2.973661604321e+00
-2.951003886356e+00
-2.928264423453e+00
-2.905443594006e+00
-2.882541773375e+00
-2.859559333923e+00
-2.836496645045e+00
-2.813354073208e+00
-2.790131981981e+00
-2.766830732066e+00
-2.743450681334e+00
-2.719992184852e+00
-2.696455594921e+00
-2.672841261099e+00
-2.649149530238e+00
-2.625380746508e+00
-2.601535251432e+00
-2.577613383912e+00
-2.553615480257e+00
-2.529541874216e+00
-2.505392896997e+00
-2.481168877304e+00
-2.456870141359e+00
-2.432497012929e+00
-2.408049813352e+00
-2.383528861565e+00
-2.358934474129e+00
-2.334266965253e+00
-2.309526646819e+00
-2.284713828407e+00
-2.259828817321e+00
-2.234871918609e+00
-2.209843435090e+00
-2.184743667376e+00
-2.159572913895e+00
-2.134331470913e+00
-2.109019632557e+00
-2.083637690837e+00
-2.058185935667e+00
-2.032664654888e+00
-2.007074134287e+00
-1.981414657620e+00
-1.955686506631e+00
-1.929889961074e+00
-1.904025298730e+00
-1.878092795429e+00
-1.852092725073e+00
-1.826025359646e+00
-1.799890969242e+00
-1.773689822079e+00
-1.747422184521e+00
-1.721088321092e+00
-1.694688494497e+00
-1.668222965640e+00
-1.641691993638e+00
-1.615095835845e+00
-1.588434747862e+00
-1.561708983560e+00
-1.534918795091e+00
-1.508064432910e+00
-1.481146145787e+00
-1.454164180828e+00
-1.427118783484e+00
-1.400010197572e+00
-1.372838665291e+00
-1.345604427233e+00
-1.318307722402e+00
-1.290948788227e+00
-1.263527860578e+00
-1.236045173778e+00
-1.208500960622e+00
-1.180895452387e+00
-1.153228878849e+00
-1.125501468293e+00
-1.097713447532e+00
-1.069865041917e+00
-1.041956475352e+00
-1.013987970304e+00
-9.859597478218e-01
-9.578720275444e-01
-9.297250277152e-01
-9.015189651946e-01
-8.732540554728e-01
-8.449305126817e-01
-8.165485496071e-01
-7.881083777013e-01
-7.596102070942e-01
-7.310542466057e-01
-7.024407037572e-01
-6.737697847829e-01
-6.450416946414e-01
-6.162566370268e-01
-5.874148143800e-01
-5.585164278994e-01
-5.295616775521e-01
-5.005507620842e-01
-4.714838790320e-01
-4.423612247319e-01
-4.131829943313e-01
-3.839493817984e-01
-3.546605799328e-01
-3.253167803751e-01
-2.959181736172e-01
-2.664649490118e-01
-2.369572947824e-01
-2.073953980325e-01
-1.777794447557e-01
-1.481096198443e-01
-1.183861070993e-01
-8.860908923919e-02
-5.877874790918e-02
-2.889526369006e-02
1.041183892795e-03
3.103041636072e-02
6.107225627300e-02
9.116652721833e-02
1.213130538062e-01
1.515116616588e-01
1.817621774020e-01
2.120644286580e-01
2.424182440366e-01
2.728234531271e-01
3.032798864908e-01
3.337873756526e-01
3.643457530935e-01
3.949548522426e-01
4.256145074699e-01
4.563245540782e-01
4.870848282960e-01
5.178951672700e-01
5.487554090576e-01
5.796653926198e-01
6.106249578140e-01
6.416339453869e-01
6.726921969674e-01
7.037995550598e-01
7.349558630366e-01
7.661609651319e-01
7.974147064349e-01
8.287169328825e-01
8.600674912534e-01
8.914662291613e-01
9.229129950482e-01
9.544076381782e-01
9.859500086313e-01
1.017539957297e+00
1.049177335867e+00
1.080861996832e+00
1.112593793472e+00
1.144372579852e+00
1.176198210817e+00
1.208070541985e+00
1.239989429739e+00
1.271954731225e+00
1.303966304345e+00
1.336024007750e+00
1.368127700836e+00
1.400277243736e+00
1.432472497319e+00
1.464713323179e+00
1.496999583633e+00
1.529331141716e+00
1.561707861173e+00
1.594129606456e+00
1.626596242718e+00
1.659107635809e+00
1.691663652268e+00
1.724264159320e+00
1.756909024873e+00
1.789598117507e+00
1.822331306476e+00
1.855108461698e+00
1.887929453754e+00
1.920794153879e+00
1.953702433961e+00
1.986654166535e+00
2.019649224778e+00
2.052687482505e+00
2.085768814162e+00
2.118893094827e+00
2.152060200200e+00
2.185270006599e+00
2.218522390961e+00
2.251817230831e+00
2.285154404362e+00
2.318533790308e+00
2.351955268022e+00
2.385418717452e+00
2.418924019132e+00
2.452471054185e+00
2.486059704314e+00
2.519689851799e+00
2.553361379496e+00
2.587074170826e+00
2.620828109779e+00
2.654623080906e+00
2.688458969314e+00
2.722335660666e+00
2.756253041173e+00
2.790210997595e+00
2.824209417231e+00
2.858248187922e+00
2.892327198042e+00
2.926446336498e+00
2.960605492724e+00
2.994804556679e+00
3.029043418843e+00
3.063321970212e+00
3.097640102297e+00
3.131997707120e+00
3.166394677207e+00
3.200830905592e+00
3.235306285806e+00
3.269820711876e+00
3.304374078327e+00
3.338966280170e+00
3.373597212905e+00
3.408266772516e+00
3.442974855466e+00
3.477721358698e+00
3.512506179628e+00
3.547329216142e+00
3.582190366596e+00
3.617089529811e+00
3.652026605070e+00
3.687001492113e+00
3.722014091139e+00
3.757064302800e+00
3.792152028195e+00
3.827277168873e+00
3.862439626828e+00
3.897639304493e+00
3.932876104742e+00
3.968149930885e+00
4.003460686662e+00
4.038808276247e+00
4.074192604241e+00
4.109613575667e+00
4.145071095974e+00
4.180565071029e+00
4.216095407116e+00
4.251662010932e+00
4.287264789587e+00
4.322903650601e+00
4.358578501899e+00
4.394289251809e+00
4.430035809064e+00
4.465818082792e+00
4.501635982520e+00
4.537489418169e+00
4.573378300049e+00
4.609302538862e+00
4.645262045695e+00
4.681256732021e+00
4.717286509694e+00
4.753351290946e+00
4.789450988390e+00
4.825585515010e+00
4.861754784166e+00
4.897958709587e+00
4.934197205369e+00
4.970470185976e+00
5.006777566235e+00
5.043119261334e+00
5.079495186821e+00
5.115905258602e+00
5.152349392935e+00
5.188827506433e+00
5.225339516061e+00
5.261885339131e+00
5.298464893301e+00
5.335078096575e+00
5.371724867298e+00
5.408405124157e+00
5.445118786176e+00
5.481865772717e+00
5.518646003475e+00
5.555459398478e+00
5.592305878085e+00
5.629185362981e+00
5.666097774181e+00
5.703043033023e+00
5.740021061168e+00
5.777031780598e+00
5.814075113614e+00
5.851150982834e+00
5.888259311191e+00
5.925400021933e+00
5.962573038618e+00
5.999778285114e+00
6.037015685599e+00
6.074285164555e+00
6.111586646770e+00
6.148920057334e+00
6.186285321639e+00
6.223682365375e+00
6.261111114531e+00
6.298571495391e+00
6.336063434534e+00
6.373586858832e+00
6.411141695446e+00
6.448727871827e+00
6.486345315716e+00
6.523993955137e+00
6.561673718400e+00
6.599384534097e+00
6.637126331102e+00
6.674899038569e+00
6.712702585927e+00
6.750536902886e+00
6.788401919429e+00
6.826297565811e+00
6.864223772562e+00
6.902180470479e+00
6.940167590630e+00
6.978185064352e+00
7.016232823244e+00
7.054310799172e+00
7.092418924265e+00
7.130557130914e+00
7.168725351768e+00
7.206923519738e+00
7.245151567988e+00
7.283409429943e+00
7.321697039278e+00
7.360014329924e+00
7.398361236062e+00
7.436737692126e+00
7.475143632796e+00
7.513578993001e+00
7.552043707917e+00
7.590537712964e+00
7.629060943807e+00
7.667613336351e+00
7.706194826745e+00
7.744805351376e+00
7.783444846870e+00
7.822113250090e+00
7.860810498136e+00
7.899536528342e+00
7.938291278275e+00
7.977074685735e+00
8.015886688752e+00
8.054727225589e+00
8.093596234733e+00
8.132493654902e+00
8.171419425038e+00
8.210373484309e+00
8.249355772107e+00
8.288366228046e+00
8.327404791962e+00
8.366471403912e+00
8.405566004170e+00
8.444688533229e+00
8.483838931802e+00
8.523017140812e+00
8.562223101402e+00
8.601456754925e+00
8.640718042949e+00
8.680006907251e+00
8.719323289820e+00
8.758667132855e+00
8.798038378759e+00
8.837436970147e+00
8.876862849837e+00
8.916315960853e+00
8.955796246423e+00
8.995303649977e+00
9.034838115147e+00
9.074399585767e+00
9.113988005871e+00
9.153603319688e+00
9.193245471650e+00
9.232914406383e+00
9.272610068707e+00
9.312332403642e+00
9.352081356396e+00
9.391856872374e+00
9.431658897172e+00
9.471487376575e+00
9.511342256559e+00
9.551223483292e+00
9.591131003125e+00
9.631064762599e+00
9.671024708441e+00
9.711010787564e+00
9.751022947064e+00
9.791061134221e+00
9.831125296497e+00
9.871215381536e+00
9.911331337164e+00
9.951473111385e+00
9.991640652384e+00
1.003183390852e+01
1.007205282834e+01
1.011229736055e+01
1.015256745404e+01
1.019286305789e+01
1.023318412133e+01
1.027353059377e+01
1.031390242480e+01
1.035429956417e+01
1.039472196181e+01
1.043516956783e+01
1.047564233247e+01
1.051614020618e+01
1.055666313955e+01
1.059721108335e+01
1.063778398852e+01
1.067838180615e+01
1.071900448751e+01
1.075965198401e+01
1.080032424724e+01
1.084102122896e+01
1.088174288107e+01
1.092248915564e+01
1.096326000490e+01
1.100405538125e+01
1.104487523721e+01
1.108571952551e+01
1.112658819899e+01
1.116748121067e+01
1.120839851373e+01
1.124934006148e+01
1.129030580740e+01
1.133129570513e+01
1.137230970845e+01
1.141334777129e+01
1.145440984773e+01
1.149549589201e+01
1.153660585852e+01
1.157773970178e+01
1.161889737648e+01
1.166007883744e+01
1.170128403965e+01
1.174251293820e+01
1.178376548839e+01
1.182504164560e+01
1.186634136540e+01
1.190766460349e+01
1.194901131569e+01
1.199038145800e+01
1.203177498653e+01
1.207319185755e+01
1.211463202746e+01
1.215609545280e+01
1.219758209025e+01
1.223909189664e+01
1.228062482891e+01
1.232218084416e+01
1.236375989963e+01
1.240536195266e+01
1.244698696078e+01
1.248863488159e+01
1.253030567289e+01
1.257199929256e+01
1.261371569864e+01
1.265545484930e+01
1.269721670282e+01
1.273900121765e+01
1.278080835233e+01
1.282263806556e+01
1.286449031614e+01
1.290636506304e+01
1.294826226530e+01
1.299018188215e+01
1.303212387290e+01
1.307408819701e+01
1.311607481405e+01
1.315808368373e+01
1.320011476588e+01
1.324216802045e+01
1.328424340752e+01
1.332634088727e+01
1.336846042005e+01
1.341060196628e+01
1.345276548653e+01
1.349495094148e+01
1.353715829195e+01
1.357938749885e+01
1.362163852323e+01
1.366391132626e+01
1.370620586920e+01
1.374852211347e+01
1.379086002058e+01
1.383321955215e+01
1.387560066994e+01
1.391800333582e+01
1.396042751175e+01
1.400287315984e+01
1.404534024229e+01
1.408782872143e+01
1.413033855969e+01
1.417286971961e+01
1.421542216386e+01
1.425799585521e+01
1.430059075653e+01
1.434320683084e+01
1.438584404122e+01
1.442850235089e+01
1.447118172318e+01
1.451388212151e+01
1.455660350944e+01
1.459934585060e+01
1.464210910875e+01
1.468489324776e+01
1.472769823159e+01
1.477052402433e+01
1.481337059015e+01
1.485623789334e+01
1.489912589829e+01
1.494203456951e+01
1.498496387158e+01
1.502791376922e+01
1.507088422723e+01
1.511387521052e+01
1.515688668410e+01
1.519991861309e+01
1.524297096270e+01
1.528604369825e+01
1.532913678516e+01
1.537225018895e+01
1.541538387522e+01
1.545853780970e+01
1.550171195821e+01
1.554490628665e+01
1.558812076104e+01
1.563135534749e+01
1.567461001221e+01
1.571788472150e+01
1.576117944176e+01
1.580449413948e+01
1.584782878127e+01
1.589118333381e+01
1.593455776387e+01
1.597795203835e+01
1.602136612421e+01
1.606479998852e+01
1.610825359843e+01
1.615172692120e+01
1.619521992418e+01
1.623873257479e+01
1.628226484058e+01
1.632581668916e+01
1.636938808824e+01
1.641297900563e+01
1.645658940921e+01
1.650021926698e+01
1.654386854701e+01
1.658753721746e+01
1.663122524658e+01
1.667493260271e+01
1.671865925428e+01
1.676240516982e+01
1.680617031791e+01
1.684995466726e+01
1.689375818665e+01
1.693758084493e+01
1.698142261107e+01
1.702528345409e+01
1.706916334313e+01
1.711306224739e+01
1.715698013616e+01
1.720091697883e+01
1.724487274486e+01
1.728884740378e+01
1.733284092524e+01
1.737685327895e+01
1.742088443470e+01
1.746493436237e+01
1.750900303192e+01
1.755309041339e+01
1.759719647692e+01
1.764132119271e+01
1.768546453104e+01
1.772962646228e+01
1.777380695688e+01
1.781800598537e+01
1.786222351836e+01
1.790645952654e+01
1.795071398067e+01
1.799498685160e+01
1.803927811026e+01
1.808358772764e+01
1.812791567483e+01
1.817226192298e+01
1.821662644334e+01
1.826100920722e+01
1.830541018599e+01
1.834982935115e+01
1.839426667421e+01
1.843872212681e+01
1.848319568064e+01
1.852768730746e+01
1.857219697912e+01
1.861672466755e+01
1.866127034473e+01
1.870583398273e+01
1.875041555370e+01
1.879501502985e+01
1.883963238346e+01
1.888426758691e+01
1.892892061263e+01
1.897359143312e+01
1.901828002097e+01
1.906298634882e+01
1.910771038941e+01
1.915245211552e+01
1.919721150002e+01
1.924198851585e+01
1.928678313602e+01
1.933159533360e+01
1.937642508175e+01
1.942127235368e+01
1.946613712269e+01
1.951101936212e+01
1.955591904541e+01
1.960083614606e+01
1.964577063761e+01
1.969072249372e+01
1.973569168808e+01
1.978067819445e+01
1.982568198668e+01
1.987070303867e+01
1.991574132439e+01
1.996079681787e+01
2.000586949322e+01
2.005095932462e+01
2.009606628630e+01
2.014119035256e+01
2.018633149776e+01
2.023148969635e+01
2.027666492283e+01
2.032185715175e+01
2.036706635775e+01
2.041229251552e+01
2.045753559982e+01
2.050279558546e+01
2.054807244734e+01
2.059336616040e+01
2.063867669966e+01
2.068400404019e+01
2.072934815713e+01
2.077470902568e+01
2.082008662110e+01
2.086548091872e+01
2.091089189394e+01
2.095631952218e+01
2.100176377898e+01
2.104722463989e+01
2.109270208056e+01
2.113819607668e+01
2.118370660400e+01
2.122923363833e+01
2.127477715557e+01
2.132033713163e+01
2.136591354251e+01
2.141150636428e+01
2.145711557305e+01
2.150274114498e+01
2.154838305631e+01
2.159404128334e+01
2.163971580241e+01
2.168540658993e+01
2.173111362238e+01
2.177683687626e+01
2.182257632817e+01
2.186833195475e+01
2.191410373269e+01
2.195989163875e+01
2.200569564974e+01
2.205151574252e+01
2.209735189403e+01
2.214320408124e+01
2.218907228119e+01
2.223495647097e+01
2.228085662773e+01
2.232677272869e+01
2.237270475108e+01
2.241865267224e+01
2.246461646954e+01
2.251059612039e+01
2.255659160228e+01
2.260260289273e+01
2.264862996935e+01
2.269467280977e+01
2.274073139169e+01
2.278680569286e+01
2.283289569107e+01
2.287900136420e+01
2.292512269015e+01
2.297125964687e+01
2.301741221240e+01
2.306358036478e+01
2.310976408216e+01
2.315596334270e+01
2.320217812462e+01
2.324840840620e+01
2.329465416577e+01
2.334091538171e+01
2.338719203246e+01
2.343348409649e+01
2.347979155235e+01
2.352611437860e+01
2.357245255390e+01
2.361880605692e+01
2.366517486640e+01
2.371155896114e+01
2.375795831995e+01
2.380437292175e+01
2.385080274544e+01
2.389724777003e+01
2.394370797455e+01
2.399018333809e+01
2.403667383977e+01
2.408317945877e+01
2.412970017434e+01
2.417623596574e+01
2.422278681230e+01
2.426935269341e+01
2.431593358848e+01
2.436252947699e+01
2.440914033846e+01
2.445576615245e+01
2.450240689857e+01
2.454906255649e+01
2.459573310593e+01
2.464241852662e+01
2.468911879838e+01
2.473583390106e+01
2.478256381455e+01
2.482930851879e+01
2.487606799377e+01
2.492284221953e+01
2.496963117615e+01
2.501643484374e+01
2.506325320249e+01
2.511008623261e+01
2.515693391436e+01
2.520379622805e+01
2.525067315403e+01
2.529756467270e+01
2.534447076451e+01
2.539139140993e+01
2.543832658949e+01
2.548527628378e+01
2.553224047341e+01
2.557921913905e+01
2.562621226140e+01
2.567321982122e+01
2.572024179929e+01
2.576727817646e+01
2.581432893360e+01
2.586139405164e+01
2.590847351156e+01
2.595556729435e+01
2.600267538107e+01
2.604979775282e+01
2.609693439073e+01
2.614408527598e+01
2.619125038980e+01
2.623842971346e+01
2.628562322825e+01
2.633283091552e+01
2.638005275667e+01
2.642728873313e+01
2.647453882636e+01
2.652180301789e+01
2.656908128927e+01
2.661637362209e+01
2.666367999799e+01
2.671100039865e+01
2.675833480579e+01
2.680568320116e+01
2.685304556657e+01
2.690042188386e+01
2.694781213489e+01
2.699521630160e+01
2.704263436595e+01
2.709006630992e+01
2.713751211556e+01
2.718497176496e+01
2.723244524022e+01
2.727993252350e+01
2.732743359700e+01
2.737494844295e+01
2.742247704363e+01
2.747001938135e+01
2.751757543846e+01
2.756514519735e+01
2.761272864044e+01
2.766032575022e+01
2.770793650917e+01
2.775556089984e+01
2.780319890481e+01
2.785085050670e+01
2.789851568817e+01
2.794619443191e+01
2.799388672064e+01
2.804159253715e+01
2.808931186422e+01
2.813704468471e+01
2.818479098150e+01
2.823255073750e+01
2.828032393567e+01
2.832811055898e+01
2.837591059048e+01
2.842372401323e+01
2.847155081031e+01
2.851939096488e+01
2.856724446009e+01
2.861511127916e+01
2.866299140533e+01
2.871088482189e+01
2.875879151213e+01
2.880671145942e+01
2.885464464714e+01
2.890259105871e+01
2.895055067759e+01
2.899852348727e+01
2.904650947128e+01
2.909450861317e+01
2.914252089654e+01
2.919054630503e+01
2.923858482230e+01
2.928663643205e+01
2.933470111802e+01
2.938277886396e+01
2.943086965370e+01
2.947897347105e+01
2.952709029990e+01
2.957522012415e+01
2.962336292774e+01
2.967151869463e+01
2.971968740884e+01
2.976786905441e+01
2.981606361541e+01
2.986427107594e+01
2.991249142014e+01
2.996072463219e+01
3.000897069629e+01
3.005722959668e+01
3.010550131763e+01
3.015378584344e+01
3.020208315846e+01
3.025039324704e+01
3.029871609360e+01
3.034705168256e+01
3.039539999839e+01
3.044376102559e+01
3.049213474868e+01
3.054052115224e+01
3.058892022085e+01
3.063733193914e+01
3.068575629177e+01
3.073419326342e+01
3.078264283881e+01
3.083110500270e+01
3.087957973988e+01
3.092806703514e+01
3.097656687335e+01
3.102507923937e+01
3.107360411811e+01
3.112214149451e+01
3.117069135354e+01
3.121925368020e+01
3.126782845952e+01
3.131641567655e+01
3.136501531640e+01
3.141362736418e+01
3.146225180503e+01
3.151088862415e+01
3.155953780675e+01
3.160819933806e+01
3.165687320336e+01
3.170555938795e+01
3.175425787716e+01
3.180296865634e+01
3.185169171090e+01
3.190042702625e+01
3.194917458783e+01
3.199793438113e+01
3.204670639165e+01
3.209549060494e+01
3.214428700655e+01
3.219309558207e+01
3.224191631715e+01
3.229074919741e+01
3.233959420855e+01
3.238845133628e+01
3.243732056632e+01
3.248620188446e+01
3.253509527648e+01
3.258400072821e+01
3.263291822549e+01
3.268184775421e+01
3.273078930027e+01
3.277974284962e+01
3.282870838821e+01
3.287768590203e+01
3.292667537710e+01
