DATE: 2018-03-30 CONTRIBUTOR: Xiaowang Zhou xzhou@sandia.gov and Lucas Hale lucas.hale@nist.gov CITATION: X. W. Zhou, R. A. Johnson, H. N. G. Wadley, Phys. Rev. B, 69, 144113(2004)
Generated from Zhou04_create_v2.f
Homogenized by Wurong Jian (wurong@ucsb.edu) on 2020-07-23 20:29 ### Concentr.: 2.5e-01 Mo 2.5e-01 Nb 2.5e-01 Ta 2.5e-01 W 
5 Mo Nb Ta W X
2000 0.8454588780072717E-01 2000 0.3199268520872213E-02 0.6395337773223553E+01
42 95.940 3.8581 fcc
0.000000000000e+00
-3.492797111029e-02
-6.963105723524e-02
-1.041109898805e-01
-1.383685005517e-01
-1.724043207545e-01
-2.062191819944e-01
-2.398138157772e-01
-2.731889536084e-01
-3.063453269937e-01
-3.392836674388e-01
-3.720047064492e-01
-4.045091755305e-01
-4.367978061885e-01
-4.688713299287e-01
-5.007304782568e-01
-5.323759826784e-01
-5.638085746991e-01
-5.950289858246e-01
-6.260379475605e-01
-6.568361914124e-01
-6.874244488860e-01
-7.178034514869e-01
-7.479739307206e-01
-7.779366180930e-01
-8.076922451095e-01
-8.372415432758e-01
-8.665852440975e-01
-8.957240790804e-01
-9.246587797299e-01
-9.533900775518e-01
-9.819187040516e-01
-1.010245390735e+00
-1.038370869108e+00
-1.066295870675e+00
-1.094021126943e+00
-1.121547369417e+00
-1.148875329603e+00
-1.176005739006e+00
-1.202939329133e+00
-1.229676831488e+00
-1.256218977577e+00
-1.282566498906e+00
-1.308720126980e+00
-1.334680593306e+00
-1.360448629389e+00
-1.386024966734e+00
-1.411410336847e+00
-1.436605471234e+00
-1.461611101400e+00
-1.486427958851e+00
-1.511056775092e+00
-1.535498281630e+00
-1.559753209970e+00
-1.583822291617e+00
-1.607706258077e+00
-1.631405840856e+00
-1.654921771459e+00
-1.678254781393e+00
-1.701405602162e+00
-1.724374965272e+00
-1.747163602229e+00
-1.769772244538e+00
-1.792201623706e+00
-1.814452471238e+00
-1.836525518639e+00
-1.858421497415e+00
-1.880141139071e+00
-1.901685175114e+00
-1.923054337049e+00
-1.944249356382e+00
-1.965270964617e+00
-1.986119893262e+00
-2.006796873821e+00
-2.027302637800e+00
-2.047637916705e+00
-2.067803442041e+00
-2.087799945314e+00
-2.107628158029e+00
-2.127288811693e+00
-2.146782637811e+00
-2.166110367889e+00
-2.185272733431e+00
-2.204270465944e+00
-2.223104296934e+00
-2.241774957906e+00
-2.260283180365e+00
-2.278629695817e+00
-2.296815235769e+00
-2.314840531725e+00
-2.332706315191e+00
-2.350413317673e+00
-2.367962270677e+00
-2.385353905707e+00
-2.402588954271e+00
-2.419668147872e+00
-2.436592218018e+00
-2.453361896213e+00
-2.469977913963e+00
-2.486441002775e+00
-2.502751894152e+00
-2.518911319602e+00
-2.534920010630e+00
-2.550778698741e+00
-2.566488115441e+00
-2.582048992236e+00
-2.597462060631e+00
-2.612728052131e+00
-2.627847698244e+00
-2.642821730473e+00
-2.657650880326e+00
-2.672335879306e+00
-2.686877458921e+00
-2.701276350676e+00
-2.715533286076e+00
-2.729648996626e+00
-2.743624213834e+00
-2.757459669203e+00
-2.771156094241e+00
-2.784714220452e+00
-2.798134779342e+00
-2.811418502416e+00
-2.824566121182e+00
-2.837578367143e+00
-2.850455971805e+00
-2.863199666675e+00
-2.875810183258e+00
-2.888288253060e+00
-2.900634607585e+00
-2.912849978341e+00
-2.924935096831e+00
-2.936890694563e+00
-2.948717503042e+00
-2.960416253772e+00
-2.971987678261e+00
-2.983432508013e+00
-2.994751474535e+00
-3.005945309331e+00
-3.017014743908e+00
-3.027960509771e+00
-3.038783338425e+00
-3.049483961377e+00
-3.060063110132e+00
-3.070521516196e+00
-3.080859911073e+00
-3.091079026271e+00
-3.101179593294e+00
-3.111162343649e+00
-3.121028008840e+00
-3.130777320373e+00
-3.140411009755e+00
-3.149929808490e+00
-3.159334448084e+00
-3.168625660043e+00
-3.177804175873e+00
-3.186870727079e+00
-3.195826045167e+00
-3.204670861643e+00
-3.213405908011e+00
-3.222031915778e+00
-3.230549616450e+00
-3.238959741531e+00
-3.247263022528e+00
-3.255460190946e+00
-3.263551978292e+00
-3.271539116069e+00
-3.279422335785e+00
-3.287202368944e+00
-3.294879947053e+00
-3.302455801617e+00
-3.309930664142e+00
-3.317305266132e+00
-3.324580339095e+00
-3.331756614535e+00
-3.338834823959e+00
-3.345815698871e+00
-3.352699970778e+00
-3.359488371184e+00
-3.366181631597e+00
-3.372780483520e+00
-3.379285658461e+00
-3.385697887924e+00
-3.392017903416e+00
-3.398246436441e+00
-3.404384218506e+00
-3.410431981116e+00
-3.416390455776e+00
-3.422260373993e+00
-3.428042467272e+00
-3.433737467119e+00
-3.439346105039e+00
-3.444869112538e+00
-3.450307221121e+00
-3.455661162294e+00
-3.460931667564e+00
-3.466119468434e+00
-3.471225296412e+00
-3.476249883002e+00
-3.481193959711e+00
-3.486058258044e+00
-3.490843509506e+00
-3.495550445603e+00
-3.500179797841e+00
-3.504732297726e+00
-3.509208676763e+00
-3.513609666457e+00
-3.517935998315e+00
-3.522188403842e+00
-3.526367614543e+00
-3.530474361925e+00
-3.534509377493e+00
-3.538473392752e+00
-3.542367139208e+00
-3.546191348367e+00
-3.549946751734e+00
-3.553634080816e+00
-3.557254067117e+00
-3.560807442143e+00
-3.564294937400e+00
-3.567717284394e+00
-3.571075214630e+00
-3.574369459614e+00
-3.577600750851e+00
-3.580769819848e+00
-3.583877398109e+00
-3.586924217140e+00
-3.589911008448e+00
-3.592838503537e+00
-3.595707433913e+00
-3.598518531082e+00
-3.601272526549e+00
-3.603970151821e+00
-3.606612138403e+00
-3.609199217799e+00
-3.611732121517e+00
-3.614211581062e+00
-3.616638327938e+00
-3.619013093653e+00
-3.621336609711e+00
-3.623609607619e+00
-3.625832818881e+00
-3.628006975003e+00
-3.630132807492e+00
-3.632211047852e+00
-3.634242427590e+00
-3.636227678211e+00
-3.638167531220e+00
-3.640062718123e+00
-3.641913970427e+00
-3.643722019636e+00
-3.645487597255e+00
-3.647211434792e+00
-3.648894263751e+00
-3.650536815638e+00
-3.652139821959e+00
-3.653704014218e+00
-3.655230123923e+00
-3.656718882578e+00
-3.658171021690e+00
-3.659587272763e+00
-3.660968367304e+00
-3.662315036817e+00
-3.663628012810e+00
-3.664908026787e+00
-3.666155810253e+00
-3.667372094715e+00
-3.668557611679e+00
-3.669713092649e+00
-3.670839269132e+00
-3.671936872632e+00
-3.673006634657e+00
-3.674049286711e+00
-3.675065560300e+00
-3.676056186929e+00
-3.677021898105e+00
-3.677963425332e+00
-3.678881500117e+00
-3.679776853966e+00
-3.680650218383e+00
-3.681502324874e+00
-3.682333904945e+00
-3.683145690103e+00
-3.683938411851e+00
-3.684712801696e+00
-3.685469591144e+00
-3.686209511700e+00
-3.686933294870e+00
-3.687641672159e+00
-3.688335375074e+00
-3.689015135119e+00
-3.689681683800e+00
-3.690335752624e+00
-3.690978073095e+00
-3.691609376719e+00
-3.692230395002e+00
-3.692841859450e+00
-3.693443989615e+00
-3.694037700622e+00
-3.694622465618e+00
-3.695198173324e+00
-3.695764712462e+00
-3.696321971754e+00
-3.696869839922e+00
-3.697408205687e+00
-3.697936957772e+00
-3.698455984898e+00
-3.698965175787e+00
-3.699464419162e+00
-3.699953603743e+00
-3.700432618252e+00
-3.700901351413e+00
-3.701359691945e+00
-3.701807528572e+00
-3.702244750015e+00
-3.702671244996e+00
-3.703086902236e+00
-3.703491610459e+00
-3.703885258384e+00
-3.704267734735e+00
-3.704638928233e+00
-3.704998727600e+00
-3.705347021558e+00
-3.705683698829e+00
-3.706008648134e+00
-3.706321758196e+00
-3.706622917735e+00
-3.706912015475e+00
-3.707188940137e+00
-3.707453580443e+00
-3.707705825114e+00
-3.707945562872e+00
-3.708172682440e+00
-3.708387072539e+00
-3.708588621891e+00
-3.708777219218e+00
-3.708952753242e+00
-3.709115112684e+00
-3.709264186267e+00
-3.709399862711e+00
-3.709522030740e+00
-3.709630579075e+00
-3.709725396437e+00
-3.709806371550e+00
-3.709873393133e+00
-3.709926349910e+00
-3.709965130602e+00
-3.709989623931e+00
-3.709999718619e+00
-3.709995303388e+00
-3.709976266959e+00
-3.709942498055e+00
-3.709893885396e+00
-3.709830317706e+00
-3.709751683706e+00
-3.709657872118e+00
-3.709548771663e+00
-3.709424271064e+00
-3.709284259042e+00
-3.709128624319e+00
-3.708957255617e+00
-3.708770041658e+00
-3.708566871164e+00
-3.708347632856e+00
-3.708112215457e+00
-3.707860507688e+00
-3.707592398271e+00
-3.707307775928e+00
-3.707006529381e+00
-3.706688547352e+00
-3.706353718561e+00
-3.706001931733e+00
-3.705633075587e+00
-3.705247038846e+00
-3.704843710233e+00
-3.704422978468e+00
-3.703984732273e+00
-3.703528860371e+00
-3.703055251483e+00
-3.702563794332e+00
-3.702054377638e+00
-3.701526890124e+00
-3.700981220512e+00
-3.700417257523e+00
-3.699834889879e+00
-3.699234006303e+00
-3.698614495516e+00
-3.697976246239e+00
-3.697319147196e+00
-3.696643087107e+00
-3.695947954694e+00
-3.695233638679e+00
-3.694500027785e+00
-3.693747010733e+00
-3.692974476244e+00
-3.692182313041e+00
-3.691370409846e+00
-3.690538655379e+00
-3.689686938364e+00
-3.688815147522e+00
-3.687923171575e+00
-3.687012512131e+00
-3.686085499283e+00
-3.685142791858e+00
-3.684184445454e+00
-3.683210515337e+00
-3.682221056446e+00
-3.681216123397e+00
-3.680195770483e+00
-3.679160051679e+00
-3.678109020642e+00
-3.677042730718e+00
-3.675961234940e+00
-3.674864586031e+00
-3.673752836412e+00
-3.672626038195e+00
-3.671484243196e+00
-3.670327502930e+00
-3.669155868615e+00
-3.667969391176e+00
-3.666768121248e+00
-3.665552109175e+00
-3.664321405014e+00
-3.663076058539e+00
-3.661816119241e+00
-3.660541636331e+00
-3.659252658742e+00
-3.657949235133e+00
-3.656631413888e+00
-3.655299243120e+00
-3.653952770674e+00
-3.652592044127e+00
-3.651217110792e+00
-3.649828017719e+00
-3.648424811698e+00
-3.647007539258e+00
-3.645576246674e+00
-3.644130979965e+00
-3.642671784898e+00
-3.641198706988e+00
-3.639711791504e+00
-3.638211083465e+00
-3.636696627648e+00
-3.635168468583e+00
-3.633626650562e+00
-3.632071217638e+00
-3.630502213623e+00
-3.628919682097e+00
-3.627323666403e+00
-3.625714209655e+00
-3.624091354733e+00
-3.622455144291e+00
-3.620805620754e+00
-3.619142826324e+00
-3.617466802978e+00
-3.615777592470e+00
-3.614075236335e+00
-3.612359775891e+00
-3.610631252235e+00
-3.608889706251e+00
-3.607135178610e+00
-3.605367709769e+00
-3.603587339975e+00
-3.601794109266e+00
-3.599988057472e+00
-3.598169224216e+00
-3.596337648918e+00
-3.594493370795e+00
-3.592636428861e+00
-3.590766861931e+00
-3.588884708620e+00
-3.586990007346e+00
-3.585082796332e+00
-3.583163113607e+00
-3.581230997004e+00
-3.579286484167e+00
-3.577329612549e+00
-3.575360419414e+00
-3.573378941838e+00
-3.571385216710e+00
-3.569379280736e+00
-3.567361170438e+00
-3.565330922152e+00
-3.563288572039e+00
-3.561234156074e+00
-3.559167710058e+00
-3.557089269612e+00
-3.554998870182e+00
-3.552896547040e+00
-3.550782335282e+00
-3.548656269833e+00
-3.546518385446e+00
-3.544368716706e+00
-3.542207298027e+00
-3.540034163655e+00
-3.537849347671e+00
-3.535652883989e+00
-3.533444806361e+00
-3.531225148372e+00
-3.528993943449e+00
-3.526751224855e+00
-3.524497025695e+00
-3.522231378915e+00
-3.519954317301e+00
-3.517665873484e+00
-3.515366079941e+00
-3.513054968992e+00
-3.510732572804e+00
-3.508398923391e+00
-3.506054052618e+00
-3.503697992197e+00
-3.501330773690e+00
-3.498952428513e+00
-3.496562987933e+00
-3.494162483070e+00
-3.491750944900e+00
-3.489328404252e+00
-3.486894891815e+00
-3.484450438131e+00
-3.481995073603e+00
-3.479528828493e+00
-3.477051732921e+00
-3.474563816871e+00
-3.472065110186e+00
-3.469555642574e+00
-3.467035443605e+00
-3.464504542715e+00
-3.461962969203e+00
-3.459410752238e+00
-3.456847920852e+00
-3.454274503949e+00
-3.451690530298e+00
-3.449096028541e+00
-3.446491027188e+00
-3.443875554621e+00
-3.441249639096e+00
-3.438613308739e+00
-3.435966591551e+00
-3.433309515409e+00
-3.430642108063e+00
-3.427964397141e+00
-3.425276410146e+00
-3.422578174460e+00
-3.419869717344e+00
-3.417151065936e+00
-3.414422247257e+00
-3.411683288206e+00
-3.408934215564e+00
-3.406175055996e+00
-3.403405836047e+00
-3.400626582148e+00
-3.397837320614e+00
-3.395038077643e+00
-3.392228879322e+00
-3.389409751622e+00
-3.386580720402e+00
-3.383741811410e+00
-3.380893050279e+00
-3.378034462536e+00
-3.375166073593e+00
-3.372287908757e+00
-3.369399993224e+00
-3.366502352081e+00
-3.363595010310e+00
-3.360677992783e+00
-3.357751324270e+00
-3.354815029431e+00
-3.351869132825e+00
-3.348913658903e+00
-3.345948632016e+00
-3.342974076409e+00
-3.339990016226e+00
-3.336996475509e+00
-3.333993478199e+00
-3.330981048137e+00
-3.327959209061e+00
-3.324927984613e+00
-3.321887398335e+00
-3.318837473670e+00
-3.315778233965e+00
-3.312709702467e+00
-3.309631902329e+00
-3.306544856608e+00
-3.303448588264e+00
-3.300343120164e+00
-3.297228475078e+00
-3.294104675685e+00
-3.290971744569e+00
-3.287829704223e+00
-3.284678577046e+00
-3.281518385347e+00
-3.278349151342e+00
-3.275170897159e+00
-3.271983644833e+00
-3.268787416312e+00
-3.265582233453e+00
-3.262368118026e+00
-3.259145091713e+00
-3.255913176108e+00
-3.252672392716e+00
-3.249422762960e+00
-3.246164308172e+00
-3.242897049602e+00
-3.239621008414e+00
-3.236336205687e+00
-3.233042662416e+00
-3.229740399512e+00
-3.226429437803e+00
-3.223109798036e+00
-3.219781500873e+00
-3.216444566896e+00
-3.213099016606e+00
-3.209744870421e+00
-3.206382148680e+00
-3.203010871643e+00
-3.199631059489e+00
-3.196242732318e+00
-3.192845910152e+00
-3.189440612934e+00
-3.186026860530e+00
-3.182604672728e+00
-3.179174069239e+00
-3.175735069698e+00
-3.172287693665e+00
-3.168831960621e+00
-3.165367889974e+00
-3.161895501058e+00
-3.158414813131e+00
-3.154925845376e+00
-3.151428616905e+00
-3.147923146754e+00
-3.144409453889e+00
-3.140887557201e+00
-3.137357475510e+00
-3.133819227565e+00
-3.130272832042e+00
-3.126718307547e+00
-3.123155672616e+00
-3.119584945714e+00
-3.116006145236e+00
-3.112419289508e+00
-3.108824396787e+00
-3.105221485261e+00
-3.101610573050e+00
-3.097991678207e+00
-3.094364818714e+00
-3.090730012490e+00
-3.087087277384e+00
-3.083436631180e+00
-3.079778091595e+00
-3.076111676280e+00
-3.072437402822e+00
-3.068755288741e+00
-3.065065351493e+00
-3.061367608470e+00
-3.057662076999e+00
-3.053948774342e+00
-3.050227717701e+00
-3.046498924212e+00
-3.042762410948e+00
-3.039018194922e+00
-3.035266293082e+00
-3.031506722315e+00
-3.027739499448e+00
-3.023964641244e+00
-3.020182164408e+00
-3.016392085582e+00
-3.012594421349e+00
-3.008789188231e+00
-3.004976402692e+00
-3.001156081134e+00
-2.997328239903e+00
-2.993492895283e+00
-2.989650063502e+00
-2.985799760730e+00
-2.981942003076e+00
-2.978076806594e+00
-2.974204187280e+00
-2.970324161073e+00
-2.966436743856e+00
-2.962541951455e+00
-2.958639799637e+00
-2.954730304119e+00
-2.950813480556e+00
-2.946889344553e+00
-2.942957911657e+00
-2.939019197360e+00
-2.935073217101e+00
-2.931119986263e+00
-2.927159520177e+00
-2.923191834120e+00
-2.919216943313e+00
-2.915234862926e+00
-2.911245608077e+00
-2.907249193829e+00
-2.903245635193e+00
-2.899234947129e+00
-2.895217144544e+00
-2.891192242295e+00
-2.887160255185e+00
-2.883121197969e+00
-2.879075085347e+00
-2.875021931973e+00
-2.870961752446e+00
-2.866894561319e+00
-2.862820373092e+00
-2.858739202217e+00
-2.854651063095e+00
-2.850555970081e+00
-2.846453937476e+00
-2.842344979538e+00
-2.838229110471e+00
-2.834106344435e+00
-2.829976695540e+00
-2.825840177847e+00
-2.821696805373e+00
-2.817546592083e+00
-2.813389551900e+00
-2.809225698696e+00
-2.805055046297e+00
-2.800877608485e+00
-2.796693398993e+00
-2.792502431509e+00
-2.788304719675e+00
-2.784100277089e+00
-2.779889117300e+00
-2.775671253815e+00
-2.771446700095e+00
-2.767215469557e+00
-2.762977575572e+00
-2.758733031467e+00
-2.754481850526e+00
-2.750224045988e+00
-2.745959631048e+00
-2.741688618860e+00
-2.737411022531e+00
-2.733126855127e+00
-2.728836129672e+00
-2.724538859145e+00
-2.720235056483e+00
-2.715924734582e+00
-2.711607906295e+00
-2.707284584433e+00
-2.702954781766e+00
-2.698618511020e+00
-2.694275784884e+00
-2.689926616002e+00
-2.685571016978e+00
-2.681209000375e+00
-2.676840578718e+00
-2.672465764488e+00
-2.668084570127e+00
-2.663697008038e+00
-2.659303090583e+00
-2.654902830084e+00
-2.650496238824e+00
-2.646083329048e+00
-2.641664112959e+00
-2.637238602724e+00
-2.632806810469e+00
-2.628368748281e+00
-2.623924428211e+00
-2.619473862270e+00
-2.615017062431e+00
-2.610554040630e+00
-2.606084808763e+00
-2.601609378690e+00
-2.597127762234e+00
-2.592639971181e+00
-2.588146017277e+00
-2.583645912233e+00
-2.579139667725e+00
-2.574627295390e+00
-2.570108806828e+00
-2.565584213604e+00
-2.561053527247e+00
-2.556516759250e+00
-2.551973921070e+00
-2.547425024127e+00
-2.542870079807e+00
-2.538309099460e+00
-2.533742094402e+00
-2.529169075912e+00
-2.524590055236e+00
-2.520005043583e+00
-2.515414052129e+00
-2.510817092016e+00
-2.506214174350e+00
-2.501605310205e+00
-2.496990510619e+00
-2.492369786597e+00
-2.487743149110e+00
-2.483110609095e+00
-2.478472177458e+00
-2.473827865068e+00
-2.469177682764e+00
-2.464521641351e+00
-2.459859751600e+00
-2.455192024250e+00
-2.450518470008e+00
-2.445839099549e+00
-2.441153923514e+00
-2.436462952512e+00
-2.431766197122e+00
-2.427063667890e+00
-2.422355375329e+00
-2.417641329922e+00
-2.412921542119e+00
-2.408196022341e+00
-2.403464780975e+00
-2.398727828380e+00
-2.393985174880e+00
-2.389236830772e+00
-2.384482806321e+00
-2.379723111760e+00
-2.374957757294e+00
-2.370186753095e+00
-2.365410109307e+00
-2.360627836044e+00
-2.355839943388e+00
-2.351046441393e+00
-2.346247340082e+00
-2.341442649450e+00
-2.336632379461e+00
-2.331816540051e+00
-2.326995141125e+00
-2.322168192562e+00
-2.317335704209e+00
-2.312497685885e+00
-2.307654147381e+00
-2.302805098458e+00
-2.297950548851e+00
-2.293090508265e+00
-2.288224986375e+00
-2.283353992832e+00
-2.278477537255e+00
-2.273595629237e+00
-2.268708278343e+00
-2.263815494110e+00
-2.258917286049e+00
-2.254013663641e+00
-2.249104636341e+00
-2.244190213577e+00
-2.239270404748e+00
-2.234345219230e+00
-2.229414666368e+00
-2.224478755482e+00
-2.219537495865e+00
-2.214590896783e+00
-2.209638967477e+00
-2.204681717161e+00
-2.199719155020e+00
-2.194751290218e+00
-2.189778131888e+00
-2.184799689140e+00
-2.179815971058e+00
-2.174826986698e+00
-2.169832745093e+00
-2.164833255250e+00
-2.159828526148e+00
-2.154818566744e+00
-2.149803385969e+00
-2.144782992726e+00
-2.139757395897e+00
-2.134726604337e+00
-2.129690626876e+00
-2.124649472319e+00
-2.119603149448e+00
-2.114551667020e+00
-2.109495033765e+00
-2.104433258392e+00
-2.099366349584e+00
-2.094294316001e+00
-2.089217166276e+00
-2.084134909023e+00
-2.079047552827e+00
-2.073955106252e+00
-2.068857577838e+00
-2.063754976101e+00
-2.058647309533e+00
-2.053534586604e+00
-2.048416815760e+00
-2.043294005423e+00
-2.038166163993e+00
-2.033033299846e+00
-2.027895421335e+00
-2.022752536791e+00
-2.017604654522e+00
-2.012451782812e+00
-2.007293929924e+00
-2.002131104098e+00
-1.996963313550e+00
-1.991790566477e+00
-1.986612871051e+00
-1.981430235422e+00
-1.976242667718e+00
-1.971050176046e+00
-1.965852768491e+00
-1.960650453115e+00
-1.955443237959e+00
-1.950231131041e+00
-1.945014140359e+00
-1.939792273890e+00
-1.934565539587e+00
-1.929333945385e+00
-1.924097499193e+00
-1.918856208904e+00
-1.913610082386e+00
-1.908359127489e+00
-1.903103352039e+00
-1.897842763843e+00
-1.892577370687e+00
-1.887307180335e+00
-1.882032200533e+00
-1.876752439004e+00
-1.871467903450e+00
-1.866178601556e+00
-1.860884540983e+00
-1.855585729374e+00
-1.850282174350e+00
-1.844973883514e+00
-1.839660864448e+00
-1.834343124712e+00
-1.829020671849e+00
-1.823693513382e+00
-1.818361656812e+00
-1.813025109622e+00
-1.807683879275e+00
-1.802337973215e+00
-1.796987398866e+00
-1.791632163632e+00
-1.786272274899e+00
-1.780907740032e+00
-1.775538566379e+00
-1.770164761267e+00
-1.764786332006e+00
-1.759403285884e+00
-1.754015630172e+00
-1.748623372123e+00
-1.743226518970e+00
-1.737825077927e+00
-1.732419056190e+00
-1.727008460937e+00
-1.721593299326e+00
-1.716173578497e+00
-1.710749305573e+00
-1.705320487658e+00
-1.699887131836e+00
-1.694449245175e+00
-1.689006834725e+00
-1.683559907516e+00
-1.678108470563e+00
-1.672652530859e+00
-1.667192095382e+00
-1.661727171093e+00
-1.656257764933e+00
-1.650783883826e+00
-1.645305534680e+00
-1.639822724382e+00
-1.634335459806e+00
-1.628843747805e+00
-1.623347595216e+00
-1.617847008860e+00
-1.612341995538e+00
-1.606832562035e+00
-1.601318715121e+00
-1.595800461546e+00
-1.590277808044e+00
-1.584750761333e+00
-1.579219328113e+00
-1.573683515068e+00
-1.568143328864e+00
-1.562598776152e+00
-1.557049863566e+00
-1.551496597722e+00
-1.545938985222e+00
-1.540377032648e+00
-1.534810746569e+00
-1.529240133537e+00
-1.523665200085e+00
-1.518085952734e+00
-1.512502397985e+00
-1.506914542326e+00
-1.501322392227e+00
-1.495725954143e+00
-1.490125234511e+00
-1.484520239756e+00
-1.478910976283e+00
-1.473297450484e+00
-1.467679668735e+00
-1.462057637394e+00
-1.456431362807e+00
-1.450800851301e+00
-1.445166109190e+00
-1.439527142772e+00
-1.433883958328e+00
-1.428236562126e+00
-1.422584960417e+00
-1.416929159437e+00
-1.411269165408e+00
-1.405604984535e+00
-1.399936623010e+00
-1.394264087009e+00
-1.388587382691e+00
-1.382906516205e+00
-1.377221493679e+00
-1.371532321231e+00
-1.365839004963e+00
-1.360141550960e+00
-1.354439965296e+00
-1.348734254027e+00
-1.343024423196e+00
-1.337310478832e+00
-1.331592426949e+00
-1.325870273546e+00
-1.320144024608e+00
-1.314413686105e+00
-1.308679263995e+00
-1.302940764219e+00
-1.297198192705e+00
-1.291451555368e+00
-1.285700858107e+00
-1.279946106807e+00
-1.274187307340e+00
-1.268424465565e+00
-1.262657587324e+00
-1.256886678448e+00
-1.251111744753e+00
-1.245332792042e+00
-1.239549826102e+00
-1.233762852709e+00
-1.227971877624e+00
-1.222176906595e+00
-1.216377945357e+00
-1.210574999629e+00
-1.204768075119e+00
-1.198957177521e+00
-1.193142312515e+00
-1.187323485769e+00
-1.181500702936e+00
-1.175673969656e+00
-1.169843291558e+00
-1.164008674256e+00
-1.158170123350e+00
-1.152327644429e+00
-1.146481243067e+00
-1.140630924828e+00
-1.134776695259e+00
-1.128918559898e+00
-1.123056524268e+00
-1.117190593878e+00
-1.111320774229e+00
-1.105447070803e+00
-1.099569489074e+00
-1.093688034501e+00
-1.087802712532e+00
-1.081913528601e+00
-1.076020488131e+00
-1.070123596530e+00
-1.064222859197e+00
-1.058318281515e+00
-1.052409868858e+00
-1.046497626584e+00
-1.040581560043e+00
-1.034661674570e+00
-1.028737975487e+00
-1.022810468107e+00
-1.016879157728e+00
-1.010944049636e+00
-1.005005149109e+00
-9.990624614065e-01
-9.931159917815e-01
-9.871657454725e-01
-9.812117277065e-01
-9.752539436988e-01
-9.692923986529e-01
-9.633270977603e-01
-9.573580462011e-01
-9.513852491434e-01
-9.454087117438e-01
-9.394284391471e-01
-9.334444364867e-01
-9.274567088843e-01
-9.214652614500e-01
-9.154700992827e-01
-9.094712274697e-01
-9.034686510867e-01
-8.974623751983e-01
-8.914524048576e-01
-8.854387451065e-01
-8.794214009755e-01
-8.734003774839e-01
-8.673756796399e-01
-8.613473124405e-01
-8.553152808714e-01
-8.492795899074e-01
-8.432402445121e-01
-8.371972496382e-01
-8.311506102274e-01
-8.251003312103e-01
-8.190464175067e-01
-8.129888740254e-01
-8.069277056645e-01
-8.008629173112e-01
-7.947945138418e-01
-7.887225001220e-01
-7.826468810068e-01
-7.765676613402e-01
-7.704848459560e-01
-7.643984396770e-01
-7.583084473157e-01
-7.522148736737e-01
-7.461177235424e-01
-7.400170017025e-01
-7.339127129243e-01
-7.278048619678e-01
-7.216934535824e-01
-7.155784925071e-01
-7.094599834709e-01
-7.033379311920e-01
-6.972123403789e-01
-6.910832157293e-01
-6.849505619312e-01
-6.788143836619e-01
-6.726746855890e-01
-6.665314723698e-01
-6.603847486515e-01
-6.542345190713e-01
-6.480807882562e-01
-6.419235608236e-01
-6.357628413804e-01
-6.295986345241e-01
-6.234309448418e-01
-6.172597769112e-01
-6.110851352999e-01
-6.049070245656e-01
-5.987254492563e-01
-5.925404139104e-01
-5.863519230564e-01
-5.801599812132e-01
-5.739645928899e-01
-5.677657625860e-01
-5.615634947916e-01
-5.553577939868e-01
-5.491486646427e-01
-5.429361112203e-01
-5.367201381716e-01
-5.305007499388e-01
-5.242779509547e-01
-5.180517456429e-01
-5.118221384173e-01
-5.055891336828e-01
-4.993527358347e-01
-4.931129492592e-01
-4.868697783329e-01
-4.806232274236e-01
-4.743733008895e-01
-4.681200030798e-01
-4.618633383346e-01
-4.556033109847e-01
-4.493399253518e-01
-4.430731857486e-01
-4.368030964788e-01
-4.305296618369e-01
-4.242528861086e-01
-4.179727735704e-01
-4.116893284900e-01
-4.054025551261e-01
-3.991124577286e-01
-3.928190405385e-01
-3.865223077878e-01
-3.802222636999e-01
-3.739189124893e-01
-3.676122583617e-01
-3.613023055142e-01
-3.549890581350e-01
-3.486725204036e-01
-3.423526964911e-01
-3.360295905597e-01
-3.297032067631e-01
-3.233735492463e-01
-3.170406221459e-01
-3.107044295899e-01
-3.043649756975e-01
-2.980222645800e-01
-2.916763003396e-01
-2.853270870705e-01
-2.789746288584e-01
-2.726189297803e-01
-2.662599939052e-01
-2.598978252937e-01
-2.535324279978e-01
-2.471638060615e-01
-2.407919635204e-01
-2.344169044019e-01
-2.280386327251e-01
-2.216571525010e-01
-2.152724677323e-01
-2.088845824135e-01
-2.024935005313e-01
-1.960992260638e-01
-1.897017629814e-01
-1.833011152463e-01
-1.768972868127e-01
-1.704902816266e-01
-1.640801036262e-01
-1.576667567418e-01
-1.512502448954e-01
-1.448305720015e-01
-1.384077419663e-01
-1.319817586884e-01
-1.255526260585e-01
-1.191203479592e-01
-1.126849282657e-01
-1.062463708451e-01
-9.980467955679e-02
-9.335985825247e-02
-8.691191077607e-02
-8.046084096381e-02
-7.400665264423e-02
-6.754934963823e-02
-6.108893575902e-02
-5.462541481222e-02
-4.815879059585e-02
-4.168906690034e-02
-3.521624750857e-02
-2.874033619588e-02
-2.226133673008e-02
-1.577925287152e-02
-9.294088373044e-03
-2.805846980059e-03
3.685467569467e-03
1.017985154497e-02
1.667730122329e-02
2.317781288863e-02
2.968138283253e-02
3.618800735389e-02
4.269768275888e-02
4.921040536100e-02
5.572617148100e-02
6.224497744687e-02
6.876681959385e-02
7.529169426437e-02
8.181959780805e-02
8.835052658170e-02
9.488447694927e-02
1.014214452818e-01
1.079614279575e-01
1.145044213617e-01
1.210504218867e-01
1.275994259319e-01
1.341514299038e-01
1.407064302157e-01
1.472644232882e-01
1.538254055486e-01
1.603893734314e-01
1.669563233778e-01
1.735262518361e-01
1.800991552614e-01
1.866750301157e-01
1.932538728679e-01
1.998356799938e-01
2.064204479758e-01
2.130081733033e-01
2.195988524725e-01
2.261924819862e-01
2.327890583541e-01
2.393885780927e-01
2.459910377250e-01
2.525964337809e-01
2.592047627967e-01
2.658160213157e-01
2.724302058877e-01
2.790473130691e-01
2.856673394228e-01
2.922902815185e-01
2.989161359324e-01
3.055448992473e-01
3.121765680523e-01
3.188111389434e-01
3.254486085227e-01
3.320889733991e-01
3.387322301877e-01
3.453783755105e-01
3.520274059953e-01
3.586793182768e-01
3.653341089960e-01
3.719917748001e-01
3.786523123429e-01
3.853157182843e-01
3.919819892908e-01
3.986511220350e-01
4.053231131959e-01
4.119979594588e-01
4.186756575152e-01
4.253562040628e-01
4.320395958057e-01
4.387258294541e-01
4.454149017244e-01
4.521068093392e-01
4.588015490272e-01
4.654991175233e-01
4.721995115687e-01
4.789027279104e-01
4.856087633018e-01
4.923176145021e-01
4.990292782768e-01
5.057437513973e-01
5.124610306412e-01
5.191811127920e-01
5.259039946391e-01
5.326296729782e-01
5.393581446107e-01
5.460894063441e-01
5.528234549917e-01
5.595602873730e-01
5.662999003130e-01
5.730422906430e-01
5.797874552000e-01
5.865353908269e-01
5.932860943723e-01
6.000395626909e-01
6.067957926430e-01
6.135547810948e-01
6.203165249183e-01
6.270810209914e-01
6.338482661974e-01
6.406182574256e-01
6.473909915711e-01
6.541664655346e-01
6.609446762225e-01
6.677256205468e-01
6.745092954254e-01
6.812956977817e-01
6.880848245448e-01
6.948766726493e-01
7.016712390356e-01
7.084685206495e-01
7.152685144427e-01
7.220712173722e-01
7.288766264005e-01
7.356847384959e-01
7.424955506321e-01
7.493090597883e-01
7.561252629492e-01
7.629441571050e-01
7.697657392514e-01
7.765900063895e-01
7.834169555258e-01
7.902465836725e-01
7.970788878470e-01
8.039138650719e-01
8.107515123757e-01
8.175918267918e-01
8.244348053593e-01
8.312804451224e-01
8.381287431307e-01
8.449796964394e-01
8.518333021085e-01
8.586895572037e-01
8.655484587958e-01
8.724100039610e-01
8.792741897805e-01
8.861410133411e-01
8.930104717346e-01
8.998825620580e-01
9.067572814136e-01
9.136346269088e-01
9.205145956563e-01
9.273971847739e-01
9.342823913844e-01
9.411702126160e-01
9.480606456019e-01
9.549536874803e-01
9.618493353948e-01
9.687475864937e-01
9.756484379308e-01
9.825518868646e-01
9.894579304587e-01
9.963665658820e-01
1.003277790308e+00
1.010191600916e+00
1.017107994889e+00
1.024026969416e+00
1.030948521691e+00
1.037872648913e+00
1.044799348285e+00
1.051728617015e+00
1.058660452318e+00
1.065594851411e+00
1.072531811518e+00
1.079471329867e+00
1.086413403692e+00
1.093358030229e+00
1.100305206722e+00
1.107254930419e+00
1.114207198572e+00
1.121162008438e+00
1.128119357279e+00
1.135079242363e+00
1.142041660960e+00
1.149006610348e+00
1.155974087807e+00
1.162944090623e+00
1.169916616088e+00
1.176891661495e+00
1.183869224147e+00
1.190849301346e+00
1.197831890404e+00
1.204816988633e+00
1.211804593353e+00
1.218794701888e+00
1.225787311565e+00
1.232782419717e+00
1.239780023682e+00
1.246780120801e+00
1.253782708421e+00
1.260787783894e+00
1.267795344575e+00
1.274805387824e+00
1.281817911007e+00
1.288832911492e+00
1.295850386654e+00
1.302870333871e+00
1.309892750526e+00
1.316917634007e+00
1.323944981706e+00
1.330974791019e+00
1.338007059346e+00
1.345041784094e+00
1.352078962673e+00
1.359118592496e+00
1.366160670981e+00
1.373205195554e+00
1.380252163640e+00
1.387301572671e+00
1.394353420085e+00
1.401407703321e+00
1.408464419825e+00
1.415523567045e+00
1.422585142437e+00
1.429649143457e+00
1.436715567568e+00
1.443784412237e+00
1.450855674935e+00
1.457929353137e+00
1.465005444322e+00
1.472083945975e+00
1.479164855583e+00
1.486248170639e+00
1.493333888639e+00
1.500422007084e+00
1.507512523480e+00
1.514605435334e+00
1.521700740162e+00
1.528798435479e+00
1.535898518809e+00
1.543000987677e+00
1.550105839613e+00
1.557213072152e+00
1.564322682831e+00
1.571434669194e+00
1.578549028786e+00
1.585665759160e+00
1.592784857869e+00
1.599906322473e+00
1.607030150535e+00
1.614156339621e+00
1.621284887304e+00
1.628415791157e+00
1.635549048761e+00
1.642684657699e+00
1.649822615559e+00
1.656962919930e+00
1.664105568410e+00
1.671250558596e+00
1.678397888094e+00
1.685547554509e+00
1.692699555454e+00
1.699853888543e+00
1.707010551395e+00
1.714169541635e+00
1.721330856888e+00
1.728494494787e+00
1.735660452965e+00
1.742828729062e+00
1.749999320721e+00
1.757172225587e+00
1.764347441312e+00
1.771524965551e+00
1.778704795960e+00
1.785886930202e+00
1.793071365944e+00
1.800258100854e+00
1.807447132607e+00
1.814638458880e+00
1.821832077354e+00
1.829027985714e+00
1.836226181650e+00
1.843426662852e+00
1.850629427019e+00
1.857834471849e+00
1.865041795048e+00
1.872251394321e+00
1.879463267382e+00
1.886677411945e+00
1.893893825728e+00
1.901112506455e+00
1.908333451851e+00
1.915556659647e+00
1.922782127576e+00
1.930009853375e+00
1.937239834786e+00
1.944472069553e+00
1.951706555424e+00
1.958943290151e+00
1.966182271490e+00
1.973423497200e+00
1.980666965044e+00
1.987912672788e+00
1.995160618203e+00
2.002410799062e+00
2.009663213142e+00
2.016917858224e+00
2.024174732092e+00
2.031433832535e+00
2.038695157344e+00
2.045958704314e+00
2.053224471243e+00
2.060492455934e+00
2.067762656193e+00
2.075035069828e+00
2.082309694653e+00
2.089586528483e+00
2.096865569138e+00
2.104146814441e+00
2.111430262220e+00
2.118715910303e+00
2.126003756526e+00
2.133293798724e+00
2.140586034738e+00
2.147880462412e+00
2.155177079594e+00
2.162475884135e+00
2.169776873888e+00
2.177080046711e+00
2.184385400465e+00
2.191692933015e+00
2.199002642228e+00
2.206314525975e+00
2.213628582132e+00
2.220944808576e+00
2.228263203187e+00
2.235583763852e+00
2.242906488458e+00
2.250231374896e+00
2.257558421060e+00
2.264887624849e+00
2.272218984164e+00
2.279552496910e+00
2.286888160994e+00
2.294225974327e+00
2.301565934825e+00
2.308908040404e+00
2.316252288985e+00
2.323598678494e+00
2.330947206857e+00
2.338297872005e+00
2.345650671872e+00
2.353005604395e+00
2.360362667515e+00
2.367721859175e+00
2.375083177323e+00
2.382446619908e+00
2.389812184883e+00
2.397179870206e+00
2.404549673836e+00
2.411921593735e+00
2.419295627869e+00
2.426671774209e+00
2.434050030725e+00
2.441430395394e+00
2.448812866194e+00
2.456197441107e+00
2.463584118117e+00
2.470972895214e+00
2.478363770387e+00
2.485756741632e+00
2.493151806945e+00
2.500548964327e+00
2.507948211781e+00
2.515349547314e+00
2.522752968936e+00
2.530158474660e+00
2.537566062500e+00
2.544975730477e+00
2.552387476612e+00
2.559801298929e+00
2.567217195458e+00
2.574635164229e+00
2.582055203275e+00
2.589477310635e+00
2.596901484348e+00
2.604327722457e+00
2.611756023008e+00
2.619186384051e+00
2.626618803637e+00
2.634053279822e+00
2.641489810663e+00
2.648928394221e+00
2.656369028561e+00
2.663811711749e+00
2.671256441855e+00
2.678703216952e+00
2.686152035115e+00
2.693602894423e+00
2.701055792958e+00
2.708510728805e+00
2.715967700049e+00
2.723426704783e+00
2.730887741098e+00
2.738350807092e+00
2.745815900862e+00
2.753283020511e+00
2.760752164144e+00
2.768223329867e+00
2.775696515793e+00
2.783171720033e+00
2.790648940703e+00
2.798128175924e+00
2.805609423816e+00
2.813092682505e+00
2.820577950118e+00
2.828065224784e+00
2.835554504638e+00
2.843045787814e+00
2.850539072453e+00
2.858034356694e+00
2.865531638684e+00
2.873030916567e+00
2.880532188496e+00
2.888035452621e+00
2.895540707099e+00
2.903047950087e+00
2.910557179747e+00
2.918068394242e+00
2.925581591738e+00
2.933096770405e+00
2.940613928415e+00
2.948133063941e+00
2.955654175162e+00
2.963177260258e+00
2.970702317410e+00
2.978229344805e+00
2.985758340631e+00
2.993289303078e+00
3.000822230340e+00
3.008357120614e+00
3.015893972097e+00
3.023432782992e+00
3.030973551503e+00
3.038516275836e+00
3.046060954202e+00
3.053607584811e+00
3.061156165880e+00
3.068706695625e+00
3.076259172267e+00
3.083813594028e+00
3.091369959134e+00
3.098928265812e+00
3.106488512293e+00
3.114050696810e+00
3.121614817599e+00
3.129180872898e+00
3.136748860948e+00
3.144318779993e+00
3.151890628279e+00
3.159464404054e+00
3.167040105569e+00
3.174617731079e+00
3.182197278840e+00
3.189778747110e+00
3.197362134151e+00
3.204947438227e+00
3.212534657604e+00
3.220123790552e+00
3.227714835342e+00
3.235307790248e+00
3.242902653547e+00
3.250499423518e+00
3.258098098442e+00
3.265698676604e+00
3.273301156290e+00
3.280905535790e+00
3.288511813394e+00
3.296119987397e+00
3.303730056096e+00
3.311342017789e+00
3.318955870778e+00
3.326571613367e+00
3.334189243863e+00
3.341808760573e+00
3.349430161810e+00
3.357053445887e+00
3.364678611121e+00
3.372305655829e+00
3.379934578333e+00
3.387565376956e+00
3.395198050025e+00
3.402832595867e+00
3.410469012813e+00
3.418107299196e+00
3.425747453352e+00
3.433389473618e+00
3.441033358335e+00
3.448679105845e+00
3.456326714494e+00
3.463976182628e+00
3.471627508597e+00
3.479280690754e+00
3.486935727453e+00
3.494592617051e+00
3.502251357907e+00
3.509911948382e+00
3.517574386840e+00
3.525238671648e+00
3.532904801174e+00
3.540572773788e+00
3.548242587864e+00
3.555914241778e+00
3.563587733907e+00
3.571263062631e+00
3.578940226333e+00
3.586619223397e+00
3.594300052210e+00
3.601982711162e+00
3.609667198643e+00
3.617353513049e+00
3.625041652775e+00
3.632731616219e+00
3.640423401782e+00
3.648117007867e+00
3.655812432880e+00
3.663509675226e+00
3.671208733317e+00
3.678909605564e+00
3.686612290381e+00
3.694316786184e+00
3.702023091393e+00
3.709731204428e+00
3.717441123712e+00
3.725152847670e+00
3.732866374730e+00
3.740581703321e+00
3.748298831876e+00
3.756017758828e+00
3.763738482614e+00
3.771461001673e+00
3.779185314444e+00
3.786911419371e+00
3.794639314899e+00
3.802368999475e+00
3.810100471548e+00
3.817833729570e+00
3.825568771995e+00
3.833305597279e+00
3.841044203879e+00
3.848784590256e+00
3.856526754871e+00
3.864270696190e+00
3.872016412679e+00
3.879763902807e+00
3.887513165045e+00
3.895264197865e+00
3.903016999743e+00
3.910771569155e+00
3.918527904582e+00
3.926286004505e+00
3.934045867406e+00
3.941807491773e+00
3.949570876092e+00
3.957336018853e+00
3.965102918548e+00
3.972871573672e+00
3.980641982720e+00
3.988414144190e+00
3.996188056583e+00
4.003963718401e+00
4.011741128148e+00
4.019520284330e+00
4.027301185457e+00
4.035083830039e+00
4.042868216587e+00
4.050654343618e+00
4.058442209647e+00
4.066231813193e+00
4.074023152776e+00
4.081816226921e+00
4.089611034150e+00
4.097407572992e+00
4.105205841975e+00
4.113005839629e+00
4.120807564488e+00
4.128611015086e+00
4.136416189960e+00
4.144223087649e+00
4.152031706695e+00
4.159842045638e+00
4.167654103026e+00
4.175467877403e+00
4.183283367319e+00
4.191100571325e+00
4.198919487973e+00
4.206740115819e+00
4.214562453418e+00
4.222386499329e+00
4.230212252113e+00
4.238039710332e+00
4.245868872551e+00
4.253699737337e+00
4.261532303256e+00
4.269366568881e+00
4.277202532782e+00
4.285040193534e+00
4.292879549714e+00
4.300720599898e+00
4.308563342668e+00
4.316407776604e+00
4.324253900291e+00
4.332101712314e+00
4.339951211261e+00
4.347802395721e+00
4.355655264286e+00
4.363509815548e+00
4.371366048103e+00
4.379223960549e+00
4.387083551482e+00
4.394944819506e+00
4.402807763222e+00
4.410672381234e+00
4.418538672150e+00
4.426406634577e+00
4.434276267126e+00
4.442147568408e+00
4.450020537037e+00
4.457895171630e+00
4.465771470803e+00
4.473649433177e+00
4.481529057371e+00
4.489410342010e+00
4.497293285718e+00
4.505177887122e+00
4.513064144850e+00
4.520952057533e+00
4.528841623804e+00
4.536732842295e+00
4.544625711644e+00
4.552520230487e+00
4.560416397464e+00
4.568314211217e+00
4.576213670387e+00
4.584114773622e+00
4.592017519566e+00
4.599921906868e+00
4.607827934179e+00
4.615735600151e+00
4.623644903437e+00
4.631555842693e+00
4.639468416577e+00
4.647382623747e+00
4.655298462865e+00
4.663215932592e+00
4.671135031594e+00
4.679055758537e+00
4.686978112088e+00
4.694902090918e+00
4.702827693698e+00
4.710754919100e+00
4.718683765800e+00
4.726614232475e+00
4.734546317803e+00
4.742480020463e+00
4.750415339139e+00
4.758352272513e+00
4.766290819271e+00
4.774230978100e+00
4.782172747689e+00
4.790116126727e+00
4.798061113908e+00
4.806007707925e+00
4.813955907474e+00
4.821905711252e+00
4.829857117957e+00
4.837810126292e+00
4.845764734958e+00
4.853720942658e+00
4.861678748100e+00
4.869638149990e+00
4.877599147038e+00
4.885561737954e+00
4.893525921450e+00
4.901491696242e+00
4.909459061044e+00
4.917428014574e+00
4.925398555551e+00
4.933370682697e+00
4.941344394733e+00
4.949319690384e+00
4.957296568375e+00
4.965275027434e+00
4.973255066290e+00
4.981236683673e+00
4.989219878316e+00
4.997204648953e+00
5.005190994319e+00
5.013178913152e+00
5.021168404190e+00
5.029159466174e+00
5.037152097846e+00
5.045146297950e+00
5.053142065231e+00
5.061139398436e+00
5.069138296313e+00
5.077138757613e+00
5.085140781087e+00
5.093144365489e+00
5.101149509574e+00
5.109156212098e+00
5.117164471820e+00
5.125174287498e+00
5.133185657895e+00
5.141198581773e+00
5.149213057897e+00
5.157229085033e+00
5.165246661948e+00
5.173265787412e+00
5.181286460196e+00
5.189308679071e+00
5.197332442812e+00
5.205357750193e+00
5.213384599993e+00
5.221412990990e+00
5.229442921964e+00
5.237474391696e+00
5.245507398970e+00
5.253541942570e+00
5.261578021283e+00
5.269615633897e+00
5.277654779200e+00
5.285695455985e+00
5.293737663043e+00
5.301781399168e+00
5.309826663157e+00
5.317873453805e+00
5.325921769911e+00
5.333971610277e+00
5.342022973702e+00
5.350075858990e+00
5.358130264946e+00
5.366186190376e+00
5.374243634087e+00
5.382302594889e+00
5.390363071592e+00
5.398425063009e+00
5.406488567952e+00
5.414553585237e+00
5.422620113681e+00
5.430688152101e+00
5.438757699318e+00
5.446828754151e+00
5.454901315424e+00
5.462975381961e+00
5.471050952587e+00
5.479128026129e+00
5.487206601416e+00
5.495286677276e+00
5.503368252543e+00
5.511451326047e+00
5.519535896624e+00
5.527621963110e+00
5.535709524341e+00
5.543798579156e+00
5.551889126394e+00
5.559981164899e+00
5.568074693512e+00
5.576169711077e+00
5.584266216442e+00
5.592364208452e+00
5.600463685956e+00
5.608564647805e+00
5.616667092851e+00
5.624771019945e+00
5.632876427943e+00
5.640983315700e+00
5.649091682074e+00
5.657201525922e+00
5.665312846106e+00
5.673425641486e+00
5.681539910926e+00
5.689655653290e+00
5.697772867442e+00
1.054348217446e+02
1.054348217446e+02
1.054348217446e+02
1.054348217446e+02
1.054348217446e+02
1.054348217446e+02
1.054348217446e+02
1.054348217446e+02
1.054348217446e+02
1.054348217446e+02
1.054348217446e+02
1.054348217446e+02
1.054348217446e+02
1.054348217446e+02
1.054348217446e+02
1.054348217446e+02
1.054348217446e+02
1.054348217446e+02
1.054348217446e+02
1.054348217446e+02
1.054348217446e+02
1.054348217446e+02
1.054348217446e+02
1.054348217446e+02
1.054348217446e+02
1.054348217446e+02
1.054348217446e+02
1.054348217446e+02
1.054348217446e+02
1.054348217446e+02
1.054348217446e+02
1.054348217446e+02
1.054348217446e+02
1.054348217446e+02
1.054348217446e+02
1.054348217446e+02
1.054348217446e+02
1.054348217446e+02
1.054348217446e+02
1.054348217446e+02
1.054348217446e+02
1.054348217446e+02
1.054348217446e+02
1.054348217446e+02
1.054348217446e+02
1.054348217446e+02
1.054348217446e+02
1.054348217446e+02
1.054348217446e+02
1.054348217446e+02
1.054348217446e+02
1.054348217446e+02
1.054348217446e+02
1.054348217446e+02
1.054348217446e+02
1.054348217446e+02
1.054348217446e+02
1.054348217446e+02
1.054348217446e+02
1.054348217446e+02
1.054348217446e+02
1.054348217446e+02
1.054348217446e+02
1.054348217446e+02
1.054348217446e+02
1.054348217446e+02
1.054348217446e+02
1.054348217446e+02
1.054348217446e+02
1.054348217446e+02
1.054348217446e+02
1.054348217446e+02
1.054348217446e+02
1.054348217446e+02
1.054348217446e+02
1.054348217446e+02
1.054348217446e+02
1.054348217446e+02
1.054348217446e+02
1.054348217446e+02
1.054348217446e+02
1.054348217446e+02
1.054348217446e+02
1.054348217446e+02
1.054348217446e+02
1.054348217446e+02
1.054348217446e+02
1.054348217446e+02
1.054348217446e+02
1.054348217446e+02
1.054348217446e+02
1.054348217446e+02
1.054348217446e+02
1.054348217446e+02
1.054348217446e+02
1.054348217446e+02
1.054348217446e+02
1.054348217446e+02
1.054348217446e+02
1.054348217446e+02
1.054348217446e+02
1.054348217446e+02
1.054348217446e+02
1.054348217446e+02
1.054348217446e+02
1.054348217446e+02
1.054348217446e+02
1.054348217446e+02
1.054348217446e+02
1.054348217446e+02
1.054348217446e+02
1.054348217446e+02
1.054348217446e+02
1.054348217446e+02
1.054348217446e+02
1.054348217446e+02
1.054348217446e+02
1.054348217446e+02
1.054348217446e+02
1.054348217446e+02
1.054348217446e+02
1.054348217446e+02
1.054348217446e+02
1.054348217446e+02
1.054348217446e+02
1.054348217446e+02
1.054348217446e+02
1.054348217446e+02
1.054348217446e+02
1.054348217446e+02
1.054348217446e+02
1.054348217446e+02
1.054348217446e+02
1.054348217446e+02
1.054348217446e+02
1.054348217446e+02
1.054348217446e+02
1.054348217446e+02
1.054348217446e+02
1.054348217446e+02
1.054348217446e+02
1.054348217446e+02
1.054348217446e+02
1.054348217446e+02
1.054348217446e+02
1.054348217446e+02
1.054348217446e+02
1.054348217446e+02
1.054348217446e+02
1.054348217446e+02
1.054348217446e+02
1.054348217446e+02
1.054348217446e+02
1.054348217446e+02
1.054348217446e+02
1.054348217446e+02
1.054348217446e+02
1.050402105284e+02
1.044902266328e+02
1.039431224180e+02
1.033988828063e+02
1.028574927987e+02
1.023189374750e+02
1.017832019929e+02
1.012502715878e+02
1.007201315727e+02
1.001927673371e+02
9.966816434726e+01
9.914630814549e+01
9.862718434978e+01
9.811077865341e+01
9.759707682459e+01
9.708606470604e+01
9.657772821460e+01
9.607205334087e+01
9.556902614878e+01
9.506863277524e+01
9.457085942974e+01
9.407569239398e+01
9.358311802148e+01
9.309312273723e+01
9.260569303728e+01
9.212081548840e+01
9.163847672768e+01
9.115866346219e+01
9.068136246860e+01
9.020656059281e+01
8.973424474960e+01
8.926440192225e+01
8.879701916222e+01
8.833208358874e+01
8.786958238851e+01
8.740950281529e+01
8.695183218961e+01
8.649655789836e+01
8.604366739450e+01
8.559314819665e+01
8.514498788882e+01
8.469917412000e+01
8.425569460386e+01
8.381453711841e+01
8.337568950563e+01
8.293913967119e+01
8.250487558406e+01
8.207288527621e+01
8.164315684227e+01
8.121567843922e+01
8.079043828604e+01
8.036742466340e+01
7.994662591331e+01
7.952803043886e+01
7.911162670382e+01
7.869740323239e+01
7.828534860884e+01
7.787545147723e+01
7.746770054106e+01
7.706208456299e+01
7.665859236452e+01
7.625721282567e+01
7.585793488468e+01
7.546074753773e+01
7.506563983859e+01
7.467260089837e+01
7.428161988516e+01
7.389268602380e+01
7.350578859553e+01
7.312091693771e+01
7.273806044354e+01
7.235720856174e+01
7.197835079630e+01
7.160147670614e+01
7.122657590487e+01
7.085363806048e+01
7.048265289504e+01
7.011361018445e+01
6.974649975814e+01
6.938131149879e+01
6.901803534206e+01
6.865666127630e+01
6.829717934229e+01
6.793957963293e+01
6.758385229302e+01
6.722998751895e+01
6.687797555845e+01
6.652780671030e+01
6.617947132408e+01
6.583295979991e+01
6.548826258814e+01
6.514537018917e+01
6.480427315309e+01
6.446496207952e+01
6.412742761726e+01
6.379166046408e+01
6.345765136647e+01
6.312539111936e+01
6.279487056588e+01
6.246608059710e+01
6.213901215179e+01
6.181365621617e+01
6.149000382364e+01
6.116804605455e+01
6.084777403598e+01
6.052917894142e+01
6.021225199062e+01
5.989698444928e+01
5.958336762884e+01
5.927139288622e+01
5.896105162362e+01
5.865233528823e+01
5.834523537204e+01
5.803974341157e+01
5.773585098768e+01
5.743354972529e+01
5.713283129318e+01
5.683368740376e+01
5.653610981281e+01
5.624009031929e+01
5.594562076512e+01
5.565269303489e+01
5.536129905573e+01
5.507143079700e+01
5.478308027013e+01
5.449623952838e+01
5.421090066659e+01
5.392705582104e+01
5.364469716913e+01
5.336381692926e+01
5.308440736054e+01
5.280646076266e+01
5.252996947557e+01
5.225492587936e+01
5.198132239402e+01
5.170915147921e+01
5.143840563410e+01
5.116907739709e+01
5.090115934569e+01
5.063464409626e+01
5.036952430381e+01
5.010579266181e+01
4.984344190201e+01
4.958246479418e+01
4.932285414597e+01
4.906460280269e+01
4.880770364711e+01
4.855214959924e+01
4.829793361620e+01
4.804504869196e+01
4.779348785718e+01
4.754324417902e+01
4.729431076092e+01
4.704668074244e+01
4.680034729907e+01
4.655530364202e+01
4.631154301806e+01
4.606905870930e+01
4.582784403303e+01
4.558789234155e+01
4.534919702194e+01
4.511175149592e+01
4.487554921965e+01
4.464058368355e+01
4.440684841213e+01
4.417433696380e+01
4.394304293070e+01
4.371295993852e+01
4.348408164633e+01
4.325640174640e+01
4.302991396401e+01
4.280461205732e+01
4.258048981716e+01
4.235754106687e+01
4.213575966212e+01
4.191513949078e+01
4.169567447269e+01
4.147735855955e+01
4.126018573472e+01
4.104415001306e+01
4.082924544076e+01
4.061546609521e+01
4.040280608478e+01
4.019125954871e+01
3.998082065692e+01
3.977148360985e+01
3.956324263831e+01
3.935609200332e+01
3.915002599595e+01
3.894503893715e+01
3.874112517762e+01
3.853827909763e+01
3.833649510689e+01
3.813576764434e+01
3.793609117810e+01
3.773746020519e+01
3.753986925149e+01
3.734331287152e+01
3.714778564832e+01
3.695328219328e+01
3.675979714603e+01
3.656732517425e+01
3.637586097352e+01
3.618539926724e+01
3.599593480640e+01
3.580746236949e+01
3.561997676233e+01
3.543347281795e+01
3.524794539642e+01
3.506338938472e+01
3.487979969663e+01
3.469717127253e+01
3.451549907930e+01
3.433477811017e+01
3.415500338461e+01
3.397616994813e+01
3.379827287221e+01
3.362130725412e+01
3.344526821682e+01
3.327015090877e+01
3.309595050386e+01
3.292266220125e+01
3.275028122523e+01
3.257880282510e+01
3.240822227501e+01
3.223853487389e+01
3.206973594527e+01
3.190182083715e+01
3.173478492192e+01
3.156862359616e+01
3.140333228060e+01
3.123890641990e+01
3.107534148261e+01
3.091263296098e+01
3.075077637087e+01
3.058976725163e+01
3.042960116594e+01
3.027027369975e+01
3.011178046209e+01
2.995411708499e+01
2.979727922335e+01
2.964126255484e+01
2.948606277973e+01
2.933167562082e+01
2.917809682330e+01
2.902532215465e+01
2.887334740450e+01
2.872216838453e+01
2.857178092833e+01
2.842218089135e+01
2.827336415068e+01
2.812532660506e+01
2.797806417466e+01
2.783157280102e+01
2.768584844695e+01
2.754088709637e+01
2.739668475426e+01
2.725323744648e+01
2.711054121973e+01
2.696859214139e+01
2.682738629944e+01
2.668691980235e+01
2.654718877895e+01
2.640818937834e+01
2.626991776980e+01
2.613237014265e+01
2.599554270618e+01
2.585943168950e+01
2.572403334150e+01
2.558934393068e+01
2.545535974509e+01
2.532207709221e+01
2.518949229888e+01
2.505760171113e+01
2.492640169415e+01
2.479588863216e+01
2.466605892831e+01
2.453690900456e+01
2.440843530165e+01
2.428063427892e+01
2.415350241425e+01
2.402703620398e+01
2.390123216279e+01
2.377608682360e+01
2.365159673748e+01
2.352775847358e+01
2.340456861899e+01
2.328202377868e+01
2.316012057540e+01
2.303885564958e+01
2.291822565924e+01
2.279822727990e+01
2.267885720447e+01
2.256011214321e+01
2.244198882358e+01
2.232448399017e+01
2.220759440463e+01
2.209131684557e+01
2.197564810844e+01
2.186058500551e+01
2.174612436570e+01
2.163226303456e+01
2.151899787414e+01
2.140632576294e+01
2.129424359578e+01
2.118274828375e+01
2.107183675412e+01
2.096150595025e+01
2.085175283148e+01
2.074257437309e+01
2.063396756620e+01
2.052592941768e+01
2.041845695007e+01
2.031154720150e+01
2.020519722561e+01
2.009940409146e+01
1.999416488346e+01
1.988947670130e+01
1.978533665983e+01
1.968174188903e+01
1.957868953389e+01
1.947617675437e+01
1.937420072526e+01
1.927275863620e+01
1.917184769149e+01
1.907146511009e+01
1.897160812554e+01
1.887227398585e+01
1.877345995341e+01
1.867516330500e+01
1.857738133162e+01
1.848011133846e+01
1.838335064482e+01
1.828709658405e+01
1.819134650345e+01
1.809609776421e+01
1.800134774134e+01
1.790709382358e+01
1.781333341338e+01
1.772006392674e+01
1.762728279322e+01
1.753498745585e+01
1.744317537102e+01
1.735184400845e+01
1.726099085110e+01
1.717061339514e+01
1.708070914980e+01
1.699127563740e+01
1.690231039320e+01
1.681381096539e+01
1.672577491496e+01
1.663819981572e+01
1.655108325415e+01
1.646442282937e+01
1.637821615307e+01
1.629246084947e+01
1.620715455520e+01
1.612229491927e+01
1.603787960302e+01
1.595390628000e+01
1.587037263597e+01
1.578727636880e+01
1.570461518840e+01
1.562238681670e+01
1.554058898753e+01
1.545921944659e+01
1.537827595139e+01
1.529775627120e+01
1.521765818692e+01
1.513797949112e+01
1.505871798790e+01
1.497987149286e+01
1.490143783306e+01
1.482341484689e+01
1.474580038411e+01
1.466859230570e+01
1.459178848387e+01
1.451538680195e+01
1.443938515435e+01
1.436378144652e+01
1.428857359488e+01
1.421375952673e+01
1.413933718025e+01
1.406530450441e+01
1.399165945891e+01
1.391840001415e+01
1.384552415113e+01
1.377302986145e+01
1.370091514720e+01
1.362917802095e+01
1.355781650567e+01
1.348682863468e+01
1.341621245159e+01
1.334596601027e+01
1.327608737476e+01
1.320657461926e+01
1.313742582803e+01
1.306863909537e+01
1.300021252556e+01
1.293214423280e+01
1.286443234117e+01
1.279707498458e+01
1.273007030668e+01
1.266341646086e+01
1.259711161019e+01
1.253115392734e+01
1.246554159455e+01
1.240027280358e+01
1.233534575565e+01
1.227075866141e+01
1.220650974088e+01
1.214259722338e+01
1.207901934751e+01
1.201577436111e+01
1.195286052117e+01
1.189027609382e+01
1.182801935425e+01
1.176608858670e+01
1.170448208438e+01
1.164319814944e+01
1.158223509294e+01
1.152159123473e+01
1.146126490351e+01
1.140125443671e+01
1.134155818045e+01
1.128217448954e+01
1.122310172736e+01
1.116433826590e+01
1.110588248566e+01
1.104773277560e+01
1.098988753314e+01
1.093234516407e+01
1.087510408254e+01
1.081816271099e+01
1.076151948014e+01
1.070517282890e+01
1.064912120436e+01
1.059336306175e+01
1.053789686438e+01
1.048272108360e+01
1.042783419876e+01
1.037323469719e+01
1.031892107411e+01
1.026489183264e+01
1.021114548373e+01
1.015768054611e+01
1.010449554629e+01
1.005158901847e+01
9.998959504526e+00
9.946605553984e+00
9.894525723943e+00
9.842718579062e+00
9.791182691512e+00
9.739916640936e+00
9.688919014413e+00
9.638188406416e+00
9.587723418775e+00
9.537522660636e+00
9.487584748426e+00
9.437908305811e+00
9.388491963663e+00
9.339334360015e+00
9.290434140032e+00
9.241789955964e+00
9.193400467117e+00
9.145264339813e+00
9.097380247350e+00
9.049746869970e+00
9.002362894820e+00
8.955227015918e+00
8.908337934111e+00
8.861694357048e+00
8.815294999135e+00
8.769138581506e+00
8.723223831987e+00
8.677549485055e+00
8.632114281810e+00
8.586916969937e+00
8.541956303670e+00
8.497231043762e+00
8.452739957444e+00
8.408481818397e+00
8.364455406714e+00
8.320659508869e+00
8.277092917681e+00
8.233754432281e+00
8.190642858081e+00
8.147757006737e+00
8.105095696119e+00
8.062657750278e+00
8.020441999409e+00
7.978447279827e+00
7.936672433926e+00
7.895116310152e+00
7.853777762967e+00
7.812655652823e+00
7.771748846125e+00
7.731056215201e+00
7.690576638271e+00
7.650308999417e+00
7.610252188548e+00
7.570405101372e+00
7.530766639368e+00
7.491335709747e+00
7.452111225430e+00
7.413092105014e+00
7.374277272740e+00
7.335665658466e+00
7.297256197637e+00
7.259047831252e+00
7.221039505839e+00
7.183230173420e+00
7.145618791487e+00
7.108204322970e+00
7.070985736207e+00
7.033962004918e+00
6.997132108174e+00
6.960495030368e+00
6.924049761188e+00
6.887795295587e+00
6.851730633757e+00
6.815854781098e+00
6.780166748191e+00
6.744665550771e+00
6.709350209700e+00
6.674219750934e+00
6.639273205504e+00
6.604509609479e+00
6.569928003948e+00
6.535527434985e+00
6.501306953628e+00
6.467265615846e+00
6.433402482518e+00
6.399716619404e+00
6.366207097115e+00
6.332872991094e+00
6.299713381581e+00
6.266727353593e+00
6.233913996896e+00
6.201272405977e+00
6.168801680021e+00
6.136500922883e+00
6.104369243063e+00
6.072405753681e+00
6.040609572450e+00
6.008979821651e+00
5.977515628109e+00
5.946216123166e+00
5.915080442656e+00
5.884107726880e+00
5.853297120583e+00
5.822647772926e+00
5.792158837463e+00
5.761829472115e+00
5.731658839147e+00
5.701646105144e+00
5.671790440982e+00
5.642091021809e+00
5.612547027018e+00
5.583157640223e+00
5.553922049234e+00
5.524839446036e+00
5.495909026762e+00
5.467129991669e+00
5.438501545116e+00
5.410022895539e+00
5.381693255428e+00
5.353511841302e+00
5.325477873688e+00
5.297590577093e+00
5.269849179985e+00
5.242252914768e+00
5.214801017759e+00
5.187492729162e+00
5.160327293049e+00
5.133303957333e+00
5.106421973748e+00
5.079680597825e+00
5.053079088866e+00
5.026616709926e+00
5.000292727786e+00
4.974106412932e+00
4.948057039532e+00
4.922143885412e+00
4.896366232036e+00
4.870723364479e+00
4.845214571408e+00
4.819839145059e+00
4.794596381210e+00
4.769485579164e+00
4.744506041724e+00
4.719657075170e+00
4.694937989238e+00
4.670348097093e+00
4.645886715314e+00
4.621553163864e+00
4.597346766074e+00
4.573266848614e+00
4.549312741475e+00
4.525483777948e+00
4.501779294595e+00
4.478198631234e+00
4.454741130909e+00
4.431406139875e+00
4.408193007571e+00
4.385101086599e+00
4.362129732700e+00
4.339278304734e+00
4.316546164656e+00
4.293932677492e+00
4.271437211321e+00
4.249059137248e+00
4.226797829382e+00
4.204652664817e+00
4.182623023604e+00
4.160708288734e+00
4.138907846109e+00
4.117221084527e+00
4.095647395652e+00
4.074186173994e+00
4.052836816889e+00
4.031598724470e+00
4.010471299651e+00
3.989453948097e+00
3.968546078208e+00
3.947747101090e+00
3.927056430536e+00
3.906473482998e+00
3.885997677571e+00
3.865628435962e+00
3.845365182472e+00
3.825207343970e+00
3.805154349869e+00
3.785205632104e+00
3.765360625108e+00
3.745618765788e+00
3.725979493499e+00
3.706442250024e+00
3.687006479546e+00
3.667671628629e+00
3.648437146185e+00
3.629302483459e+00
3.610267094000e+00
3.591330433635e+00
3.572491960448e+00
3.553751134752e+00
3.535107419067e+00
3.516560278093e+00
3.498109178682e+00
3.479753589821e+00
3.461492982597e+00
3.443326830178e+00
3.425254607785e+00
3.407275792665e+00
3.389389864067e+00
3.371596303216e+00
3.353894593284e+00
3.336284219367e+00
3.318764668454e+00
3.301335429406e+00
3.283995992924e+00
3.266745851525e+00
3.249584499514e+00
3.232511432954e+00
3.215526149642e+00
3.198628149080e+00
3.181816932447e+00
3.165092002570e+00
3.148452863896e+00
3.131899022465e+00
3.115429985879e+00
3.099045263274e+00
3.082744365292e+00
3.066526804051e+00
3.050392093114e+00
3.034339747460e+00
3.018369283456e+00
3.002480218825e+00
2.986672072616e+00
2.970944365174e+00
2.955296618106e+00
2.939728354257e+00
2.924239097671e+00
2.908828373565e+00
2.893495708295e+00
2.878240629323e+00
2.863062665188e+00
2.847961345471e+00
2.832936200766e+00
2.817986762640e+00
2.803112563609e+00
2.788313137098e+00
2.773588017411e+00
2.758936739695e+00
2.744358839908e+00
2.729853854785e+00
2.715421321800e+00
2.701060779138e+00
2.686771765652e+00
2.672553820835e+00
2.658406484780e+00
2.644329298149e+00
2.630321802132e+00
2.616383538414e+00
2.602514049140e+00
2.588712876876e+00
2.574979564574e+00
2.561313655536e+00
2.547714693374e+00
2.534182221977e+00
2.520715785471e+00
2.507314928181e+00
2.493979194596e+00
2.480708129330e+00
2.467501277082e+00
2.454358182603e+00
2.441278390653e+00
2.428261445964e+00
2.415306893203e+00
2.402414276933e+00
2.389583141573e+00
2.376813031363e+00
2.364103490319e+00
2.351454062202e+00
2.338864290475e+00
2.326333718263e+00
2.313861888318e+00
2.301448342979e+00
2.289092624132e+00
2.276794273175e+00
2.264552830974e+00
2.252367837833e+00
2.240238833448e+00
2.228165356874e+00
2.216146946485e+00
2.204183139939e+00
2.192273474140e+00
2.180417485200e+00
2.168614708405e+00
2.156864678175e+00
2.145166928035e+00
2.133520990575e+00
2.121926397415e+00
2.110382679175e+00
2.098889365440e+00
2.087445984725e+00
2.076052064446e+00
2.064707130888e+00
2.053410709174e+00
2.042162323238e+00
2.030961495793e+00
2.019807748304e+00
2.008700600966e+00
1.997639572672e+00
1.986624180994e+00
1.975653942160e+00
1.964728371028e+00
1.953846981072e+00
1.943009284359e+00
1.932214791536e+00
1.921463011812e+00
1.910753452945e+00
1.900085621232e+00
1.889459021499e+00
1.878873157092e+00
1.868327529875e+00
1.857821640225e+00
1.847354987032e+00
1.836927067703e+00
1.826537378161e+00
1.816185412862e+00
1.805870664796e+00
1.795592625507e+00
1.785350785107e+00
1.775144632298e+00
1.764973654392e+00
1.754837337340e+00
1.744735165767e+00
1.734666622998e+00
1.724631191106e+00
1.714628350949e+00
1.704657582218e+00
1.694718363495e+00
1.684810172301e+00
1.674932485165e+00
1.665084777687e+00
1.655266524609e+00
1.645477199899e+00
1.635716276827e+00
1.625983228057e+00
1.616277525744e+00
1.606598641630e+00
1.596946047158e+00
1.587319213583e+00
1.577717612093e+00
1.568140713938e+00
1.558587990567e+00
1.549058913767e+00
1.539552955818e+00
1.530069589646e+00
1.520608288997e+00
1.511168528602e+00
1.501749784371e+00
1.492351533573e+00
1.482973255047e+00
1.473614429403e+00
1.464274539248e+00
1.454953069407e+00
1.445649507165e+00
1.436363342515e+00
1.427094068410e+00
1.417841181034e+00
1.408604180078e+00
1.399382569028e+00
1.390175855461e+00
1.380983551355e+00
1.371805173404e+00
1.362640243353e+00
1.353488288333e+00
1.344348841212e+00
1.335221440960e+00
1.326105633014e+00
1.317000969668e+00
1.307907010461e+00
1.298823322581e+00
1.289749481281e+00
1.280685070301e+00
1.271629682306e+00
1.262582919323e+00
1.253544393203e+00
1.244513726079e+00
1.235490550840e+00
1.226474511614e+00
1.217465264252e+00
1.208462476834e+00
1.199465830165e+00
1.190475018295e+00
1.181489749032e+00
1.172509744471e+00
1.163534741521e+00
1.154564492440e+00
1.145598765375e+00
1.136637344901e+00
1.127680032568e+00
1.118726647445e+00
1.109777026663e+00
1.100831025966e+00
1.091888520249e+00
1.082949404103e+00
1.074013592353e+00
1.065081020588e+00
1.056151645688e+00
1.047225446346e+00
1.038302423575e+00
1.029382601212e+00
1.020466026404e+00
1.011552770086e+00
1.002642927442e+00
9.937366183523e-01
9.848339878203e-01
9.759352063828e-01
9.670404704989e-01
9.581500029166e-01
9.492640530154e-01
9.403828971241e-01
9.315068388104e-01
9.226362091421e-01
9.137713669187e-01
9.049126988692e-01
8.960606198176e-01
8.872155728125e-01
8.783780292197e-01
8.695484887769e-01
8.607274796080e-01
8.519155581959e-01
8.431133093139e-01
8.343213459114e-01
8.255403089555e-01
8.167708672260e-01
8.080137170631e-01
7.992695820664e-01
7.905392127452e-01
7.818233861187e-01
7.731229052655e-01
7.644385988225e-01
7.557713204320e-01
7.471219481381e-01
7.384913837304e-01
7.298805520370e-01
7.212904001661e-01
7.127218966966e-01
7.041760308188e-01
6.956538114251e-01
6.871562661527e-01
6.786844403784e-01
6.702393961671e-01
6.618222111763e-01
6.534339775160e-01
6.450758005688e-01
6.367487977689e-01
6.284540973453e-01
6.201928370283e-01
6.119661627248e-01
6.037752271621e-01
5.956211885051e-01
5.875052089487e-01
5.794284532881e-01
5.713920874711e-01
5.633972771342e-01
5.554451861274e-01
5.475369750290e-01
5.396737996562e-01
5.318568095722e-01
5.240871465963e-01
5.163659433178e-01
5.086943216190e-01
5.010733912100e-01
4.935042481791e-01
4.859879735626e-01
4.785256319365e-01
4.711182700346e-01
4.637669153953e-01
4.564725750411e-01
4.492362341939e-01
4.420588550283e-01
4.349413754663e-01
4.278847080172e-01
4.208897386627e-01
4.139573257929e-01
4.070882991926e-01
4.002834590817e-01
3.935435752116e-01
3.868693860182e-01
3.802615978342e-01
3.737208841614e-01
3.672478850050e-01
3.608432062695e-01
3.545074192179e-01
3.482410599949e-01
3.420446292137e-01
3.359185916070e-01
3.298633757424e-01
3.238793738007e-01
3.179669414188e-01
3.121263975944e-01
3.063580246529e-01
3.006620682752e-01
2.950387375857e-01
2.894882052978e-01
2.840106079176e-01
2.786060460021e-01
2.732745844718e-01
2.680162529747e-01
2.628310463003e-01
2.577189248420e-01
2.526798151046e-01
2.477136102558e-01
2.428201707183e-01
2.379993248023e-01
2.332508693726e-01
2.285745705516e-01
2.239701644528e-01
2.194373579446e-01
2.149758294396e-01
2.105852297097e-01
2.062651827222e-01
2.020152864956e-01
1.978351139725e-01
1.937242139074e-01
1.896821117668e-01
1.857083106393e-01
1.818022921542e-01
1.779635174052e-01
1.741914278787e-01
1.704854463829e-01
1.668449779771e-01
1.632694108997e-01
1.597581174905e-01
1.563104551097e-01
1.529257670479e-01
1.496033834284e-01
1.463426220993e-01
1.431427895138e-01
1.400031815979e-01
1.369230846047e-01
1.339017759528e-01
1.309385250493e-01
1.280325940961e-01
1.251832388780e-01
1.223897095323e-01
1.196512512999e-01
1.169671052558e-01
1.143365090199e-01
1.117586974473e-01
1.092329032967e-01
1.067583578784e-01
1.043342916801e-01
1.019599349709e-01
9.963451838426e-02
9.735727347760e-02
9.512743327127e-02
9.294423276496e-02
9.080690943241e-02
8.871470369455e-02
8.666685937108e-02
8.466262411085e-02
8.270124980119e-02
8.078199295654e-02
7.890411508667e-02
7.706688304491e-02
7.526956935658e-02
7.351145252826e-02
7.179181733809e-02
7.010995510768e-02
6.846516395599e-02
6.685674903572e-02
6.528402275259e-02
6.374630496802e-02
6.224292318579e-02
6.077321272300e-02
5.933651686601e-02
5.793218701168e-02
5.655958279462e-02
5.521807220073e-02
5.390703166768e-02
5.262584617283e-02
5.137390930893e-02
5.015062334829e-02
4.895539929577e-02
4.778765693113e-02
4.664682484112e-02
4.553234044195e-02
4.444364999237e-02
4.338020859797e-02
4.234148020711e-02
4.132693759881e-02
4.033606236315e-02
3.936834487445e-02
3.842328425776e-02
3.750038834895e-02
3.659917364875e-02
3.571916527126e-02
3.485989688705e-02
3.402091066138e-02
3.320175718781e-02
3.240199541742e-02
3.162119258414e-02
3.085892412625e-02
3.011477360457e-02
2.938833261740e-02
2.867920071268e-02
2.798698529734e-02
2.731130154447e-02
2.665177229811e-02
2.600802797621e-02
2.537970647184e-02
2.476645305285e-02
2.416792026013e-02
2.358376780479e-02
2.301366246431e-02
2.245727797788e-02
2.191429494101e-02
2.138440069970e-02
2.086728924420e-02
2.036266110250e-02
1.987022323373e-02
1.938968892153e-02
1.892077766758e-02
1.846321508522e-02
1.801673279358e-02
1.758106831190e-02
1.715596495451e-02
1.674117172629e-02
1.633644321879e-02
1.594153950710e-02
1.555622604747e-02
1.518027357578e-02
1.481345800694e-02
1.445556033515e-02
1.410636653532e-02
1.376566746532e-02
1.343325876950e-02
1.310894078323e-02
1.279251843857e-02
1.248380117121e-02
1.218260282847e-02
1.188874157872e-02
1.160203982183e-02
1.132232410106e-02
1.104942501614e-02
1.078317713765e-02
1.052341892270e-02
1.026999263197e-02
1.002274424799e-02
9.781523394806e-03
9.546183258907e-03
9.316580511535e-03
9.092575232282e-03
8.874030834020e-03
8.660813989147e-03
8.452794557144e-03
8.249845513444e-03
8.051842879595e-03
7.858665654723e-03
7.670195748270e-03
7.486317914010e-03
7.306919685328e-03
7.131891311749e-03
6.961125696706e-03
6.794518336536e-03
6.631967260691e-03
6.473372973144e-03
6.318638394983e-03
6.167668808179e-03
6.020371800505e-03
5.876657211599e-03
5.736437080147e-03
5.599625592184e-03
5.466139030477e-03
5.335895724997e-03
5.208816004438e-03
5.084822148789e-03
4.963838342932e-03
4.845790631248e-03
4.730606873216e-03
4.618216699992e-03
4.508551471946e-03
4.401544237145e-03
4.297129690758e-03
4.195244135373e-03
4.095825442214e-03
3.998813013220e-03
3.904147744003e-03
3.811771987634e-03
3.721629519267e-03
3.633665501571e-03
3.547826450962e-03
3.464060204609e-03
3.382315888212e-03
3.302543884523e-03
3.224695802610e-03
3.148724447829e-03
3.074583792511e-03
3.002228947333e-03
2.931616133365e-03
2.862702654782e-03
2.795446872217e-03
2.729808176751e-03
2.665746964523e-03
2.603224611948e-03
2.542203451520e-03
2.482646748206e-03
2.424518676398e-03
2.367784297427e-03
2.312409537615e-03
2.258361166858e-03
2.205606777729e-03
2.154114765086e-03
2.103854306177e-03
2.054795341227e-03
2.006908554501e-03
1.960165355823e-03
1.914537862557e-03
1.869998882015e-03
1.826521894309e-03
1.784081035618e-03
1.742651081862e-03
1.702207432786e-03
1.662726096430e-03
1.624183673981e-03
1.586557345005e-03
1.549824853038e-03
1.513964491531e-03
1.478955090154e-03
1.444776001425e-03
1.411407087681e-03
1.378828708368e-03
1.347021707646e-03
1.315967402302e-03
1.285647569967e-03
1.256044437624e-03
1.227140670396e-03
1.198919360628e-03
1.171364017225e-03
1.144458555266e-03
1.118187285875e-03
1.092534906343e-03
1.067486490497e-03
1.043027479317e-03
1.019143671771e-03
9.958212159007e-04
9.730466001106e-04
9.508066446888e-04
9.290884935334e-04
9.078796060881e-04
8.871677494799e-04
8.669409908535e-04
8.471876898982e-04
8.278964915622e-04
8.090563189493e-04
7.906563663940e-04
7.726860927109e-04
7.551352146126e-04
7.379937002933e-04
7.212517631738e-04
7.048998558030e-04
6.889286639125e-04
6.733291006212e-04
6.580923007846e-04
6.432096154869e-04
6.286726066703e-04
6.144730419003e-04
6.006028892618e-04
5.870543123840e-04
5.738196655892e-04
5.608914891646e-04
5.482625047525e-04
5.359256108555e-04
5.238738784557e-04
5.121005467431e-04
5.005990189519e-04
4.893628583004e-04
4.783857840338e-04
4.676616675656e-04
4.571845287165e-04
4.469485320467e-04
4.369479832812e-04
4.271773258242e-04
4.176311373610e-04
4.083041265452e-04
3.991911297688e-04
3.902871080136e-04
3.815871437807e-04
3.730864380981e-04
3.647803076020e-04
3.566641816920e-04
3.487335997575e-04
3.409842084729e-04
3.334117591610e-04
3.260121052224e-04
3.187811996286e-04
3.117150924786e-04
3.048099286158e-04
2.980619453047e-04
2.914674699660e-04
2.850229179676e-04
2.787247904713e-04
2.725696723328e-04
2.665542300542e-04
2.606752097878e-04
2.549294353895e-04
2.493138065205e-04
2.438252967964e-04
2.384609519825e-04
2.332178882342e-04
2.280932903804e-04
2.230844102505e-04
2.181885650427e-04
2.134031357323e-04
2.087255655202e-04
2.041533583200e-04
1.996840772819e-04
1.953153433539e-04
1.910448338786e-04
1.868702812243e-04
1.827894714507e-04
1.788002430071e-04
1.749004854632e-04
1.710881382710e-04
1.673611895576e-04
1.637176749475e-04
1.601556764147e-04
1.566733211620e-04
1.532687805294e-04
1.499402689281e-04
1.466860428015e-04
1.435043996121e-04
1.403936768526e-04
1.373522510815e-04
1.343785369835e-04
1.314709864514e-04
1.286280876916e-04
1.258483643518e-04
1.231303746691e-04
1.204727106400e-04
1.178739972103e-04
1.153328914851e-04
1.128480819579e-04
1.104182877589e-04
1.080422579215e-04
1.057187706669e-04
1.034466327062e-04
1.012246785592e-04
9.905176989084e-05
9.692679486250e-05
9.484866750027e-05
9.281632707806e-05
9.082873751599e-05
8.888488679332e-05
8.698378637582e-05
8.512447065696e-05
8.330599641281e-05
8.152744227015e-05
7.978790818753e-05
7.808651494898e-05
7.642240366996e-05
7.479473531533e-05
7.320269022907e-05
7.164546767534e-05
7.012228539069e-05
6.863237914714e-05
6.717500232584e-05
6.574942550098e-05
6.435493603392e-05
6.299083767693e-05
6.165645018671e-05
6.035110894708e-05
5.907416460089e-05
5.782498269074e-05
5.660294330841e-05
5.540744075272e-05
5.423788319561e-05
5.309369235632e-05
5.197430318332e-05
5.087916354398e-05
4.980773392162e-05
4.875948711991e-05
4.773390797428e-05
4.673049307036e-05
4.574875046908e-05
4.478819943837e-05
4.384837019138e-05
4.292880363080e-05
4.202905109948e-05
4.114867413688e-05
4.028724424140e-05
3.944434263833e-05
3.861956005348e-05
3.781249649199e-05
3.702276102263e-05
3.624997156711e-05
3.549375469443e-05
3.475374542018e-05
3.402958701054e-05
3.332093079096e-05
3.262743595946e-05
3.194876940425e-05
3.128460552575e-05
3.063462606281e-05
2.999851992306e-05
2.937598301729e-05
2.876671809770e-05
2.817043460004e-05
2.758684848944e-05
2.701568210993e-05
2.645666403747e-05
2.590952893645e-05
2.537401741964e-05
2.484987591135e-05
2.433685651390e-05
2.383471687717e-05
2.334322007128e-05
2.286213446221e-05
2.239123359037e-05
2.193029605205e-05
2.147910538363e-05
2.103744994845e-05
2.060512282648e-05
2.018192170643e-05
1.976764878045e-05
1.936211064133e-05
1.896511818205e-05
1.857648649767e-05
1.819603478962e-05
1.782358627206e-05
1.745896808060e-05
1.710201118301e-05
1.675255029212e-05
1.641042378065e-05
1.607547359811e-05
1.574754518960e-05
1.542648741651e-05
1.511215247902e-05
1.480439584046e-05
1.450307615343e-05
1.420805518755e-05
1.391919775902e-05
1.363637166168e-05
1.335944759974e-05
1.308829912210e-05
1.282280255810e-05
1.256283695481e-05
1.230828401579e-05
1.205902804121e-05
1.181495586941e-05
1.157595681976e-05
1.134192263687e-05
1.111274743607e-05
1.088832765018e-05
1.066856197742e-05
1.045335133065e-05
1.024259878766e-05
1.003620954264e-05
9.834090858821e-06
9.636152022113e-06
9.442304295871e-06
9.252460876673e-06
9.066536851115e-06
8.884449153602e-06
8.706116525098e-06
8.531459472824e-06
8.360400230879e-06
8.192862721757e-06
8.028772518748e-06
7.868056809193e-06
7.710644358579e-06
7.556465475457e-06
7.405451977151e-06
7.257537156258e-06
7.112655747903e-06
6.970743897744e-06
6.831739130701e-06
6.695580320397e-06
6.562207659295e-06
6.431562629514e-06
6.303587974297e-06
6.178227670141e-06
6.055426899549e-06
5.935132024399e-06
5.817290559923e-06
5.701851149266e-06
5.588763538625e-06
5.477978552950e-06
5.369448072195e-06
5.263125008098e-06
5.158963281492e-06
5.056917800129e-06
4.956944436993e-06
4.859000009116e-06
4.763042256856e-06
4.669029823656e-06
4.576922236245e-06
4.486679885290e-06
4.398264006486e-06
4.311636662061e-06
4.226760722705e-06
4.143599849900e-06
4.062118478644e-06
3.982281800567e-06
3.904055747420e-06
3.827406974937e-06
3.752302847054e-06
3.678711420486e-06
3.606601429642e-06
3.535942271883e-06
3.466703993100e-06
3.398857273628e-06
3.332373414457e-06
3.267224323761e-06
3.203382503726e-06
3.140821037665e-06
3.079513577427e-06
3.019434331077e-06
2.960558050862e-06
2.902860021430e-06
2.846316048318e-06
2.790902446699e-06
2.736596030368e-06
2.683374100979e-06
2.631214437521e-06
2.580095286020e-06
2.529995349476e-06
2.480893778021e-06
2.432770159286e-06
2.385604508996e-06
2.339377261756e-06
2.294069262051e-06
2.249661755444e-06
2.206136379959e-06
2.163475157663e-06
2.121660486431e-06
2.080675131887e-06
2.040502219529e-06
2.001125227021e-06
1.962527976661e-06
1.924694628005e-06
1.887609670662e-06
1.851257917240e-06
1.815624496450e-06
1.780694846362e-06
1.746454707804e-06
1.712890117908e-06
1.679987403798e-06
1.647733176415e-06
1.616114324477e-06
1.585118008568e-06
1.554731655360e-06
1.524942951958e-06
1.495739840373e-06
1.467110512105e-06
1.439043402855e-06
1.411527187347e-06
1.384550774263e-06
1.358103301285e-06
1.332174130251e-06
1.306752842412e-06
1.281829233790e-06
1.257393310643e-06
1.233435285020e-06
1.209945570421e-06
1.186914777542e-06
1.164333710120e-06
1.142193360862e-06
1.120484907467e-06
1.099199708725e-06
1.078329300716e-06
1.057865393071e-06
1.037799865329e-06
1.018124763370e-06
9.988322959141e-07
9.799148311123e-07
9.613648931969e-07
9.431751592111e-07
9.253384558070e-07
9.078477561123e-07
8.906961766642e-07
8.738769744092e-07
8.573835437675e-07
8.412094137598e-07
8.253482451958e-07
8.097938279230e-07
7.945400781345e-07
7.795810357339e-07
7.649108617567e-07
7.505238358472e-07
7.364143537888e-07
7.225769250866e-07
7.090061706029e-07
6.956968202416e-07
6.826437106829e-07
6.698417831655e-07
6.572860813171e-07
6.449717490297e-07
6.328940283809e-07
6.210482575994e-07
6.094298690731e-07
5.980343874000e-07
5.868574274805e-07
5.758946926496e-07
5.651419728492e-07
5.545951428388e-07
5.442501604444e-07
5.341030648439e-07
5.241499748896e-07
5.143870874651e-07
5.048106758779e-07
4.954170882851e-07
4.862027461531e-07
4.771641427492e-07
4.682978416650e-07
4.596004753715e-07
4.510687438040e-07
4.426994129768e-07
4.344893136279e-07
4.264353398906e-07
4.185344479949e-07
4.107836549945e-07
4.031800375217e-07
3.957207305676e-07
3.884029262886e-07
3.812238728373e-07
3.741808732185e-07
3.672712841682e-07
3.604925150572e-07
3.538420268169e-07
3.473173308878e-07
3.409159881896e-07
3.346356081137e-07
3.284738475357e-07
3.224284098491e-07
3.164970440188e-07
3.106775436550e-07
3.049677461054e-07
2.993655315672e-07
2.938688222168e-07
2.884755813584e-07
2.831838125895e-07
2.779915589844e-07
2.728969022943e-07
2.678979621641e-07
2.629928953652e-07
2.581798950448e-07
2.534571899900e-07
2.488230439080e-07
2.442757547203e-07
2.398136538720e-07
2.354351056556e-07
2.311385065481e-07
2.269222845626e-07
2.227848986125e-07
2.187248378895e-07
2.147406212539e-07
2.108307966379e-07
2.069939404607e-07
2.032286570564e-07
1.995335781127e-07
1.959073621223e-07
1.923486938441e-07
1.888562837773e-07
1.854288676446e-07
1.820652058869e-07
1.787640831685e-07
1.755243078920e-07
1.723447117232e-07
1.692241491258e-07
1.661614969061e-07
1.631556537662e-07
1.602055398669e-07
1.573100963992e-07
1.544682851650e-07
1.516790881661e-07
1.489415072014e-07
1.462545634726e-07
1.436172971980e-07
1.410287672339e-07
1.384880507039e-07
1.359942426357e-07
1.335464556055e-07
1.311438193890e-07
1.287854806204e-07
1.264706024576e-07
1.241983642548e-07
1.219679612409e-07
1.197786042055e-07
1.176295191903e-07
1.155199471875e-07
1.134491438439e-07
1.114163791710e-07
1.094209372612e-07
1.074621160096e-07
1.055392268412e-07
1.036515944444e-07
1.017985565086e-07
9.997946346858e-08
9.819367825274e-08
9.644057603733e-08
9.471954400512e-08
9.302998110918e-08
9.137129784134e-08
8.974291600528e-08
8.814426849428e-08
8.657479907339e-08
8.503396216595e-08
8.352122264445e-08
8.203605562559e-08
8.057794626944e-08
7.914638958260e-08
7.774089022541e-08
7.636096232290e-08
7.500612927961e-08
7.367592359812e-08
7.236988670115e-08
7.108756875732e-08
6.982852851028e-08
6.859233311136e-08
6.737855795551e-08
6.618678652052e-08
6.501661020946e-08
6.386762819629e-08
6.273944727447e-08
6.163168170869e-08
6.054395308950e-08
5.947589019082e-08
5.842712883031e-08
5.739731173255e-08
5.638608839487e-08
5.539311495591e-08
5.441805406678e-08
5.346057476472e-08
5.252035234936e-08
5.159706826139e-08
5.069040996360e-08
4.980007082435e-08
4.892575000332e-08
4.806715233948e-08
4.722398824135e-08
4.639597357938e-08
4.558282958049e-08
4.478428272466e-08
4.400006464360e-08
4.322991202139e-08
4.247356649711e-08
4.173077456936e-08
4.100128750271e-08
4.028486123592e-08
3.958125629205e-08
3.889023769029e-08
3.821157485954e-08
3.754504155367e-08
3.689041576849e-08
3.624747966031e-08
3.561601946615e-08
3.499582542542e-08
3.438669170326e-08
3.378841631531e-08
3.320080105395e-08
3.262365141604e-08
3.205677653201e-08
3.149998909638e-08
3.095310529964e-08
3.041594476147e-08
2.988833046521e-08
2.937008869366e-08
2.886104896614e-08
2.836104397678e-08
2.786990953395e-08
2.738748450095e-08
2.691361073783e-08
2.644813304433e-08
2.599089910396e-08
2.554175942911e-08
2.510056730732e-08
2.466717874852e-08
2.424145243333e-08
2.382324966233e-08
2.341243430638e-08
2.300887275786e-08
2.261243388283e-08
2.222298897420e-08
2.184041170572e-08
2.146457808692e-08
2.109536641891e-08
2.073265725101e-08
2.037633333826e-08
2.002627959974e-08
1.968238307766e-08
1.934453289728e-08
1.901262022761e-08
1.868653824284e-08
1.836618208454e-08
1.805144882454e-08
1.774223742862e-08
1.743844872080e-08
1.713998534838e-08
1.684675174761e-08
1.655865411010e-08
1.627560034975e-08
1.599750007046e-08
1.572426453434e-08
1.545580663058e-08
1.519204084496e-08
1.493288322986e-08
1.467825137491e-08
1.442806437816e-08
1.418224281788e-08
1.394070872477e-08
1.370338555484e-08
1.347019816270e-08
1.324107277545e-08
1.301593696699e-08
1.279471963290e-08
1.257735096572e-08
1.236376243076e-08
1.215388674234e-08
1.194765784054e-08
1.174501086829e-08
1.154588214900e-08
1.135020916456e-08
1.115793053376e-08
1.096898599117e-08
1.078331636636e-08
1.060086356352e-08
1.042157054155e-08
1.024538129442e-08
1.007224083197e-08
9.902095161033e-09
9.734891266981e-09
9.570577095543e-09
9.409101535022e-09
9.250414398825e-09
9.094466408333e-09
8.941209176097e-09
8.790595189340e-09
8.642577793790e-09
8.497111177801e-09
8.354150356785e-09
8.213651157937e-09
8.075570205243e-09
7.939864904780e-09
7.806493430285e-09
7.675414709000e-09
7.546588407788e-09
7.419974919501e-09
7.295535349616e-09
7.173231503114e-09
7.053025871610e-09
6.934881620726e-09
6.818762577700e-09
6.704633219227e-09
6.592458659530e-09
6.482204638657e-09
6.373837510994e-09
6.267324233994e-09
6.162632357123e-09
6.059730011003e-09
5.958585896773e-09
5.859169275633e-09
5.761449958596e-09
5.665398296428e-09
5.570985169775e-09
5.478181979474e-09
5.386960637053e-09
5.297293555395e-09
5.209153639589e-09
5.122514277945e-09
5.037349333178e-09
4.953633133759e-09
4.871340465422e-09
4.790446562838e-09
4.710927101433e-09
4.632758189367e-09
4.555916359659e-09
4.480378562461e-09
4.406122157471e-09
4.333124906490e-09
4.261364966122e-09
4.190820880597e-09
4.121471574741e-09
4.053296347071e-09
3.986274863013e-09
3.920387148255e-09
3.855613582216e-09
3.791934891641e-09
3.729332144312e-09
3.667786742874e-09
3.607280418780e-09
3.547795226342e-09
3.489313536899e-09
3.431818033086e-09
3.375291703213e-09
3.319717835747e-09
3.265080013894e-09
3.211362110286e-09
41 92.908 4.0421 fcc
0.000000000000e+00
-3.752697147827e-02
-7.486244324826e-02
-1.120069135333e-01
-1.489608805567e-01
-1.857248425417e-01
-2.222992977118e-01
-2.586847442901e-01
-2.948816805001e-01
-3.308906045651e-01
-3.667120147083e-01
-4.023464091531e-01
-4.377942861228e-01
-4.730561438407e-01
-5.081324805302e-01
-5.430237944146e-01
-5.777305837171e-01
-6.122533466612e-01
-6.465925814701e-01
-6.807487863671e-01
-7.147224595756e-01
-7.485140993188e-01
-7.821242038202e-01
-8.155532713030e-01
-8.488017999905e-01
-8.818702881061e-01
-9.147592338731e-01
-9.474691355148e-01
-9.800004912544e-01
-1.012353799315e+00
-1.044529557921e+00
-1.076528265295e+00
-1.108350419660e+00
-1.139996519239e+00
-1.171467062257e+00
-1.202762546936e+00
-1.233883471499e+00
-1.264830334170e+00
-1.295603633173e+00
-1.326203866729e+00
-1.356631533064e+00
-1.386887130400e+00
-1.416971156961e+00
-1.446884110969e+00
-1.476626490648e+00
-1.506198794222e+00
-1.535601519914e+00
-1.564835165946e+00
-1.593900230544e+00
-1.622797211928e+00
-1.651526608324e+00
-1.680088917954e+00
-1.708484639042e+00
-1.736714269811e+00
-1.764778308484e+00
-1.792677253285e+00
-1.820411602437e+00
-1.847981854163e+00
-1.875388506687e+00
-1.902632058231e+00
-1.929713007020e+00
-1.956631851276e+00
-1.983389089224e+00
-2.009985219085e+00
-2.036420739084e+00
-2.062696147444e+00
-2.088811942388e+00
-2.114768622139e+00
-2.140566684921e+00
-2.166206628958e+00
-2.191688952471e+00
-2.217014153686e+00
-2.242182730824e+00
-2.267195182110e+00
-2.292052005767e+00
-2.316753700017e+00
-2.341300763085e+00
-2.365693693194e+00
-2.389932988567e+00
-2.414019147427e+00
-2.437952667997e+00
-2.461734048502e+00
-2.485363787163e+00
-2.508842382206e+00
-2.532170331852e+00
-2.555348134325e+00
-2.578376287849e+00
-2.601255290647e+00
-2.623985640942e+00
-2.646567836957e+00
-2.669002376917e+00
-2.691289759043e+00
-2.713430481560e+00
-2.735425042691e+00
-2.757273940658e+00
-2.778977673686e+00
-2.800536739998e+00
-2.821951637817e+00
-2.843222865366e+00
-2.864350920869e+00
-2.885336302549e+00
-2.906179508630e+00
-2.926881037334e+00
-2.947441386884e+00
-2.967861055506e+00
-2.988140541420e+00
-3.008280342852e+00
-3.028280958024e+00
-3.048142885159e+00
-3.067866622482e+00
-3.087452668214e+00
-3.106901520580e+00
-3.126213677803e+00
-3.145389638106e+00
-3.164429899713e+00
-3.183334960846e+00
-3.202105319730e+00
-3.220741474586e+00
-3.239243923640e+00
-3.257613165114e+00
-3.275849697231e+00
-3.293954018215e+00
-3.311926626288e+00
-3.329768019676e+00
-3.347478696599e+00
-3.365059155283e+00
-3.382509893950e+00
-3.399831410824e+00
-3.417024204128e+00
-3.434088772085e+00
-3.451025612918e+00
-3.467835224852e+00
-3.484518106108e+00
-3.501074754911e+00
-3.517505669484e+00
-3.533811348051e+00
-3.549992288833e+00
-3.566048990056e+00
-3.581981949941e+00
-3.597791666714e+00
-3.613478638595e+00
-3.629043363810e+00
-3.644486340582e+00
-3.659808067133e+00
-3.675009041687e+00
-3.690089762468e+00
-3.705050727698e+00
-3.719892435601e+00
-3.734615384401e+00
-3.749220072320e+00
-3.763706997582e+00
-3.778076658411e+00
-3.792329553029e+00
-3.806466179660e+00
-3.820487036527e+00
-3.834392621854e+00
-3.848183433863e+00
-3.861859970779e+00
-3.875422730825e+00
-3.888872212223e+00
-3.902208913197e+00
-3.915433331971e+00
-3.928545966768e+00
-3.941547315811e+00
-3.954437877323e+00
-3.967218149528e+00
-3.979888630649e+00
-3.992449818910e+00
-4.004902212533e+00
-4.017246309742e+00
-4.029482608760e+00
-4.041611607812e+00
-4.053633805119e+00
-4.065549698905e+00
-4.077359787395e+00
-4.089064568810e+00
-4.100664541374e+00
-4.112160203311e+00
-4.123552052844e+00
-4.134840588196e+00
-4.146026307591e+00
-4.157109709251e+00
-4.168091291401e+00
-4.178971552263e+00
-4.189750990061e+00
-4.200430103018e+00
-4.211009389358e+00
-4.221489347303e+00
-4.231870475078e+00
-4.242153270904e+00
-4.252338233007e+00
-4.262425859609e+00
-4.272416648933e+00
-4.282311099203e+00
-4.292109708641e+00
-4.301812975472e+00
-4.311421397919e+00
-4.320935474205e+00
-4.330355702553e+00
-4.339682581187e+00
-4.348916608329e+00
-4.358058282204e+00
-4.367108101034e+00
-4.376066563043e+00
-4.384934166455e+00
-4.393711409492e+00
-4.402398790378e+00
-4.410996807336e+00
-4.419505958589e+00
-4.427926742362e+00
-4.436259656876e+00
-4.444505200356e+00
-4.452663871024e+00
-4.460736167105e+00
-4.468722586821e+00
-4.476623628396e+00
-4.484439790053e+00
-4.492171570015e+00
-4.499819466506e+00
-4.507383977749e+00
-4.514865601967e+00
-4.522264837384e+00
-4.529582182222e+00
-4.536818134706e+00
-4.543973193059e+00
-4.551047855504e+00
-4.558042620263e+00
-4.564957985562e+00
-4.571794449622e+00
-4.578552510667e+00
-4.585232666921e+00
-4.591835416607e+00
-4.598361257948e+00
-4.604810689167e+00
-4.611184208488e+00
-4.617482314134e+00
-4.623705504329e+00
-4.629854277295e+00
-4.635929131257e+00
-4.641930564437e+00
-4.647859075058e+00
-4.653715161345e+00
-4.659499321519e+00
-4.665212053806e+00
-4.670853856427e+00
-4.676425227607e+00
-4.681926665569e+00
-4.687358668535e+00
-4.692721734730e+00
-4.698016362376e+00
-4.703243049697e+00
-4.708402294916e+00
-4.713494596257e+00
-4.718520451942e+00
-4.723480360196e+00
-4.728374819242e+00
-4.733204327302e+00
-4.737969382600e+00
-4.742670483360e+00
-4.747308127804e+00
-4.751882814157e+00
-4.756395040640e+00
-4.760845305479e+00
-4.765234106896e+00
-4.769561943114e+00
-4.773829312357e+00
-4.778036712847e+00
-4.782184642809e+00
-4.786273600466e+00
-4.790304084041e+00
-4.794276591757e+00
-4.798191621837e+00
-4.802049672506e+00
-4.805851241985e+00
-4.809596828500e+00
-4.813286930272e+00
-4.816922045525e+00
-4.820502672483e+00
-4.824029309368e+00
-4.827502454405e+00
-4.830922605816e+00
-4.834290261825e+00
-4.837605920656e+00
-4.840870080530e+00
-4.844083239672e+00
-4.847245896306e+00
-4.850358548654e+00
-4.853421694939e+00
-4.856435833386e+00
-4.859401462216e+00
-4.862319079655e+00
-4.865189183924e+00
-4.868012273248e+00
-4.870788845850e+00
-4.873519399952e+00
-4.876204433779e+00
-4.878844445553e+00
-4.881439933498e+00
-4.883991395837e+00
-4.886499330794e+00
-4.888964236592e+00
-4.891386611453e+00
-4.893766953603e+00
-4.896105761263e+00
-4.898403532657e+00
-4.900660766009e+00
-4.902877959542e+00
-4.905055611478e+00
-4.907194220042e+00
-4.909294283457e+00
-4.911356299946e+00
-4.913380767732e+00
-4.915368185039e+00
-4.917319050089e+00
-4.919233861108e+00
-4.921113116316e+00
-4.922957313939e+00
-4.924766952199e+00
-4.926542529320e+00
-4.928284543524e+00
-4.929993187787e+00
-4.931669180677e+00
-4.933312345753e+00
-4.934922769782e+00
-4.936500539530e+00
-4.938045741765e+00
-4.939558463253e+00
-4.941038790761e+00
-4.942486811057e+00
-4.943902610907e+00
-4.945286277078e+00
-4.946637896337e+00
-4.947957555451e+00
-4.949245341186e+00
-4.950501340311e+00
-4.951725639592e+00
-4.952918325796e+00
-4.954079485689e+00
-4.955209206039e+00
-4.956307573612e+00
-4.957374675176e+00
-4.958410597498e+00
-4.959415427344e+00
-4.960389251481e+00
-4.961332156677e+00
-4.962244229698e+00
-4.963125557311e+00
-4.963976226283e+00
-4.964796323382e+00
-4.965585935373e+00
-4.966345149025e+00
-4.967074051103e+00
-4.967772728375e+00
-4.968441267608e+00
-4.969079755569e+00
-4.969688279024e+00
-4.970266924742e+00
-4.970815779487e+00
-4.971334930028e+00
-4.971824463132e+00
-4.972284465565e+00
-4.972715024094e+00
-4.973116225487e+00
-4.973488156510e+00
-4.973830903930e+00
-4.974144554514e+00
-4.974429195029e+00
-4.974684912242e+00
-4.974911792920e+00
-4.975109923830e+00
-4.975279391739e+00
-4.975420283414e+00
-4.975532685621e+00
-4.975616685128e+00
-4.975672368701e+00
-4.975699823108e+00
-4.975699135116e+00
-4.975670391490e+00
-4.975613679000e+00
-4.975529084410e+00
-4.975416694489e+00
-4.975276596003e+00
-4.975108875719e+00
-4.974913620404e+00
-4.974690916825e+00
-4.974440851749e+00
-4.974163511943e+00
-4.973858984174e+00
-4.973527355208e+00
-4.973168711814e+00
-4.972783140757e+00
-4.972370728804e+00
-4.971931562723e+00
-4.971465729281e+00
-4.970973315244e+00
-4.970454407379e+00
-4.969909092454e+00
-4.969337457235e+00
-4.968739588489e+00
-4.968115572983e+00
-4.967465497484e+00
-4.966789448760e+00
-4.966087513576e+00
-4.965359778700e+00
-4.964606330899e+00
-4.963827256940e+00
-4.963022643589e+00
-4.962192577615e+00
-4.961337145782e+00
-4.960456434860e+00
-4.959550531614e+00
-4.958619522811e+00
-4.957663495219e+00
-4.956682535604e+00
-4.955676730733e+00
-4.954646167374e+00
-4.953590932292e+00
-4.952511112256e+00
-4.951406794032e+00
-4.950278064386e+00
-4.949125010087e+00
-4.947947717901e+00
-4.946746274594e+00
-4.945520766934e+00
-4.944271281688e+00
-4.942997905622e+00
-4.941700725504e+00
-4.940379828100e+00
-4.939035300178e+00
-4.937667228505e+00
-4.936275699846e+00
-4.934860800970e+00
-4.933422761577e+00
-4.931961120669e+00
-4.930475981979e+00
-4.928967411627e+00
-4.927435475393e+00
-4.925880238727e+00
-4.924301766745e+00
-4.922700124235e+00
-4.921075375661e+00
-4.919427585161e+00
-4.917756816550e+00
-4.916063133328e+00
-4.914346598674e+00
-4.912607275455e+00
-4.910845226224e+00
-4.909060513225e+00
-4.907253198393e+00
-4.905423343359e+00
-4.903571009449e+00
-4.901696257689e+00
-4.899799148804e+00
-4.897879743223e+00
-4.895938101080e+00
-4.893974282216e+00
-4.891988346182e+00
-4.889980352238e+00
-4.887950359361e+00
-4.885898426238e+00
-4.883824611279e+00
-4.881728972608e+00
-4.879611568075e+00
-4.877472455249e+00
-4.875311691426e+00
-4.873129333629e+00
-4.870925438609e+00
-4.868700062848e+00
-4.866453262562e+00
-4.864185093698e+00
-4.861895611943e+00
-4.859584872719e+00
-4.857252931189e+00
-4.854899842257e+00
-4.852525660572e+00
-4.850130440526e+00
-4.847714236258e+00
-4.845277101656e+00
-4.842819090359e+00
-4.840340255756e+00
-4.837840650989e+00
-4.835320328959e+00
-4.832779342319e+00
-4.830217743483e+00
-4.827635584626e+00
-4.825032917681e+00
-4.822409794346e+00
-4.819766266086e+00
-4.817102384128e+00
-4.814418199471e+00
-4.811713762879e+00
-4.808989124890e+00
-4.806244335814e+00
-4.803479445733e+00
-4.800694504506e+00
-4.797889561768e+00
-4.795064666933e+00
-4.792219869193e+00
-4.789355217522e+00
-4.786470760677e+00
-4.783566547197e+00
-4.780642625410e+00
-4.777699043426e+00
-4.774735849145e+00
-4.771753090257e+00
-4.768750814243e+00
-4.765729068373e+00
-4.762687899714e+00
-4.759627355125e+00
-4.756547481262e+00
-4.753448324579e+00
-4.750329931326e+00
-4.747192347556e+00
-4.744035619119e+00
-4.740859791672e+00
-4.737664910671e+00
-4.734451021380e+00
-4.731218168867e+00
-4.727966398008e+00
-4.724695753486e+00
-4.721406279796e+00
-4.718098021241e+00
-4.714771021938e+00
-4.711425325815e+00
-4.708060976616e+00
-4.704678017899e+00
-4.701276493038e+00
-4.697856445227e+00
-4.694417917476e+00
-4.690960952616e+00
-4.687485593298e+00
-4.683991881996e+00
-4.680479861006e+00
-4.676949572449e+00
-4.673401058271e+00
-4.669834360242e+00
-4.666249519963e+00
-4.662646578861e+00
-4.659025578191e+00
-4.655386559041e+00
-4.651729562329e+00
-4.648054628805e+00
-4.644361799053e+00
-4.640651113491e+00
-4.636922612372e+00
-4.633176335785e+00
-4.629412323658e+00
-4.625630615755e+00
-4.621831251680e+00
-4.618014270877e+00
-4.614179712630e+00
-4.610327616068e+00
-4.606458020158e+00
-4.602570963716e+00
-4.598666485398e+00
-4.594744623709e+00
-4.590805416998e+00
-4.586848903463e+00
-4.582875121149e+00
-4.578884107951e+00
-4.574875901614e+00
-4.570850539733e+00
-4.566808059756e+00
-4.562748498980e+00
-4.558671894561e+00
-4.554578283504e+00
-4.550467702671e+00
-4.546340188782e+00
-4.542195778409e+00
-4.538034507986e+00
-4.533856413802e+00
-4.529661532007e+00
-4.525449898610e+00
-4.521221549481e+00
-4.516976520351e+00
-4.512714846813e+00
-4.508436564325e+00
-4.504141708205e+00
-4.499830313638e+00
-4.495502415675e+00
-4.491158049231e+00
-4.486797249088e+00
-4.482420049898e+00
-4.478026486176e+00
-4.473616592312e+00
-4.469190402561e+00
-4.464747951051e+00
-4.460289271779e+00
-4.455814398616e+00
-4.451323365304e+00
-4.446816205458e+00
-4.442292952568e+00
-4.437753639997e+00
-4.433198300985e+00
-4.428626968646e+00
-4.424039675973e+00
-4.419436455834e+00
-4.414817340975e+00
-4.410182364022e+00
-4.405531557479e+00
-4.400864953730e+00
-4.396182585041e+00
-4.391484483556e+00
-4.386770681304e+00
-4.382041210194e+00
-4.377296102019e+00
-4.372535388457e+00
-4.367759101067e+00
-4.362967271296e+00
-4.358159930475e+00
-4.353337109820e+00
-4.348498840437e+00
-4.343645153316e+00
-4.338776079336e+00
-4.333891649264e+00
-4.328991893757e+00
-4.324076843362e+00
-4.319146528515e+00
-4.314200979542e+00
-4.309240226661e+00
-4.304264299985e+00
-4.299273229514e+00
-4.294267045144e+00
-4.289245776666e+00
-4.284209453761e+00
-4.279158106009e+00
-4.274091762882e+00
-4.269010453749e+00
-4.263914207876e+00
-4.258803054424e+00
-4.253677022453e+00
-4.248536140919e+00
-4.243380438678e+00
-4.238209944485e+00
-4.233024686993e+00
-4.227824694755e+00
-4.222609996226e+00
-4.217380619761e+00
-4.212136593615e+00
-4.206877945948e+00
-4.201604704819e+00
-4.196316898192e+00
-4.191014553934e+00
-4.185697699816e+00
-4.180366363512e+00
-4.175020572603e+00
-4.169660354573e+00
-4.164285736813e+00
-4.158896746622e+00
-4.153493411201e+00
-4.148075757662e+00
-4.142643813024e+00
-4.137197604213e+00
-4.131737158064e+00
-4.126262501322e+00
-4.120773660639e+00
-4.115270662580e+00
-4.109753533616e+00
-4.104222300134e+00
-4.098676988428e+00
-4.093117624706e+00
-4.087544235086e+00
-4.081956845601e+00
-4.076355482194e+00
-4.070740170723e+00
-4.065110936961e+00
-4.059467806591e+00
-4.053810805216e+00
-4.048139958349e+00
-4.042455291422e+00
-4.036756829780e+00
-4.031044598687e+00
-4.025318623320e+00
-4.019578928777e+00
-4.013825540071e+00
-4.008058482132e+00
-4.002277779810e+00
-3.996483457874e+00
-3.990675541009e+00
-3.984854053823e+00
-3.979019020840e+00
-3.973170466508e+00
-3.967308415192e+00
-3.961432891179e+00
-3.955543918679e+00
-3.949641521820e+00
-3.943725724656e+00
-3.937796551160e+00
-3.931854025229e+00
-3.925898170683e+00
-3.919929011266e+00
-3.913946570645e+00
-3.907950872411e+00
-3.901941940079e+00
-3.895919797091e+00
-3.889884466811e+00
-3.883835972531e+00
-3.877774337468e+00
-3.871699584765e+00
-3.865611737492e+00
-3.859510818645e+00
-3.853396851148e+00
-3.847269857853e+00
-3.841129861537e+00
-3.834976884910e+00
-3.828810950606e+00
-3.822632081190e+00
-3.816440299156e+00
-3.810235626927e+00
-3.804018086857e+00
-3.797787701229e+00
-3.791544492256e+00
-3.785288482083e+00
-3.779019692786e+00
-3.772738146371e+00
-3.766443864777e+00
-3.760136869874e+00
-3.753817183466e+00
-3.747484827288e+00
-3.741139823008e+00
-3.734782192229e+00
-3.728411956484e+00
-3.722029137243e+00
-3.715633755909e+00
-3.709225833820e+00
-3.702805392247e+00
-3.696372452397e+00
-3.689927035413e+00
-3.683469162373e+00
-3.676998854289e+00
-3.670516132113e+00
-3.664021016729e+00
-3.657513528961e+00
-3.650993689569e+00
-3.644461519249e+00
-3.637917038637e+00
-3.631360268303e+00
-3.624791228759e+00
-3.618209940452e+00
-3.611616423771e+00
-3.605010699041e+00
-3.598392786528e+00
-3.591762706435e+00
-3.585120478907e+00
-3.578466124027e+00
-3.571799661821e+00
-3.565121112253e+00
-3.558430495227e+00
-3.551727830590e+00
-3.545013138130e+00
-3.538286437575e+00
-3.531547748596e+00
-3.524797090805e+00
-3.518034483757e+00
-3.511259946948e+00
-3.504473499819e+00
-3.497675161752e+00
-3.490864952073e+00
-3.484042890051e+00
-3.477208994899e+00
-3.470363285773e+00
-3.463505781774e+00
-3.456636501948e+00
-3.449755465285e+00
-3.442862690718e+00
-3.435958197128e+00
-3.429042003338e+00
-3.422114128121e+00
-3.415174590192e+00
-3.408223408212e+00
-3.401260600791e+00
-3.394286186483e+00
-3.387300183789e+00
-3.380302611158e+00
-3.373293486985e+00
-3.366272829612e+00
-3.359240657330e+00
-3.352196988377e+00
-3.345141840938e+00
-3.338075233147e+00
-3.330997183087e+00
-3.323907708789e+00
-3.316806828232e+00
-3.309694559345e+00
-3.302570920007e+00
-3.295435928045e+00
-3.288289601235e+00
-3.281131957305e+00
-3.273963013932e+00
-3.266782788743e+00
-3.259591299316e+00
-3.252388563178e+00
-3.245174597811e+00
-3.237949420642e+00
-3.230713049055e+00
-3.223465500382e+00
-3.216206791908e+00
-3.208936940869e+00
-3.201655964453e+00
-3.194363879803e+00
-3.187060704010e+00
-3.179746454120e+00
-3.172421147133e+00
-3.165084800000e+00
-3.157737429625e+00
-3.150379052866e+00
-3.143009686536e+00
-3.135629347400e+00
-3.128238052177e+00
-3.120835817541e+00
-3.113422660119e+00
-3.105998596494e+00
-3.098563643203e+00
-3.091117816736e+00
-3.083661133542e+00
-3.076193610022e+00
-3.068715262533e+00
-3.061226107389e+00
-3.053726160857e+00
-3.046215439162e+00
-3.038693958484e+00
-3.031161734961e+00
-3.023618784686e+00
-3.016065123707e+00
-3.008500768032e+00
-3.000925733625e+00
-2.993340036404e+00
-2.985743692249e+00
-2.978136716994e+00
-2.970519126432e+00
-2.962890936313e+00
-2.955252162346e+00
-2.947602820197e+00
-2.939942925490e+00
-2.932272493810e+00
-2.924591540697e+00
-2.916900081652e+00
-2.909198132133e+00
-2.901485707560e+00
-2.893762823309e+00
-2.886029494717e+00
-2.878285737081e+00
-2.870531565656e+00
-2.862766995658e+00
-2.854992042263e+00
-2.847206720606e+00
-2.839411045783e+00
-2.831605032852e+00
-2.823788696828e+00
-2.815962052691e+00
-2.808125115377e+00
-2.800277899787e+00
-2.792420420782e+00
-2.784552693184e+00
-2.776674731776e+00
-2.768786551303e+00
-2.760888166472e+00
-2.752979591952e+00
-2.745060842374e+00
-2.737131932331e+00
-2.729192876377e+00
-2.721243689031e+00
-2.713284384772e+00
-2.705314978045e+00
-2.697335483254e+00
-2.689345914769e+00
-2.681346286922e+00
-2.673336614007e+00
-2.665316910284e+00
-2.657287189976e+00
-2.649247467267e+00
-2.641197756308e+00
-2.633138071213e+00
-2.625068426059e+00
-2.616988834888e+00
-2.608899311708e+00
-2.600799870488e+00
-2.592690525165e+00
-2.584571289638e+00
-2.576442177773e+00
-2.568303203399e+00
-2.560154380313e+00
-2.551995722275e+00
-2.543827243009e+00
-2.535648956209e+00
-2.527460875531e+00
-2.519263014598e+00
-2.511055386998e+00
-2.502838006286e+00
-2.494610885983e+00
-2.486374039577e+00
-2.478127480519e+00
-2.469871222231e+00
-2.461605278099e+00
-2.453329661477e+00
-2.445044385683e+00
-2.436749464006e+00
-2.428444909700e+00
-2.420130735986e+00
-2.411806956053e+00
-2.403473583057e+00
-2.395130630122e+00
-2.386778110339e+00
-2.378416036767e+00
-2.370044422434e+00
-2.361663280335e+00
-2.353272623433e+00
-2.344872464659e+00
-2.336462816914e+00
-2.328043693065e+00
-2.319615105950e+00
-2.311177068375e+00
-2.302729593114e+00
-2.294272692909e+00
-2.285806380474e+00
-2.277330668491e+00
-2.268845569609e+00
-2.260351096449e+00
-2.251847261600e+00
-2.243334077622e+00
-2.234811557043e+00
-2.226279712362e+00
-2.217738556048e+00
-2.209188100538e+00
-2.200628358242e+00
-2.192059341538e+00
-2.183481062775e+00
-2.174893534272e+00
-2.166296768320e+00
-2.157690777179e+00
-2.149075573080e+00
-2.140451168225e+00
-2.131817574787e+00
-2.123174804911e+00
-2.114522870710e+00
-2.105861784273e+00
-2.097191557655e+00
-2.088512202886e+00
-2.079823731967e+00
-2.071126156870e+00
-2.062419489538e+00
-2.053703741887e+00
-2.044978925805e+00
-2.036245053151e+00
-2.027502135756e+00
-2.018750185425e+00
-2.009989213933e+00
-2.001219233029e+00
-1.992440254434e+00
-1.983652289841e+00
-1.974855350916e+00
-1.966049449298e+00
-1.957234596599e+00
-1.948410804402e+00
-1.939578084266e+00
-1.930736447722e+00
-1.921885906273e+00
-1.913026471396e+00
-1.904158154542e+00
-1.895280967135e+00
-1.886394920573e+00
-1.877500026226e+00
-1.868596295440e+00
-1.859683739533e+00
-1.850762369798e+00
-1.841832197502e+00
-1.832893233886e+00
-1.823945490163e+00
-1.814988977525e+00
-1.806023707133e+00
-1.797049690126e+00
-1.788066937617e+00
-1.779075460692e+00
-1.770075270413e+00
-1.761066377817e+00
-1.752048793914e+00
-1.743022529692e+00
-1.733987596111e+00
-1.724944004107e+00
-1.715891764593e+00
-1.706830888455e+00
-1.697761386555e+00
-1.688683269730e+00
-1.679596548794e+00
-1.670501234535e+00
-1.661397337717e+00
-1.652284869081e+00
-1.643163839342e+00
-1.634034259191e+00
-1.624896139297e+00
-1.615749490304e+00
-1.606594322831e+00
-1.597430647473e+00
-1.588258474804e+00
-1.579077815373e+00
-1.569888679703e+00
-1.560691078298e+00
-1.551485021635e+00
-1.542270520169e+00
-1.533047584332e+00
-1.523816224531e+00
-1.514576451154e+00
-1.505328274561e+00
-1.496071705092e+00
-1.486806753064e+00
-1.477533428771e+00
-1.468251742482e+00
-1.458961704447e+00
-1.449663324890e+00
-1.440356614016e+00
-1.431041582005e+00
-1.421718239014e+00
-1.412386595181e+00
-1.403046660618e+00
-1.393698445417e+00
-1.384341959648e+00
-1.374977213359e+00
-1.365604216573e+00
-1.356222979296e+00
-1.346833511508e+00
-1.337435823170e+00
-1.328029924220e+00
-1.318615824575e+00
-1.309193534130e+00
-1.299763062758e+00
-1.290324420312e+00
-1.280877616622e+00
-1.271422661499e+00
-1.261959564731e+00
-1.252488336084e+00
-1.243008985306e+00
-1.233521522121e+00
-1.224025956233e+00
-1.214522297327e+00
-1.205010555063e+00
-1.195490739085e+00
-1.185962859013e+00
-1.176426924447e+00
-1.166882944968e+00
-1.157330930135e+00
-1.147770889487e+00
-1.138202832542e+00
-1.128626768798e+00
-1.119042707735e+00
-1.109450658809e+00
-1.099850631459e+00
-1.090242635101e+00
-1.080626679134e+00
-1.071002772936e+00
-1.061370925864e+00
-1.051731147256e+00
-1.042083446431e+00
-1.032427832687e+00
-1.022764315303e+00
-1.013092903539e+00
-1.003413606635e+00
-9.937264338099e-01
-9.840313942662e-01
-9.743284971852e-01
-9.646177517293e-01
-9.548991670418e-01
-9.451727522467e-01
-9.354385164490e-01
-9.256964687345e-01
-9.159466181702e-01
-9.061889738041e-01
-8.964235446654e-01
-8.866503397643e-01
-8.768693680923e-01
-8.670806386225e-01
-8.572841603089e-01
-8.474799420871e-01
-8.376679928744e-01
-8.278483215692e-01
-8.180209370518e-01
-8.081858481841e-01
-7.983430638094e-01
-7.884925927531e-01
-7.786344438222e-01
-7.687686258056e-01
-7.588951474742e-01
-7.490140175806e-01
-7.391252448598e-01
-7.292288380284e-01
-7.193248057856e-01
-7.094131568124e-01
-6.994938997723e-01
-6.895670433107e-01
-6.796325960559e-01
-6.696905666180e-01
-6.597409635899e-01
-6.497837955469e-01
-6.398190710469e-01
-6.298467986301e-01
-6.198669868197e-01
-6.098796441214e-01
-5.998847790237e-01
-5.898823999979e-01
-5.798725154981e-01
-5.698551339614e-01
-5.598302638076e-01
-5.497979134399e-01
-5.397580912441e-01
-5.297108055893e-01
-5.196560648279e-01
-5.095938772952e-01
-4.995242513100e-01
-4.894471951741e-01
-4.793627171729e-01
-4.692708255751e-01
-4.591715286328e-01
-4.490648345816e-01
-4.389507516406e-01
-4.288292880126e-01
